elements: [Al, Li]
E0: [0, 0]
deltaSplineBins: 0.001
embeddings:
  0: {ndensity: 2, FS_parameters: [1, 1, 1, 0.5], npoti: FinnisSinclairShiftedScaled, rho_core_cutoff: 5, drho_core_cutoff: 5}
  1: {ndensity: 2, FS_parameters: [1, 1, 1, 0.5], npoti: FinnisSinclairShiftedScaled, rho_core_cutoff: 5, drho_core_cutoff: 5}
bonds:
  [0, 0]: {nradmax: 6, lmax: 3, nradbasemax: 15, radbasename: SBessel, radparameters: [5.25], radcoefficients: [[[0.86279565977013062, -0.05304885992403565, -0.21847916407141704, 0.22898843423507706, -0.08832858432071182, 0.095493098451973263, -0.10966162830701127, 0.12395518735332237, -0.11560562916139491, 0.096267293294248713, -0.062874881550753381, 0.035234684746102328, -0.011883552270046269, 0.0031326203973928916, 0.0021183385787760566], [1.1477254674078943, -0.42574329706853742, -0.15231754910256753, 0.084052511913127542, -0.0010250347553055433, 0.043732911496269067, -0.089431063802519306, 0.096864324030551216, -0.073662680895633673, 0.014700774044062769, 0.02823919753161621, -0.039869966371167756, 0.034313816197191357, -0.019921715138934707, 0.0082397945806100166], [0.84759926852153555, -0.51887275574771108, 0.051781664501578624, 0.029898034927998255, 0.090930120210270401, 0.018798273227698645, -0.19179099803676991, 0.23828083483815335, -0.24327816181536957, 0.19064701252613764, -0.13111833152066737, 0.06841356824916521, -0.034562951309480672, 0.011394733772635744, -0.0021003557962956153], [0.81212993283838486, -0.14880729597142786, -0.18913039969290252, -0.0034015902856174541, 0.17591337331797477, -0.12010563780783266, -0.021376250021053426, 0.035108691003046928, -0.065830905209216889, 0.081292199158112227, -0.072230541461898959, 0.057508434049247985, -0.045526489658797145, 0.02094455457027317, -0.0096903288493756633]], [[-0.026575481670748365, 0.73133723345190782, 0.13430148802541816, -0.10540211092542186, 0.037729668198136203, 0.11134995651727503, -0.12538955045073924, 0.17461748211942058, -0.16677355937962102, 0.16157860364184501, -0.10675070114857094, 0.0675415928488136, -0.018354179079828236, 0.0042962687547047794, 0.0083712331541220802], [-0.5969776800856621, 0.90302318866796105, -0.19254392831664829, -0.2554304790278748, 0.23458056775987715, -0.039655464287088771, -0.048910663322056229, 0.03815413725471533, -0.025918539268321886, 0.029398124949779083, -0.030409714371251974, 0.038776719956922667, -0.025370369779697054, 0.011471427860880642, -0.0010888026883823646], [-0.30131919221983816, 0.73650149860878567, -0.23740062975157619, -0.03699736502060437, 0.10349519894213971, 0.0047619553867310899, -0.0061347497302165687, -0.016846099087448104, 0.043329557151216898, -0.052166952620022897, 0.041074944270868052, -0.026787018846862437, 0.0055255892239334031, 0.00060986827053350799, -0.0020952103610863415], [-0.28225103520758377, 0.88803823178220176, -0.21489660537121238, -0.12407526460566944, 0.014831216969682228, -0.0020295730720879578, 0.095591968065272134, -0.024012978141674121, 0.065164850756389656, -0.065824926915746249, 0.047581200758833347, -0.014586373304539104, -0.0042490291387245359, 0.00022069790461724142, -0.0058516671336399147]], [[0.35372719862451923, -0.32869835294242022, 0.98350434748583215, -0.36697613233464421, -0.034592652515196221, 0.23721816320435507, -0.35324572056334569, 0.45202475992588292, -0.43280829329021231, 0.37057011858944489, -0.25383100607130493, 0.15568038564889633, -0.066120274301405074, 0.022738997706422313, 0.0012106785580968129], [-0.47086051259824069, -0.0065162161042125041, 0.8634342505685032, -0.41149567179975849, 0.1171666419711922, -0.12838333311292266, -0.010235827208084459, 0.13462441882230286, -0.17710670360306266, 0.20946338056321032, -0.17831523948138253, 0.12010877394737823, -0.071736270309982364, 0.033484052039452504, -0.0045897691868707494], [-0.28830040178264932, -0.21241400165948787, 0.89057839489981006, -0.3310180001868771, 0.0057106018106552556, -0.027739682092101935, -0.12886245241398928, 0.15049747143850947, -0.12318990156649195, 0.11503657115516139, -0.058995811787558958, 0.03308623917914514, -0.0076143792134789282, 0.011780374278889698, 0.0013753214116892609], [-0.18109832576793111, -0.11935948681715507, 0.80954954818427416, -0.070196139855871989, -0.17237780605374806, -0.3381600029765397, 0.19891077922488831, 0.052433245123339856, -0.12045228369789227, 0.13967535130487752, -0.1079833220127404, 0.070779185450372262, -0.0048909683998565262, -0.01518075180554946, 0.0039600196104696353]], [[0.65398281054541108, -0.0023242605200219459, -0.50698529437204809, 1.0236612318989617, -0.40265588589443524, -0.13846910487638669, 0.30784617932657077, -0.30670289642794663, 0.24983762199333479, -0.17118929454269269, 0.095842539997561385, -0.032286936225240655, 0.0057309342355417892, 0.002962187852209191, 0.0018739850784150222], [0.3917268990763117, 0.11753537316679813, -0.42628051572732423, 0.79836816743208561, -0.25807808033953539, -0.16868288193850201, 0.11703848057437902, -0.10564084782462889, 0.070670944457877624, -0.060894482445819784, 0.048127915691209777, -0.047553188235030602, 0.020197414977790842, -0.0091489951023252698, 0.0061114189784064136], [0.15267580120220828, -0.17530914009690143, -0.38814304901219909, 0.76033679990898451, -0.086566645732426797, -0.038263223119127991, -0.17080494327490722, -0.0037161324607692162, 0.0083998137644537545, -0.054773348497575175, 0.053129732275391937, -0.069712074013730266, 0.035425161942563559, -0.011804803266550623, 0.0045769116581558791], [-0.015934589872755398, -0.22921657470901882, 0.065384241067950863, 0.8600914642604236, -0.68705573686744892, -0.11982511106191511, 0.20223939937623664, -0.098734043339847713, 0.021441063276621795, 0.07415981372927849, -0.072840692792651651, 0.060814726273186535, 0.007945508685496554, -0.014567259265844118, 0.011454972187800061]], [[0.14110520083705883, 0.18854095884365918, -0.0022497946627115586, -0.084225755292223273, 1.078477293289106, -0.047568158497941278, -0.051603606322428441, 0.040161375694001737, -0.13101311024845932, 0.061119908762658902, -0.14878331799963901, 0.17808329605653428, -0.15160537122832871, 0.105043967829217, -0.024232170763258953], [0.20311954249251019, -0.0013846102467504244, -0.028164413168772055, 0.009836568267469422, 0.97199592282604419, -0.18928514046871256, -0.35134310503998678, 0.015438939101793982, 0.05374092662349076, -0.11360872233073412, 0.010786389694521503, 0.040460486205398265, -0.085104856640567786, 0.051028558768614243, -0.03966809829036954], [-0.29439671192871186, -0.13793188421226676, -0.20692042649006728, -0.15917035272589083, 0.99958785856632459, -0.37133499728164288, -0.19540431735260039, 0.083140845852291506, -0.11171921023620555, -0.026385394285655235, 0.046957883135934082, -0.098892260413904962, 0.049517471045010517, -0.0284686687297835, 0.0035323746872731503], [-0.083456015700217337, -0.01373949144762621, -0.11527647700638544, -0.067774887955089957, 1.0150884602246319, -0.1223331501732607, -0.037606430113669501, -0.23621346012022013, -0.4315568960868168, -0.12124873494324609, -0.14208069866465994, -0.11557626608105713, 0.023325867785252651, -0.090385122357366829, 0.012773501605414959]], [[0.10886535097726517, 0.019112876621174661, 0.17575731182478657, 0.19685231208638021, 0.020283551119042127, 1.1047260023832852, -0.27102172723693813, -0.19270045425105115, 0.23572426955378073, -0.31640211174598276, 0.085475218278246876, 0.080562956474703212, -0.13606926688672633, 0.11499772229440534, -0.021573842240614722], [0.076522927848261146, 0.034795206606071376, 0.063459337490272147, 0.029335057825443718, 0.036120011332887905, 0.81769014053138911, -0.67254039987303105, -0.059739384293913379, 0.30404353380248739, -0.31813251264221154, 0.12122944456734167, 0.022209016499846211, -0.090301020749563449, 0.060967228619219264, -0.048539615309195289], [0.29902510289888512, 0.067522107225712155, 0.0025643958483287854, -0.097824006222731547, -0.10117482720396435, 0.88575145123513799, -0.54402455855300036, -0.029749002143649159, 0.15342107090658649, -0.28770994105481906, 0.15075208998723794, -0.05411109226354878, -0.012861871897860757, 0.029683051863431915, -0.03284939036828418], [0.078983879065418691, -0.066100925780557873, -0.038799650529491872, -0.072553592281588586, -0.066476474258296253, 1.0395105600808849, -0.15927199197040676, -0.0035925017256779337, 0.043017248986863696, -0.14900911217025825, 0.099752653852691442, -0.089475687264332651, 0.067700791030259902, -0.031921046873298643, 0.032041248684877316]]], prehc: 100, lambdahc: 1, rcut: 7, dcut: 0.01, rcut_in: 2, dcut_in: 0.01, inner_cutoff_type: distance}
  [0, 1]: {nradmax: 6, lmax: 3, nradbasemax: 12, radbasename: SBessel, radparameters: [5.25], radcoefficients: [[[1.026516902588658, -0.4252842213560355, 0.38782302122642026, -0.27080684748460515, 0.31232387741688622, -0.1884676234152346, 0.11915276734070998, -0.058987802673799092, 0.024646417226745255, -0.0021450854741551289, 0.0016689357177643005, 0.0046575779736161326], [1.0478676607124637, -0.50199945458738426, 0.0836334002649467, -0.089631316130730859, 0.160843239967673, -0.12333722331014282, 0.079063534994279913, -0.045406975289288734, 0.016805253179564043, -0.007232994002192363, 0.00071035542535904711, -0.0017044203024728427], [0.79487452876909681, -0.32788958434313858, -0.1776224333920324, 0.18095168464474801, -0.066165327322363868, 0.034396858316614362, -0.036805216057930738, 0.0045024691057190371, 3.3321698825991156e-05, -0.0099530229276080569, 0.0072828747350485003, -0.0075373142298272829], [0.8009448702023545, -0.21183308831000083, -0.31847254126988717, -0.015813660603304167, 0.17669503379356169, -0.12020437805137106, 0.10037023774905224, -0.12519107714217451, 0.086080122652196542, -0.05758706922642131, 0.050229370247282641, -0.012099074678750628]], [[-0.023775907422756353, 0.62018569873019747, 0.10130362542011183, 0.060660882357446481, -0.030747310030930917, 0.1344783798871752, -0.073577841807045227, 0.088300114925330117, -0.062716398947781055, 0.049589024602550276, -0.010948816589817407, 0.011941380669715788], [-0.22137899303123698, 0.81402710854926752, -0.42686063691498194, 0.070395272680775514, -0.046613073953543985, 0.15179312999961264, -0.11390759569038147, 0.109941532834733, -0.079657293111143584, 0.042275100937921598, -0.017792958752766382, 0.0032532597715467259], [-0.12622240288569436, 0.78771440403750048, -0.3438576962891306, -0.057742734071174751, 0.20636236630101532, -0.034533603119743954, 0.053104015086074326, -0.00603894038241359, 0.013413543542770691, -0.012970118737927756, 0.01083800328072628, -0.0091098912606075791], [-0.12911012428440902, 0.74636717279903264, -0.48599232922292784, 0.080091289161125331, 0.46801355450316984, -0.16518204245755619, 0.00064217674909590862, 0.090586522428226526, -0.096238036084238088, 0.094154688371470188, -0.030376859317934799, 0.012051493548186501]], [[0.43554376061660011, -0.23983687453730038, 0.73852357068032815, -0.2043086324209307, 0.002626164225240511, 0.10011948734791913, -0.047000165838982824, 0.061626675849504334, -0.035789607446975895, 0.030841415608700004, 0.0011024023535650043, 0.0073894961017398732], [-0.18591977123792441, -0.31509774683130809, 0.86907402237753784, -0.36206385488496762, -0.058164455788600418, 0.099134495873314951, -0.10251115288784461, 0.13671581465817922, -0.091150435061503179, 0.054826201411394375, -0.02426429520893298, 0.0089148957191254562], [-0.18207629064475878, -0.39435913895614111, 0.76925196157091591, -0.15419449117264802, 0.0076515326209552724, 0.0036659346537859191, -0.32257430125560282, 0.25452800860919156, -0.23367122944954249, 0.13772025422337933, -0.082545528260018541, 0.025787430131840008], [-0.1267436829276187, -0.1026723785624188, 0.90827026209194461, 0.0265656681331502, 0.28523002105233702, -0.18929084225425979, -0.17272367469736058, 0.25894622613430018, -0.3231050967195187, 0.16945445318468372, -0.16155305287036692, 0.03344243069955103]], [[0.27056953605642847, -0.23378134734169762, -0.36147575024030248, 0.80757031870438156, -0.17594729323180391, 0.41467649766652165, -0.11799313898438357, -0.10499482871014365, 0.20337454195018656, -0.18650554620463969, 0.13469016594859959, -0.031024070432987341], [-0.089687356988856451, -0.11665954432113, -0.37170948165388512, 0.9140047319522091, -0.36648708556294979, -0.19468776464971879, 0.15564854821959084, -0.19546493901075285, 0.15533964851610804, -0.095184271671084966, 0.049329157129844398, -0.0098646416102572167], [-0.063616878850087225, -0.12126968417325017, -0.28985371508998631, 0.94695554055205744, -0.12525866166281399, -0.40891447051755841, 0.0008097815156183491, -0.15309698684872453, 0.035583776156168589, -0.047232011107133161, -0.010362262742590255, -0.010211338987758048], [0.014758954913518673, 0.066245096228155109, 0.020468916855023823, 1.0409795198939964, -0.268040047898148, -0.36933843777343933, 0.036178624674897214, -0.11559849522892524, -0.026635603432147381, -0.061547301765933801, -0.088305776765990024, -0.014943897705302994]], [[0.073193227616394213, 0.14996730993838409, -0.3047326882848248, -0.45525655255381131, 1.0554081179297559, -0.12904877649781873, -0.13330365301535402, 0.041163744134690906, 0.0059962023493139909, -0.031781934772924202, 0.032413330869322556, 0.012275858735882763], [0.12302716832067175, -0.040562342763168925, 0.0021950042263099816, -0.15918570280732339, 0.80275230731912528, -0.29585647388805797, -0.22593410797754121, 0.17382655645368827, -0.18593120009322794, 0.1005939398330872, -0.021847119387444814, 0.011357893493846721], [-0.11420866809401375, 0.064651036743254092, -0.17284274990071122, -0.18067830465576021, 0.86478538447199371, -0.51220344316241584, -0.22026815008646891, -0.018422413912685374, -0.17063709391415643, 0.040693894789268832, -0.068253128264808269, -0.030912528954315243], [0, 0, 0, 0, 1, 0, 0, 0, 0, 0, 0, 0]], [[-0.06285288276728275, 0.15487441101144572, 0.323359123001147, -0.076704248095735325, -0.047380676976387773, 0.90321549005710711, -0.42827996583523337, 0.082586933633970752, 0.16227825808762186, -0.16988024504325791, 0.17085065244752462, -0.028583252710489362], [-0.023103737628271146, 0.0043471201162416781, 0.030984561442854417, -0.03477474241974262, 0.035277398767895297, 0.9157124158145511, -0.13224358726764698, 0.14589814700359097, -0.1432403969328831, -0.009931762633368783, 0.040449709605422692, -0.074677705493352328], [0, 0, 0, 0, 0, 1, 0, 0, 0, 0, 0, 0], [0, 0, 0, 0, 0, 1, 0, 0, 0, 0, 0, 0]]], prehc: 100, lambdahc: 1, rcut: 7, dcut: 0.01, rcut_in: 2, dcut_in: 0.10000000000000001, inner_cutoff_type: distance}
  [1, 0]: {nradmax: 6, lmax: 3, nradbasemax: 12, radbasename: SBessel, radparameters: [5.25], radcoefficients: [[[1.026516902588658, -0.4252842213560355, 0.38782302122642026, -0.27080684748460515, 0.31232387741688622, -0.1884676234152346, 0.11915276734070998, -0.058987802673799092, 0.024646417226745255, -0.0021450854741551289, 0.0016689357177643005, 0.0046575779736161326], [1.0478676607124637, -0.50199945458738426, 0.0836334002649467, -0.089631316130730859, 0.160843239967673, -0.12333722331014282, 0.079063534994279913, -0.045406975289288734, 0.016805253179564043, -0.007232994002192363, 0.00071035542535904711, -0.0017044203024728427], [0.79487452876909681, -0.32788958434313858, -0.1776224333920324, 0.18095168464474801, -0.066165327322363868, 0.034396858316614362, -0.036805216057930738, 0.0045024691057190371, 3.3321698825991156e-05, -0.0099530229276080569, 0.0072828747350485003, -0.0075373142298272829], [0.8009448702023545, -0.21183308831000083, -0.31847254126988717, -0.015813660603304167, 0.17669503379356169, -0.12020437805137106, 0.10037023774905224, -0.12519107714217451, 0.086080122652196542, -0.05758706922642131, 0.050229370247282641, -0.012099074678750628]], [[-0.023775907422756353, 0.62018569873019747, 0.10130362542011183, 0.060660882357446481, -0.030747310030930917, 0.1344783798871752, -0.073577841807045227, 0.088300114925330117, -0.062716398947781055, 0.049589024602550276, -0.010948816589817407, 0.011941380669715788], [-0.22137899303123698, 0.81402710854926752, -0.42686063691498194, 0.070395272680775514, -0.046613073953543985, 0.15179312999961264, -0.11390759569038147, 0.109941532834733, -0.079657293111143584, 0.042275100937921598, -0.017792958752766382, 0.0032532597715467259], [-0.12622240288569436, 0.78771440403750048, -0.3438576962891306, -0.057742734071174751, 0.20636236630101532, -0.034533603119743954, 0.053104015086074326, -0.00603894038241359, 0.013413543542770691, -0.012970118737927756, 0.01083800328072628, -0.0091098912606075791], [-0.12911012428440902, 0.74636717279903264, -0.48599232922292784, 0.080091289161125331, 0.46801355450316984, -0.16518204245755619, 0.00064217674909590862, 0.090586522428226526, -0.096238036084238088, 0.094154688371470188, -0.030376859317934799, 0.012051493548186501]], [[0.43554376061660011, -0.23983687453730038, 0.73852357068032815, -0.2043086324209307, 0.002626164225240511, 0.10011948734791913, -0.047000165838982824, 0.061626675849504334, -0.035789607446975895, 0.030841415608700004, 0.0011024023535650043, 0.0073894961017398732], [-0.18591977123792441, -0.31509774683130809, 0.86907402237753784, -0.36206385488496762, -0.058164455788600418, 0.099134495873314951, -0.10251115288784461, 0.13671581465817922, -0.091150435061503179, 0.054826201411394375, -0.02426429520893298, 0.0089148957191254562], [-0.18207629064475878, -0.39435913895614111, 0.76925196157091591, -0.15419449117264802, 0.0076515326209552724, 0.0036659346537859191, -0.32257430125560282, 0.25452800860919156, -0.23367122944954249, 0.13772025422337933, -0.082545528260018541, 0.025787430131840008], [-0.1267436829276187, -0.1026723785624188, 0.90827026209194461, 0.0265656681331502, 0.28523002105233702, -0.18929084225425979, -0.17272367469736058, 0.25894622613430018, -0.3231050967195187, 0.16945445318468372, -0.16155305287036692, 0.03344243069955103]], [[0.27056953605642847, -0.23378134734169762, -0.36147575024030248, 0.80757031870438156, -0.17594729323180391, 0.41467649766652165, -0.11799313898438357, -0.10499482871014365, 0.20337454195018656, -0.18650554620463969, 0.13469016594859959, -0.031024070432987341], [-0.089687356988856451, -0.11665954432113, -0.37170948165388512, 0.9140047319522091, -0.36648708556294979, -0.19468776464971879, 0.15564854821959084, -0.19546493901075285, 0.15533964851610804, -0.095184271671084966, 0.049329157129844398, -0.0098646416102572167], [-0.063616878850087225, -0.12126968417325017, -0.28985371508998631, 0.94695554055205744, -0.12525866166281399, -0.40891447051755841, 0.0008097815156183491, -0.15309698684872453, 0.035583776156168589, -0.047232011107133161, -0.010362262742590255, -0.010211338987758048], [0.014758954913518673, 0.066245096228155109, 0.020468916855023823, 1.0409795198939964, -0.268040047898148, -0.36933843777343933, 0.036178624674897214, -0.11559849522892524, -0.026635603432147381, -0.061547301765933801, -0.088305776765990024, -0.014943897705302994]], [[0.073193227616394213, 0.14996730993838409, -0.3047326882848248, -0.45525655255381131, 1.0554081179297559, -0.12904877649781873, -0.13330365301535402, 0.041163744134690906, 0.0059962023493139909, -0.031781934772924202, 0.032413330869322556, 0.012275858735882763], [0.12302716832067175, -0.040562342763168925, 0.0021950042263099816, -0.15918570280732339, 0.80275230731912528, -0.29585647388805797, -0.22593410797754121, 0.17382655645368827, -0.18593120009322794, 0.1005939398330872, -0.021847119387444814, 0.011357893493846721], [-0.11420866809401375, 0.064651036743254092, -0.17284274990071122, -0.18067830465576021, 0.86478538447199371, -0.51220344316241584, -0.22026815008646891, -0.018422413912685374, -0.17063709391415643, 0.040693894789268832, -0.068253128264808269, -0.030912528954315243], [0, 0, 0, 0, 1, 0, 0, 0, 0, 0, 0, 0]], [[-0.06285288276728275, 0.15487441101144572, 0.323359123001147, -0.076704248095735325, -0.047380676976387773, 0.90321549005710711, -0.42827996583523337, 0.082586933633970752, 0.16227825808762186, -0.16988024504325791, 0.17085065244752462, -0.028583252710489362], [-0.023103737628271146, 0.0043471201162416781, 0.030984561442854417, -0.03477474241974262, 0.035277398767895297, 0.9157124158145511, -0.13224358726764698, 0.14589814700359097, -0.1432403969328831, -0.009931762633368783, 0.040449709605422692, -0.074677705493352328], [0, 0, 0, 0, 0, 1, 0, 0, 0, 0, 0, 0], [0, 0, 0, 0, 0, 1, 0, 0, 0, 0, 0, 0]]], prehc: 100, lambdahc: 1, rcut: 7, dcut: 0.01, rcut_in: 2, dcut_in: 0.10000000000000001, inner_cutoff_type: distance}
  [1, 1]: {nradmax: 6, lmax: 3, nradbasemax: 15, radbasename: SBessel, radparameters: [5.25], radcoefficients: [[[0.68061024534974324, -0.052323162442761278, 0.18067115640818715, -0.021876035855732931, 0.073361066411144163, 0.032873542747310747, -0.028864093918045126, 0.074555689656720103, -0.053437279397350768, 0.065561831974787765, -0.029012454971551839, 0.02582235562667886, -0.0092451599995681012, 0.0054796354710102829, 0.0025989552218830762], [0.5893473534706819, -0.056079807730960586, -0.1622153514796936, 0.037358498080521045, 0.03039239843159431, -0.078296873652373006, 0.1131284902521871, -0.099148007436075575, 0.083763637302602001, -0.06050064419374019, 0.044338521744244082, -0.026033528788590561, 0.016157387730311966, -0.0060622113201057289, 0.0025795764164593298], [0.57629458172219927, -0.26583876816189073, 0.025522060904997056, -0.12111607092243423, 0.1071370894583094, -0.0013334427524686824, -0.067808740400530754, 0.1169236154633653, -0.13854377188151842, 0.12243586518001255, -0.091184891560040282, 0.060910264308672607, -0.033290425131058676, 0.014821696331104207, -0.005567222732643603], [0.61359557684108079, 0.11698937927684802, 0.046086373444059227, -0.26694855943654017, 0.19004908066902867, -0.018160315807555578, -0.043085208257203682, 0.088599805390387115, -0.1370962673752765, 0.12395709923826287, -0.094964403979355461, 0.062601935837119788, -0.040144237521712457, 0.029057457259180325, -0.018352864589564814]], [[-0.17301148140047973, 0.81295131539856968, 0.14275717044516628, 0.015378462643402443, 0.027899827750973209, 0.096949833581972622, -0.035584416517656071, 0.078077461395366976, -0.038475128175185606, 0.05427569074191578, -0.0081642247362409687, 0.014535740482769425, -0.0012631955443687521, 0.003402094166872577, 0.0046602725073372304], [-0.23237562650539009, 0.54866233742793202, -0.1452945350792062, 0.029566779343469185, -0.047799037714669687, 0.010567946070875795, 0.021047383423931407, 0.0010906671035260096, -0.0015250449041059226, 0.0063446703525359876, -0.00266887744332074, 0.0057057161158599072, -0.0016125242620423257, 0.0034083899228396935, -0.0013225695591063235], [-0.079646722010355817, 0.61250213832903122, -0.185383849549944, 0.011399297277121172, -0.087805719306227326, 0.045017105696127518, 0.017267327095992661, -0.0077681133384265811, 0.018666960473564281, -0.012302916672796052, 0.010415555372458328, 0.0038126295513631471, -0.0027253400386627264, 0.0047755164375887452, -0.00068003717134920141], [-0.091949321918482721, 0.74509965621696073, -0.29902573567228674, -0.020304843097877202, 0.073158508679503839, 0.0035737069696919178, 0.01715042994131398, -0.037970883401584665, -0.0058890353340386023, -0.0061830174698186222, 0.01248753969024321, -0.019416630376696772, -0.00047957168670506806, 0.0089405529962730216, -0.016361755966325928]], [[0.043629302858169711, -0.20901814158647863, 0.51074572207326685, -0.021345034209293748, 0.057971531348414283, -0.12530557614312571, 0.041752415527381646, -0.015140408208074767, 0.025484031030847482, -0.012172512348948339, 0.014278885031735472, -0.0081065059859105511, 0.0066190271999485841, -0.0033907756354215226, 0.0043354314659344844], [-0.36308583216050783, -0.20603072472793779, 0.68718663310524053, -0.23522225232378324, 0.030379992111241975, -0.10153643737297829, 0.021057548982167284, 0.0061730965959182968, -0.0067316217974598257, 0.0033498735171968185, -0.0080766719282857041, 0.0079594616612996393, -0.00094319896069829936, 0.00089399772996063653, -0.0026760427057658767], [0.020851745743187797, -0.11779679387776461, 0.66889675794771342, -0.13159914916864063, -0.11716706373058706, -0.087937341212604644, 0.072366779846985682, -0.044492823195463153, 0.058998525546679205, -0.056447185878234024, 0.033832948295899577, -0.018565792975699512, 0.01823353008165475, -0.0069140657636570894, 0.0057206317384149389], [0.052711332482207475, 0.037160457954039362, 0.82700882328614167, -0.29125107356317964, -0.1847060060625984, -0.20412446571692183, -0.078171211924994821, 0.0058097263953189801, -0.080094674471696881, 0.040896806002611433, -0.080989211739232084, 0.039092607494413394, -0.039202775400956506, -0.0075318595316172096, -0.018777568489092726]], [[-0.18014276224696416, -0.19427209425906675, -0.28074636004510012, 0.68558012371673049, -0.16391056320235187, -0.16195191536942513, -0.044720576001919407, 0.066880062791055919, -0.01622228253170048, 0.0028473183805387899, 0.011131766980698772, -0.01491414139836069, 0.01438737537414865, -0.010485293493545357, 0.008254125073563004], [0.1262826367663071, -0.09365860504049095, -0.065974734207960767, 0.7147901662430266, -0.45580344647070153, -0.065769473044919938, -0.022699168892243809, -0.0045509291347711114, 0.013435676687858866, -0.017408970564911683, 0.0081325059970687851, -0.00048252047913712376, 0.0082867411029149719, -0.0017297449296861135, -0.0021760201449151106], [-0.091669379402200005, -0.045226598663203138, -0.054454333823833835, 0.73126658013911827, -0.28214883454583478, -0.16007095870334276, -0.025952358841228356, 0.020940564124941729, -0.056877323206762385, 0.044884222063072264, -0.055174577711804985, 0.01666476758333553, 0.0050519037180310313, -0.0067369888515123565, 0.0067755138499867706], [-0.044905769874044467, -0.046514640945163922, 0.028176141709215789, 0.89397077819213755, -0.13208708188939572, 0.11830373738051317, -0.03618364607340066, -0.086216548300230067, 0.11221672935471225, -0.051922156385202221, 0.024584701505682302, -0.011023523450463485, 0.01093551935258737, 0.0038986709494284438, -0.025984733675743388]], [[0.028592791576432651, -0.017845366684589185, -0.1921406788649154, -0.20216252145095426, 0.91716021300822359, -0.21070771903349853, -0.14308342651683564, 0.10379842290557316, -0.04618452051114124, -0.016066479766663179, 0.041423323107770055, -0.065149658810026517, 0.046782818487979008, -0.026845742713717223, 0.01993045179516998], [0.0045254718621685723, 0.0075307865970766913, -0.037606564099596049, -0.053698821569526121, 0.96021726055684953, -0.093286579634269132, -0.091541215000483706, -0.01400440882635378, 0.016518241653557555, 0.0044242461684991276, -0.039066941195265499, -0.002664955341485272, -0.017651775595649875, -0.017378464557896163, 0.021895204238782696], [-0.037395883921748016, 0.00051872461728137936, -0.0015112877075235611, 0.036315295039489284, 0.94105521632569789, -0.059414599744373589, 0.29523918428440193, 0.17730672016503257, -0.069372702872212699, 0.096362871625041743, 0.0011773207543858757, 0.009983900228790794, 0.071642163628452951, -0.06293415946965443, 0.01128451000566582], [0.020001541612052011, 0.0023490868502823743, 0.0024054834336682033, 0.0068235289062333242, 1.0053849066124152, -0.003871254460052158, 0.036644003351270368, 0.02893549036998953, -0.054726769521622518, 0.066685807930049648, 0.044781381211992662, -0.093652655828387374, 0.044176296311302085, 0.055386218086620878, -0.055811474937839008]], [[0.0064068327079048436, -0.038019965644341888, 0.073640073235972575, 0.067954505764941997, -0.013952505366269295, 0.9664001692341978, -0.19479187664788228, 0.016029116274203729, 0.10953485851234722, -0.089946350092049585, 0.15118767096756691, -0.090216942772695444, 0.066692398883389015, -0.020941048397112205, 0.0153690575921619], [0.016455191593996318, 0.002751352289957737, 0.0083581592637041562, -0.0059055353671435464, 0.015031266343589072, 0.95418136353199512, -0.049218121684423979, 0.15466841588241856, 0.034001764409598935, -0.031335084005638683, 0.098922008719873888, -0.050806700373017738, 0.087265408676469175, -0.0046418757549282885, -0.0067019814160311966], [0.0088315275737426546, -0.0092688332894345429, -0.0098428855582432147, -0.032130739732047296, -0.039750443901059737, 0.98567621747216749, -0.050273959402088807, -0.088772869208535832, -0.064674061496867635, 0.050251614619838576, 0.11638857308817918, 0.01997845285266904, 0.016041143468848398, 0.010643079430638126, -0.0025634121561273196], [-0.001651823505783633, -0.0034068551460903966, 0.00040639025094082434, 0.005815296686243622, 0.02410685264867132, 0.98489428582502181, -0.067190026752645945, 0.010439141361501552, 0.050092161706499591, 0.010429730124537752, 0.070396896812604678, 0.10778108946581974, 0.005147698102985751, -0.1458809687113711, 0.07331289380565105]]], prehc: 100, lambdahc: 1, rcut: 7, dcut: 0.01, rcut_in: 1.95, dcut_in: 0.10000000000000001, inner_cutoff_type: distance}
functions:
  0:
    - {mu0: 0, rank: 1, ndensity: 2, num_ms_combs: 1, mus: [0], ns: [1], ls: [0], ms_combs: [0], ctildes: [-0.51174197417555845, 0.9623135863121558]}
    - {mu0: 0, rank: 1, ndensity: 2, num_ms_combs: 1, mus: [0], ns: [2], ls: [0], ms_combs: [0], ctildes: [-2.2033837968413539, -1.1395577670519277]}
    - {mu0: 0, rank: 1, ndensity: 2, num_ms_combs: 1, mus: [0], ns: [3], ls: [0], ms_combs: [0], ctildes: [1.2216929582952016, -0.27735360511330115]}
    - {mu0: 0, rank: 1, ndensity: 2, num_ms_combs: 1, mus: [0], ns: [4], ls: [0], ms_combs: [0], ctildes: [0.24294456236274059, 0.83594258369621111]}
    - {mu0: 0, rank: 1, ndensity: 2, num_ms_combs: 1, mus: [0], ns: [5], ls: [0], ms_combs: [0], ctildes: [-1.5689784230465811, -0.56547468909330645]}
    - {mu0: 0, rank: 1, ndensity: 2, num_ms_combs: 1, mus: [0], ns: [6], ls: [0], ms_combs: [0], ctildes: [1.4173381033768784, 0.21321714237269745]}
    - {mu0: 0, rank: 1, ndensity: 2, num_ms_combs: 1, mus: [0], ns: [7], ls: [0], ms_combs: [0], ctildes: [-0.71354276642795811, 0.058248956632606964]}
    - {mu0: 0, rank: 1, ndensity: 2, num_ms_combs: 1, mus: [0], ns: [8], ls: [0], ms_combs: [0], ctildes: [-0.11856004239870543, -0.23109885432590341]}
    - {mu0: 0, rank: 1, ndensity: 2, num_ms_combs: 1, mus: [0], ns: [9], ls: [0], ms_combs: [0], ctildes: [0.63899596382184631, 0.2378805597349325]}
    - {mu0: 0, rank: 1, ndensity: 2, num_ms_combs: 1, mus: [0], ns: [10], ls: [0], ms_combs: [0], ctildes: [-0.80609724708390329, -0.19978528538717513]}
    - {mu0: 0, rank: 1, ndensity: 2, num_ms_combs: 1, mus: [0], ns: [11], ls: [0], ms_combs: [0], ctildes: [0.66251223274306514, 0.10901936070498185]}
    - {mu0: 0, rank: 1, ndensity: 2, num_ms_combs: 1, mus: [0], ns: [12], ls: [0], ms_combs: [0], ctildes: [-0.42680319653173948, -0.04230563035556633]}
    - {mu0: 0, rank: 1, ndensity: 2, num_ms_combs: 1, mus: [0], ns: [13], ls: [0], ms_combs: [0], ctildes: [0.19257061804596268, -0.004100543907556895]}
    - {mu0: 0, rank: 1, ndensity: 2, num_ms_combs: 1, mus: [0], ns: [14], ls: [0], ms_combs: [0], ctildes: [-0.070212627918158924, 0.013581199174517708]}
    - {mu0: 0, rank: 1, ndensity: 2, num_ms_combs: 1, mus: [0], ns: [15], ls: [0], ms_combs: [0], ctildes: [0.0050574524939692254, -0.011205579036061834]}
    - {mu0: 0, rank: 1, ndensity: 2, num_ms_combs: 1, mus: [1], ns: [1], ls: [0], ms_combs: [0], ctildes: [-0.40415050401550862, 0.11786791037381401]}
    - {mu0: 0, rank: 1, ndensity: 2, num_ms_combs: 1, mus: [1], ns: [2], ls: [0], ms_combs: [0], ctildes: [-1.1733991558098582, -0.43862868577237901]}
    - {mu0: 0, rank: 1, ndensity: 2, num_ms_combs: 1, mus: [1], ns: [3], ls: [0], ms_combs: [0], ctildes: [0.47721054610341662, 0.14314505408744899]}
    - {mu0: 0, rank: 1, ndensity: 2, num_ms_combs: 1, mus: [1], ns: [4], ls: [0], ms_combs: [0], ctildes: [-0.071827790380744869, 0.049005367614621251]}
    - {mu0: 0, rank: 1, ndensity: 2, num_ms_combs: 1, mus: [1], ns: [5], ls: [0], ms_combs: [0], ctildes: [-0.52386505514830572, -0.08777587082100119]}
    - {mu0: 0, rank: 1, ndensity: 2, num_ms_combs: 1, mus: [1], ns: [6], ls: [0], ms_combs: [0], ctildes: [0.50982783781589491, 0.16394775583262405]}
    - {mu0: 0, rank: 1, ndensity: 2, num_ms_combs: 1, mus: [1], ns: [7], ls: [0], ms_combs: [0], ctildes: [-0.31499799159317537, -0.11306669243706997]}
    - {mu0: 0, rank: 1, ndensity: 2, num_ms_combs: 1, mus: [1], ns: [8], ls: [0], ms_combs: [0], ctildes: [0.12825367062398363, 0.039245727505569566]}
    - {mu0: 0, rank: 1, ndensity: 2, num_ms_combs: 1, mus: [1], ns: [9], ls: [0], ms_combs: [0], ctildes: [-0.016286240973623294, 0.012798408975941157]}
    - {mu0: 0, rank: 1, ndensity: 2, num_ms_combs: 1, mus: [1], ns: [10], ls: [0], ms_combs: [0], ctildes: [-0.044887249150346885, -0.015252229650664834]}
    - {mu0: 0, rank: 1, ndensity: 2, num_ms_combs: 1, mus: [1], ns: [11], ls: [0], ms_combs: [0], ctildes: [0.027549093922651348, 0.015391138462207266]}
    - {mu0: 0, rank: 1, ndensity: 2, num_ms_combs: 1, mus: [1], ns: [12], ls: [0], ms_combs: [0], ctildes: [-0.027725285107546901, 0.00019328906896862031]}
    - {mu0: 0, rank: 2, ndensity: 2, num_ms_combs: 1, mus: [0, 0], ns: [1, 1], ls: [0, 0], ms_combs: [0, 0], ctildes: [0.93016539350431282, 0.54462915177067728]}
    - {mu0: 0, rank: 2, ndensity: 2, num_ms_combs: 2, mus: [0, 0], ns: [1, 1], ls: [1, 1], ms_combs: [0, 0, 1, -1], ctildes: [0.84961976673001205, 0.22422363388984085, -1.6992395334600237, -0.44844726777968158]}
    - {mu0: 0, rank: 2, ndensity: 2, num_ms_combs: 3, mus: [0, 0], ns: [1, 1], ls: [2, 2], ms_combs: [0, 0, 1, -1, 2, -2], ctildes: [0.41213087761740075, -0.095448154505621746, -0.82426175523480161, 0.19089630901124352, 0.82426175523480183, -0.19089630901124358]}
    - {mu0: 0, rank: 2, ndensity: 2, num_ms_combs: 4, mus: [0, 0], ns: [1, 1], ls: [3, 3], ms_combs: [0, 0, 1, -1, 2, -2, 3, -3], ctildes: [0.075728723291679664, -0.093729479107097641, -0.15145744658335933, 0.18745895821419528, 0.1514574465833593, -0.18745895821419525, -0.1514574465833593, 0.18745895821419525]}
    - {mu0: 0, rank: 2, ndensity: 2, num_ms_combs: 1, mus: [0, 0], ns: [1, 2], ls: [0, 0], ms_combs: [0, 0], ctildes: [0.2480046597814082, 0.52914373925152314]}
    - {mu0: 0, rank: 2, ndensity: 2, num_ms_combs: 2, mus: [0, 0], ns: [1, 2], ls: [1, 1], ms_combs: [0, 0, 1, -1], ctildes: [-0.027174788401100242, 0.36723983641656527, 0.054349576802200469, -0.73447967283313043]}
    - {mu0: 0, rank: 2, ndensity: 2, num_ms_combs: 3, mus: [0, 0], ns: [1, 2], ls: [2, 2], ms_combs: [0, 0, 1, -1, 2, -2], ctildes: [-0.15122428326446119, 0.08258202303765054, 0.30244856652892244, -0.16516404607530111, -0.30244856652892249, 0.16516404607530116]}
    - {mu0: 0, rank: 2, ndensity: 2, num_ms_combs: 4, mus: [0, 0], ns: [1, 2], ls: [3, 3], ms_combs: [0, 0, 1, -1, 2, -2, 3, -3], ctildes: [-0.12229702661237433, -0.014771834383770364, 0.24459405322474867, 0.029543668767540728, -0.24459405322474864, -0.029543668767540724, 0.24459405322474864, 0.029543668767540724]}
    - {mu0: 0, rank: 2, ndensity: 2, num_ms_combs: 1, mus: [0, 0], ns: [1, 3], ls: [0, 0], ms_combs: [0, 0], ctildes: [0.13794355711660902, 0.99641827548096096]}
    - {mu0: 0, rank: 2, ndensity: 2, num_ms_combs: 2, mus: [0, 0], ns: [1, 3], ls: [1, 1], ms_combs: [0, 0, 1, -1], ctildes: [0.070714387968277059, 0.3328719142871, -0.14142877593655409, -0.66574382857419989]}
    - {mu0: 0, rank: 2, ndensity: 2, num_ms_combs: 3, mus: [0, 0], ns: [1, 3], ls: [2, 2], ms_combs: [0, 0, 1, -1, 2, -2], ctildes: [0.0077224499297434525, 0.25685531550418317, -0.015444899859486907, -0.51371063100836645, 0.01544489985948691, 0.51371063100836656]}
    - {mu0: 0, rank: 2, ndensity: 2, num_ms_combs: 4, mus: [0, 0], ns: [1, 3], ls: [3, 3], ms_combs: [0, 0, 1, -1, 2, -2, 3, -3], ctildes: [0.0052057884898966313, 0.090247879794220942, -0.010411576979793263, -0.18049575958844188, 0.010411576979793261, 0.18049575958844186, -0.010411576979793261, -0.18049575958844186]}
    - {mu0: 0, rank: 2, ndensity: 2, num_ms_combs: 1, mus: [0, 0], ns: [1, 4], ls: [0, 0], ms_combs: [0, 0], ctildes: [-0.58552539031626916, -0.41616184232082865]}
    - {mu0: 0, rank: 2, ndensity: 2, num_ms_combs: 2, mus: [0, 0], ns: [1, 4], ls: [1, 1], ms_combs: [0, 0, 1, -1], ctildes: [-0.063442891840012297, -0.066975363256901663, 0.12688578368002457, 0.1339507265138033]}
    - {mu0: 0, rank: 2, ndensity: 2, num_ms_combs: 3, mus: [0, 0], ns: [1, 4], ls: [2, 2], ms_combs: [0, 0, 1, -1, 2, -2], ctildes: [-0.088914241308830216, -0.29610794157459736, 0.17782848261766046, 0.59221588314919482, -0.17782848261766052, -0.59221588314919493]}
    - {mu0: 0, rank: 2, ndensity: 2, num_ms_combs: 4, mus: [0, 0], ns: [1, 4], ls: [3, 3], ms_combs: [0, 0, 1, -1, 2, -2, 3, -3], ctildes: [-0.0094572197666287026, -0.12950302890902271, 0.018914439533257405, 0.25900605781804542, -0.018914439533257402, -0.25900605781804537, 0.018914439533257402, 0.25900605781804537]}
    - {mu0: 0, rank: 2, ndensity: 2, num_ms_combs: 1, mus: [0, 0], ns: [1, 5], ls: [0, 0], ms_combs: [0, 0], ctildes: [0.29977133850525622, 0.21869128785804826]}
    - {mu0: 0, rank: 2, ndensity: 2, num_ms_combs: 2, mus: [0, 0], ns: [1, 5], ls: [1, 1], ms_combs: [0, 0, 1, -1], ctildes: [0.13409056586489679, 0.021534978845871522, -0.26818113172979352, -0.043069957691743037]}
    - {mu0: 0, rank: 2, ndensity: 2, num_ms_combs: 3, mus: [0, 0], ns: [1, 5], ls: [2, 2], ms_combs: [0, 0, 1, -1, 2, -2], ctildes: [0.027606937993552388, 0.1008208756644723, -0.055213875987104782, -0.20164175132894463, 0.055213875987104796, 0.20164175132894466]}
    - {mu0: 0, rank: 2, ndensity: 2, num_ms_combs: 4, mus: [0, 0], ns: [1, 5], ls: [3, 3], ms_combs: [0, 0, 1, -1, 2, -2, 3, -3], ctildes: [0.0014839759770821366, -0.01659767813389941, -0.0029679519541642731, 0.03319535626779882, 0.0029679519541642727, -0.033195356267798813, -0.0029679519541642727, 0.033195356267798813]}
    - {mu0: 0, rank: 2, ndensity: 2, num_ms_combs: 1, mus: [0, 0], ns: [1, 6], ls: [0, 0], ms_combs: [0, 0], ctildes: [-0.28445242064427601, 0.10273304275684859]}
    - {mu0: 0, rank: 2, ndensity: 2, num_ms_combs: 2, mus: [0, 0], ns: [1, 6], ls: [1, 1], ms_combs: [0, 0, 1, -1], ctildes: [-0.064647271318595809, 0.016546769220458453, 0.12929454263719159, -0.033093538440916899]}
    - {mu0: 0, rank: 2, ndensity: 2, num_ms_combs: 3, mus: [0, 0], ns: [1, 6], ls: [2, 2], ms_combs: [0, 0, 1, -1, 2, -2], ctildes: [0.12346594494758922, -0.057816411834448689, -0.24693188989517847, 0.11563282366889739, 0.24693188989517853, -0.11563282366889742]}
    - {mu0: 0, rank: 2, ndensity: 2, num_ms_combs: 4, mus: [0, 0], ns: [1, 6], ls: [3, 3], ms_combs: [0, 0, 1, -1, 2, -2, 3, -3], ctildes: [0.035642497861272944, -0.013072253202581974, -0.071284995722545888, 0.026144506405163949, 0.071284995722545874, -0.026144506405163945, -0.071284995722545874, 0.026144506405163945]}
    - {mu0: 0, rank: 2, ndensity: 2, num_ms_combs: 1, mus: [0, 0], ns: [2, 2], ls: [0, 0], ms_combs: [0, 0], ctildes: [0.26323595205975203, 0.67141773776197089]}
    - {mu0: 0, rank: 2, ndensity: 2, num_ms_combs: 2, mus: [0, 0], ns: [2, 2], ls: [1, 1], ms_combs: [0, 0, 1, -1], ctildes: [0.13181071853616516, -0.2524572543892965, -0.26362143707233027, 0.50491450877859301]}
    - {mu0: 0, rank: 2, ndensity: 2, num_ms_combs: 3, mus: [0, 0], ns: [2, 2], ls: [2, 2], ms_combs: [0, 0, 1, -1, 2, -2], ctildes: [-0.099042231190152472, 0.11896902547959645, 0.19808446238030497, -0.23793805095919293, -0.19808446238030503, 0.23793805095919299]}
    - {mu0: 0, rank: 2, ndensity: 2, num_ms_combs: 4, mus: [0, 0], ns: [2, 2], ls: [3, 3], ms_combs: [0, 0, 1, -1, 2, -2, 3, -3], ctildes: [0.1090385997954057, -0.062153176256824663, -0.2180771995908114, 0.12430635251364933, 0.21807719959081137, -0.1243063525136493, -0.21807719959081137, 0.1243063525136493]}
    - {mu0: 0, rank: 2, ndensity: 2, num_ms_combs: 1, mus: [0, 0], ns: [2, 3], ls: [0, 0], ms_combs: [0, 0], ctildes: [0.16083313279503608, 0.12364770685212886]}
    - {mu0: 0, rank: 2, ndensity: 2, num_ms_combs: 2, mus: [0, 0], ns: [2, 3], ls: [1, 1], ms_combs: [0, 0, 1, -1], ctildes: [-0.1165424324130734, 0.01414992666260171, 0.23308486482614676, -0.028299853325203416]}
    - {mu0: 0, rank: 2, ndensity: 2, num_ms_combs: 3, mus: [0, 0], ns: [2, 3], ls: [2, 2], ms_combs: [0, 0, 1, -1, 2, -2], ctildes: [-0.12516002924095812, 0.0084413329205930213, 0.25032005848191624, -0.016882665841186043, -0.2503200584819163, 0.016882665841186049]}
    - {mu0: 0, rank: 2, ndensity: 2, num_ms_combs: 4, mus: [0, 0], ns: [2, 3], ls: [3, 3], ms_combs: [0, 0, 1, -1, 2, -2, 3, -3], ctildes: [-0.14103688796239203, 0.089117604468296571, 0.28207377592478405, -0.17823520893659314, -0.282073775924784, 0.17823520893659311, 0.282073775924784, -0.17823520893659311]}
    - {mu0: 0, rank: 2, ndensity: 2, num_ms_combs: 1, mus: [0, 0], ns: [2, 4], ls: [0, 0], ms_combs: [0, 0], ctildes: [0.3224035661547518, -0.28545288979946731]}
    - {mu0: 0, rank: 2, ndensity: 2, num_ms_combs: 2, mus: [0, 0], ns: [2, 4], ls: [1, 1], ms_combs: [0, 0, 1, -1], ctildes: [-0.16776453530961469, 0.13791792839346972, 0.33552907061922926, -0.27583585678693939]}
    - {mu0: 0, rank: 2, ndensity: 2, num_ms_combs: 3, mus: [0, 0], ns: [2, 4], ls: [2, 2], ms_combs: [0, 0, 1, -1, 2, -2], ctildes: [0.11719059759858509, -0.044238201334782921, -0.23438119519717021, 0.088476402669565843, 0.23438119519717029, -0.088476402669565871]}
    - {mu0: 0, rank: 2, ndensity: 2, num_ms_combs: 4, mus: [0, 0], ns: [2, 4], ls: [3, 3], ms_combs: [0, 0, 1, -1, 2, -2, 3, -3], ctildes: [0.010881714060598307, 0.10661060382194801, -0.021763428121196613, -0.21322120764389602, 0.02176342812119661, 0.21322120764389599, -0.02176342812119661, -0.21322120764389599]}
    - {mu0: 0, rank: 2, ndensity: 2, num_ms_combs: 1, mus: [0, 0], ns: [2, 5], ls: [0, 0], ms_combs: [0, 0], ctildes: [-0.26499968572749882, -0.1822042108841754]}
    - {mu0: 0, rank: 2, ndensity: 2, num_ms_combs: 2, mus: [0, 0], ns: [2, 5], ls: [1, 1], ms_combs: [0, 0, 1, -1], ctildes: [-0.062803185517483096, -0.065591848238063022, 0.12560637103496619, 0.13118369647612602]}
    - {mu0: 0, rank: 2, ndensity: 2, num_ms_combs: 3, mus: [0, 0], ns: [2, 5], ls: [2, 2], ms_combs: [0, 0, 1, -1, 2, -2], ctildes: [-0.0018288345326350323, -0.063579059578284983, 0.0036576690652700651, 0.12715811915656999, -0.0036576690652700659, -0.12715811915657002]}
    - {mu0: 0, rank: 2, ndensity: 2, num_ms_combs: 4, mus: [0, 0], ns: [2, 5], ls: [3, 3], ms_combs: [0, 0, 1, -1, 2, -2, 3, -3], ctildes: [0.011578375749741526, -0.010934814174947015, -0.023156751499483052, 0.021869628349894029, 0.023156751499483048, -0.021869628349894026, -0.023156751499483048, 0.021869628349894026]}
    - {mu0: 0, rank: 2, ndensity: 2, num_ms_combs: 1, mus: [0, 0], ns: [2, 6], ls: [0, 0], ms_combs: [0, 0], ctildes: [0.27597318059696441, -0.15550071997851195]}
    - {mu0: 0, rank: 2, ndensity: 2, num_ms_combs: 2, mus: [0, 0], ns: [2, 6], ls: [1, 1], ms_combs: [0, 0, 1, -1], ctildes: [0.020950235336359816, 0.10276745681137023, -0.041900470672719618, -0.2055349136227404]}
    - {mu0: 0, rank: 2, ndensity: 2, num_ms_combs: 3, mus: [0, 0], ns: [2, 6], ls: [2, 2], ms_combs: [0, 0, 1, -1, 2, -2], ctildes: [-0.039152286188642395, 0.025517078040292955, 0.078304572377284803, -0.05103415608058591, -0.078304572377284817, 0.051034156080585924]}
    - {mu0: 0, rank: 2, ndensity: 2, num_ms_combs: 4, mus: [0, 0], ns: [2, 6], ls: [3, 3], ms_combs: [0, 0, 1, -1, 2, -2, 3, -3], ctildes: [-0.058659818353979654, 0.054413322307310871, 0.11731963670795931, -0.10882664461462174, -0.11731963670795929, 0.10882664461462173, 0.11731963670795929, -0.10882664461462173]}
    - {mu0: 0, rank: 2, ndensity: 2, num_ms_combs: 1, mus: [0, 0], ns: [3, 3], ls: [0, 0], ms_combs: [0, 0], ctildes: [-0.0067348186285102543, -0.34308112105065469]}
    - {mu0: 0, rank: 2, ndensity: 2, num_ms_combs: 2, mus: [0, 0], ns: [3, 3], ls: [1, 1], ms_combs: [0, 0, 1, -1], ctildes: [-0.046817785000885306, 0.0038831630638834704, 0.093635570001770599, -0.0077663261277669399]}
    - {mu0: 0, rank: 2, ndensity: 2, num_ms_combs: 3, mus: [0, 0], ns: [3, 3], ls: [2, 2], ms_combs: [0, 0, 1, -1, 2, -2], ctildes: [0.021698972703280126, -0.095679114370885401, -0.043397945406560258, 0.19135822874177083, 0.043397945406560265, -0.19135822874177086]}
    - {mu0: 0, rank: 2, ndensity: 2, num_ms_combs: 4, mus: [0, 0], ns: [3, 3], ls: [3, 3], ms_combs: [0, 0, 1, -1, 2, -2, 3, -3], ctildes: [-0.025788407497922473, -0.013883821793207508, 0.051576814995844947, 0.027767643586415015, -0.05157681499584494, -0.027767643586415008, 0.05157681499584494, 0.027767643586415008]}
    - {mu0: 0, rank: 2, ndensity: 2, num_ms_combs: 1, mus: [0, 0], ns: [3, 4], ls: [0, 0], ms_combs: [0, 0], ctildes: [-0.39000429254129393, 0.80240348304326081]}
    - {mu0: 0, rank: 2, ndensity: 2, num_ms_combs: 2, mus: [0, 0], ns: [3, 4], ls: [1, 1], ms_combs: [0, 0, 1, -1], ctildes: [0.057074241330377945, 0.14162623450055795, -0.11414848266075588, -0.28325246900111584]}
    - {mu0: 0, rank: 2, ndensity: 2, num_ms_combs: 3, mus: [0, 0], ns: [3, 4], ls: [2, 2], ms_combs: [0, 0, 1, -1, 2, -2], ctildes: [0.030045646223203274, 0.10791291011693369, -0.060091292446406555, -0.2158258202338674, 0.060091292446406569, 0.21582582023386745]}
    - {mu0: 0, rank: 2, ndensity: 2, num_ms_combs: 4, mus: [0, 0], ns: [3, 4], ls: [3, 3], ms_combs: [0, 0, 1, -1, 2, -2, 3, -3], ctildes: [0.099834711765364903, -0.1148004715342314, -0.19966942353072981, 0.22960094306846279, 0.19966942353072978, -0.22960094306846277, -0.19966942353072978, 0.22960094306846277]}
    - {mu0: 0, rank: 2, ndensity: 2, num_ms_combs: 1, mus: [0, 0], ns: [3, 5], ls: [0, 0], ms_combs: [0, 0], ctildes: [0.2859643312269699, 0.091585766665218213]}
    - {mu0: 0, rank: 2, ndensity: 2, num_ms_combs: 2, mus: [0, 0], ns: [3, 5], ls: [1, 1], ms_combs: [0, 0, 1, -1], ctildes: [0.058070567412036117, -0.022705812092930749, -0.11614113482407221, 0.045411624185861491]}
    - {mu0: 0, rank: 2, ndensity: 2, num_ms_combs: 3, mus: [0, 0], ns: [3, 5], ls: [2, 2], ms_combs: [0, 0, 1, -1, 2, -2], ctildes: [-0.010690441178582573, -0.11295389855777713, 0.021380882357165149, 0.22590779711555428, -0.021380882357165152, -0.22590779711555434]}
    - {mu0: 0, rank: 2, ndensity: 2, num_ms_combs: 4, mus: [0, 0], ns: [3, 5], ls: [3, 3], ms_combs: [0, 0, 1, -1, 2, -2, 3, -3], ctildes: [0.0051806681625045006, -0.00097619273330628318, -0.010361336325009001, 0.0019523854666125664, 0.010361336325009001, -0.0019523854666125659, -0.010361336325009001, 0.0019523854666125659]}
    - {mu0: 0, rank: 2, ndensity: 2, num_ms_combs: 1, mus: [0, 0], ns: [3, 6], ls: [0, 0], ms_combs: [0, 0], ctildes: [-0.28920271731431685, 0.21220766438604349]}
    - {mu0: 0, rank: 2, ndensity: 2, num_ms_combs: 2, mus: [0, 0], ns: [3, 6], ls: [1, 1], ms_combs: [0, 0, 1, -1], ctildes: [-0.0031677399561376328, 0.028142702350303566, 0.0063354799122752646, -0.056285404700607125]}
    - {mu0: 0, rank: 2, ndensity: 2, num_ms_combs: 3, mus: [0, 0], ns: [3, 6], ls: [2, 2], ms_combs: [0, 0, 1, -1, 2, -2], ctildes: [0.051792866847029238, -0.0071960375615771751, -0.10358573369405849, 0.014392075123154352, 0.10358573369405852, -0.014392075123154355]}
    - {mu0: 0, rank: 2, ndensity: 2, num_ms_combs: 4, mus: [0, 0], ns: [3, 6], ls: [3, 3], ms_combs: [0, 0, 1, -1, 2, -2, 3, -3], ctildes: [0.0029631612955882433, -0.012894861168430428, -0.0059263225911764866, 0.025789722336860856, 0.0059263225911764857, -0.025789722336860853, -0.0059263225911764857, 0.025789722336860853]}
    - {mu0: 0, rank: 2, ndensity: 2, num_ms_combs: 1, mus: [0, 0], ns: [4, 4], ls: [0, 0], ms_combs: [0, 0], ctildes: [0.070670246491290847, -0.1490602389703598]}
    - {mu0: 0, rank: 2, ndensity: 2, num_ms_combs: 2, mus: [0, 0], ns: [4, 4], ls: [1, 1], ms_combs: [0, 0, 1, -1], ctildes: [-0.28013325705562647, 0.18670706430132483, 0.56026651411125283, -0.37341412860264955]}
    - {mu0: 0, rank: 2, ndensity: 2, num_ms_combs: 3, mus: [0, 0], ns: [4, 4], ls: [2, 2], ms_combs: [0, 0, 1, -1, 2, -2], ctildes: [-0.065953594282748662, -0.060352419953337393, 0.13190718856549732, 0.1207048399066748, -0.13190718856549738, -0.12070483990667484]}
    - {mu0: 0, rank: 2, ndensity: 2, num_ms_combs: 4, mus: [0, 0], ns: [4, 4], ls: [3, 3], ms_combs: [0, 0, 1, -1, 2, -2, 3, -3], ctildes: [-0.080361270974118382, 0.12487692073112747, 0.16072254194823676, -0.24975384146225493, -0.16072254194823674, 0.24975384146225491, 0.16072254194823674, -0.24975384146225491]}
    - {mu0: 0, rank: 2, ndensity: 2, num_ms_combs: 1, mus: [0, 0], ns: [4, 5], ls: [0, 0], ms_combs: [0, 0], ctildes: [-0.055657999898614793, -0.12217273079054515]}
    - {mu0: 0, rank: 2, ndensity: 2, num_ms_combs: 2, mus: [0, 0], ns: [4, 5], ls: [1, 1], ms_combs: [0, 0, 1, -1], ctildes: [0.051822871639473994, -0.041075424363013237, -0.10364574327894797, 0.082150848726026446]}
    - {mu0: 0, rank: 2, ndensity: 2, num_ms_combs: 3, mus: [0, 0], ns: [4, 5], ls: [2, 2], ms_combs: [0, 0, 1, -1, 2, -2], ctildes: [0.065493480497284387, 0.13595531916778208, -0.13098696099456877, -0.27191063833556423, 0.1309869609945688, 0.27191063833556428]}
    - {mu0: 0, rank: 2, ndensity: 2, num_ms_combs: 4, mus: [0, 0], ns: [4, 5], ls: [3, 3], ms_combs: [0, 0, 1, -1, 2, -2, 3, -3], ctildes: [-0.0055402782841147882, 0.0028381661680564069, 0.011080556568229576, -0.0056763323361128139, -0.011080556568229575, 0.005676332336112813, 0.011080556568229575, -0.005676332336112813]}
    - {mu0: 0, rank: 2, ndensity: 2, num_ms_combs: 1, mus: [0, 0], ns: [4, 6], ls: [0, 0], ms_combs: [0, 0], ctildes: [0.073405364937496304, -0.027382035154541809]}
    - {mu0: 0, rank: 2, ndensity: 2, num_ms_combs: 2, mus: [0, 0], ns: [4, 6], ls: [1, 1], ms_combs: [0, 0, 1, -1], ctildes: [-0.040350328460052272, -0.062760382652923066, 0.08070065692010453, 0.1255207653058461]}
    - {mu0: 0, rank: 2, ndensity: 2, num_ms_combs: 3, mus: [0, 0], ns: [4, 6], ls: [2, 2], ms_combs: [0, 0, 1, -1, 2, -2], ctildes: [-0.055580832834115676, 0.020551664470849995, 0.11116166566823137, -0.041103328941699997, -0.11116166566823139, 0.041103328941700004]}
    - {mu0: 0, rank: 2, ndensity: 2, num_ms_combs: 1, mus: [0, 0], ns: [5, 5], ls: [0, 0], ms_combs: [0, 0], ctildes: [0.0011657644802053637, 0.045820995859942759]}
    - {mu0: 0, rank: 2, ndensity: 2, num_ms_combs: 2, mus: [0, 0], ns: [5, 5], ls: [1, 1], ms_combs: [0, 0, 1, -1], ctildes: [-0.0033075460724754312, -0.017064094756075, 0.0066150921449508607, 0.034128189512149992]}
    - {mu0: 0, rank: 2, ndensity: 2, num_ms_combs: 3, mus: [0, 0], ns: [5, 5], ls: [2, 2], ms_combs: [0, 0, 1, -1, 2, -2], ctildes: [-0.031021262508455612, -0.039370051851072611, 0.062042525016911231, 0.078740103702145237, -0.062042525016911244, -0.07874010370214525]}
    - {mu0: 0, rank: 2, ndensity: 2, num_ms_combs: 1, mus: [0, 0], ns: [5, 6], ls: [0, 0], ms_combs: [0, 0], ctildes: [-0.0021326383279500574, -0.03907116647198302]}
    - {mu0: 0, rank: 2, ndensity: 2, num_ms_combs: 2, mus: [0, 0], ns: [5, 6], ls: [1, 1], ms_combs: [0, 0, 1, -1], ctildes: [0.01396529786758949, 0.069843402236054758, -0.027930595735178976, -0.13968680447210949]}
    - {mu0: 0, rank: 2, ndensity: 2, num_ms_combs: 3, mus: [0, 0], ns: [5, 6], ls: [2, 2], ms_combs: [0, 0, 1, -1, 2, -2], ctildes: [0.018735386882813846, 0.0010586269573249489, -0.037470773765627699, -0.0021172539146498979, 0.037470773765627706, 0.0021172539146498987]}
    - {mu0: 0, rank: 2, ndensity: 2, num_ms_combs: 1, mus: [0, 0], ns: [6, 6], ls: [0, 0], ms_combs: [0, 0], ctildes: [0.00077072919322412458, 0.0090132171277334666]}
    - {mu0: 0, rank: 2, ndensity: 2, num_ms_combs: 2, mus: [0, 0], ns: [6, 6], ls: [1, 1], ms_combs: [0, 0, 1, -1], ctildes: [-0.0038498924691501945, -0.051254001081572215, 0.0076997849383003882, 0.1025080021631444]}
    - {mu0: 0, rank: 2, ndensity: 2, num_ms_combs: 1, mus: [0, 1], ns: [1, 1], ls: [0, 0], ms_combs: [0, 0], ctildes: [0.16676935363790973, 0.35484297243213531]}
    - {mu0: 0, rank: 2, ndensity: 2, num_ms_combs: 2, mus: [0, 1], ns: [1, 1], ls: [1, 1], ms_combs: [0, 0, 1, -1], ctildes: [0.14185362746301614, -0.099019258353638673, -0.28370725492603222, 0.19803851670727732]}
    - {mu0: 0, rank: 2, ndensity: 2, num_ms_combs: 3, mus: [0, 1], ns: [1, 1], ls: [2, 2], ms_combs: [0, 0, 1, -1, 2, -2], ctildes: [-0.19575020613953828, 0.15758653882721801, 0.39150041227907662, -0.31517307765443608, -0.39150041227907673, 0.31517307765443614]}
    - {mu0: 0, rank: 2, ndensity: 2, num_ms_combs: 4, mus: [0, 1], ns: [1, 1], ls: [3, 3], ms_combs: [0, 0, 1, -1, 2, -2, 3, -3], ctildes: [0.025233327333418393, -0.079617378621908291, -0.050466654666836787, 0.15923475724381658, 0.05046665466683678, -0.15923475724381655, -0.05046665466683678, 0.15923475724381655]}
    - {mu0: 0, rank: 2, ndensity: 2, num_ms_combs: 1, mus: [0, 1], ns: [1, 2], ls: [0, 0], ms_combs: [0, 0], ctildes: [0.029633282075378256, 0.32423016359050572]}
    - {mu0: 0, rank: 2, ndensity: 2, num_ms_combs: 2, mus: [0, 1], ns: [1, 2], ls: [1, 1], ms_combs: [0, 0, 1, -1], ctildes: [0.36241017005910919, 0.5187749717957435, -0.72482034011821828, -1.0375499435914868]}
    - {mu0: 0, rank: 2, ndensity: 2, num_ms_combs: 3, mus: [0, 1], ns: [1, 2], ls: [2, 2], ms_combs: [0, 0, 1, -1, 2, -2], ctildes: [0.19287233439563756, -0.31672772803234028, -0.38574466879127517, 0.63345545606468068, 0.38574466879127522, -0.63345545606468079]}
    - {mu0: 0, rank: 2, ndensity: 2, num_ms_combs: 4, mus: [0, 1], ns: [1, 2], ls: [3, 3], ms_combs: [0, 0, 1, -1, 2, -2, 3, -3], ctildes: [-0.02749348889015053, 0.022237964762602893, 0.054986977780301059, -0.044475929525205786, -0.054986977780301052, 0.044475929525205779, 0.054986977780301052, -0.044475929525205779]}
    - {mu0: 0, rank: 2, ndensity: 2, num_ms_combs: 1, mus: [0, 1], ns: [1, 3], ls: [0, 0], ms_combs: [0, 0], ctildes: [0.090355834660732048, 0.49781401382597212]}
    - {mu0: 0, rank: 2, ndensity: 2, num_ms_combs: 2, mus: [0, 1], ns: [1, 3], ls: [1, 1], ms_combs: [0, 0, 1, -1], ctildes: [-0.082326815304401932, 0.04259376694088432, 0.16465363060880384, -0.085187533881768626]}
    - {mu0: 0, rank: 2, ndensity: 2, num_ms_combs: 3, mus: [0, 1], ns: [1, 3], ls: [2, 2], ms_combs: [0, 0, 1, -1, 2, -2], ctildes: [-0.065819322386777609, 0.087026836604904748, 0.13163864477355522, -0.17405367320980952, -0.13163864477355527, 0.17405367320980955]}
    - {mu0: 0, rank: 2, ndensity: 2, num_ms_combs: 4, mus: [0, 1], ns: [1, 3], ls: [3, 3], ms_combs: [0, 0, 1, -1, 2, -2, 3, -3], ctildes: [0.054776444434402841, -0.096076794860794151, -0.10955288886880568, 0.1921535897215883, 0.10955288886880565, -0.19215358972158827, -0.10955288886880565, 0.19215358972158827]}
    - {mu0: 0, rank: 2, ndensity: 2, num_ms_combs: 1, mus: [0, 1], ns: [1, 4], ls: [0, 0], ms_combs: [0, 0], ctildes: [-0.17733842577595962, -0.093597604006252694]}
    - {mu0: 0, rank: 2, ndensity: 2, num_ms_combs: 2, mus: [0, 1], ns: [1, 4], ls: [1, 1], ms_combs: [0, 0, 1, -1], ctildes: [0.026374207864686198, 0.29292023491546659, -0.052748415729372389, -0.58584046983093307]}
    - {mu0: 0, rank: 2, ndensity: 2, num_ms_combs: 3, mus: [0, 1], ns: [1, 4], ls: [2, 2], ms_combs: [0, 0, 1, -1, 2, -2], ctildes: [-0.018240210434962968, -0.02874971803106853, 0.036480420869925943, 0.057499436062137067, -0.03648042086992595, -0.057499436062137081]}
    - {mu0: 0, rank: 2, ndensity: 2, num_ms_combs: 4, mus: [0, 1], ns: [1, 4], ls: [3, 3], ms_combs: [0, 0, 1, -1, 2, -2, 3, -3], ctildes: [-0.040941033693684792, 0.066832093475468257, 0.081882067387369584, -0.13366418695093651, -0.08188206738736957, 0.13366418695093649, 0.08188206738736957, -0.13366418695093649]}
    - {mu0: 0, rank: 2, ndensity: 2, num_ms_combs: 1, mus: [0, 1], ns: [1, 5], ls: [0, 0], ms_combs: [0, 0], ctildes: [0.15579713502098885, -0.27082395807266474]}
    - {mu0: 0, rank: 2, ndensity: 2, num_ms_combs: 2, mus: [0, 1], ns: [1, 5], ls: [1, 1], ms_combs: [0, 0, 1, -1], ctildes: [0.032987337369389386, -0.2027731460326847, -0.065974674738778757, 0.4055462920653693]}
    - {mu0: 0, rank: 2, ndensity: 2, num_ms_combs: 3, mus: [0, 1], ns: [1, 5], ls: [2, 2], ms_combs: [0, 0, 1, -1, 2, -2], ctildes: [0.04714800402967434, -0.039986048480516539, -0.094296008059348693, 0.079972096961033093, 0.094296008059348707, -0.079972096961033107]}
    - {mu0: 0, rank: 2, ndensity: 2, num_ms_combs: 1, mus: [0, 1], ns: [1, 6], ls: [0, 0], ms_combs: [0, 0], ctildes: [0.020336918020164824, 0.25720477093765343]}
    - {mu0: 0, rank: 2, ndensity: 2, num_ms_combs: 2, mus: [0, 1], ns: [1, 6], ls: [1, 1], ms_combs: [0, 0, 1, -1], ctildes: [0.0028503375943862617, -0.0013341946747673602, -0.0057006751887725216, 0.0026683893495347195]}
    - {mu0: 0, rank: 2, ndensity: 2, num_ms_combs: 1, mus: [0, 1], ns: [2, 1], ls: [0, 0], ms_combs: [0, 0], ctildes: [0.93221347714255409, 0.61522737041885456]}
    - {mu0: 0, rank: 2, ndensity: 2, num_ms_combs: 2, mus: [0, 1], ns: [2, 1], ls: [1, 1], ms_combs: [0, 0, 1, -1], ctildes: [0.4338391846424679, 0.2328783947183079, -0.86767836928493569, -0.46575678943661575]}
    - {mu0: 0, rank: 2, ndensity: 2, num_ms_combs: 3, mus: [0, 1], ns: [2, 1], ls: [2, 2], ms_combs: [0, 0, 1, -1, 2, -2], ctildes: [-0.039088692941949554, -0.099117122759831588, 0.078177385883899109, 0.1982342455196632, -0.078177385883899136, -0.19823424551966323]}
    - {mu0: 0, rank: 2, ndensity: 2, num_ms_combs: 4, mus: [0, 1], ns: [2, 1], ls: [3, 3], ms_combs: [0, 0, 1, -1, 2, -2, 3, -3], ctildes: [0.0028425610960464572, -0.0042635944889724614, -0.0056851221920929144, 0.0085271889779449227, 0.0056851221920929135, -0.008527188977944921, -0.0056851221920929135, 0.008527188977944921]}
    - {mu0: 0, rank: 2, ndensity: 2, num_ms_combs: 1, mus: [0, 1], ns: [2, 2], ls: [0, 0], ms_combs: [0, 0], ctildes: [0.11898449530669522, 0.54499501743703593]}
    - {mu0: 0, rank: 2, ndensity: 2, num_ms_combs: 2, mus: [0, 1], ns: [2, 2], ls: [1, 1], ms_combs: [0, 0, 1, -1], ctildes: [0.12230403515869911, -0.21864925253112191, -0.24460807031739817, 0.43729850506224371]}
    - {mu0: 0, rank: 2, ndensity: 2, num_ms_combs: 3, mus: [0, 1], ns: [2, 2], ls: [2, 2], ms_combs: [0, 0, 1, -1, 2, -2], ctildes: [-0.10273425348373187, 0.10816542538381917, 0.20546850696746377, -0.21633085076763836, -0.20546850696746383, 0.21633085076763842]}
    - {mu0: 0, rank: 2, ndensity: 2, num_ms_combs: 4, mus: [0, 1], ns: [2, 2], ls: [3, 3], ms_combs: [0, 0, 1, -1, 2, -2, 3, -3], ctildes: [0.0090935165638788961, -0.021818796991558961, -0.018187033127757792, 0.043637593983117923, 0.018187033127757789, -0.043637593983117916, -0.018187033127757789, 0.043637593983117916]}
    - {mu0: 0, rank: 2, ndensity: 2, num_ms_combs: 1, mus: [0, 1], ns: [2, 3], ls: [0, 0], ms_combs: [0, 0], ctildes: [0.18452289454059007, -0.044593990253789365]}
    - {mu0: 0, rank: 2, ndensity: 2, num_ms_combs: 2, mus: [0, 1], ns: [2, 3], ls: [1, 1], ms_combs: [0, 0, 1, -1], ctildes: [-0.066729930000323623, -0.13876438102095062, 0.13345986000064722, 0.27752876204190119]}
    - {mu0: 0, rank: 2, ndensity: 2, num_ms_combs: 3, mus: [0, 1], ns: [2, 3], ls: [2, 2], ms_combs: [0, 0, 1, -1, 2, -2], ctildes: [-0.0583430152780188, 0.06783359056578224, 0.11668603055603761, -0.13566718113156451, -0.11668603055603764, 0.13566718113156453]}
    - {mu0: 0, rank: 2, ndensity: 2, num_ms_combs: 1, mus: [0, 1], ns: [2, 4], ls: [0, 0], ms_combs: [0, 0], ctildes: [0.13983513468704709, -0.13029028092842071]}
    - {mu0: 0, rank: 2, ndensity: 2, num_ms_combs: 2, mus: [0, 1], ns: [2, 4], ls: [1, 1], ms_combs: [0, 0, 1, -1], ctildes: [-0.052413081607221156, -0.059818370094190207, 0.10482616321444228, 0.11963674018838039]}
    - {mu0: 0, rank: 2, ndensity: 2, num_ms_combs: 3, mus: [0, 1], ns: [2, 4], ls: [2, 2], ms_combs: [0, 0, 1, -1, 2, -2], ctildes: [0.013165734559302542, -0.0060204702698896315, -0.026331469118605087, 0.012040940539779265, 0.026331469118605094, -0.012040940539779266]}
    - {mu0: 0, rank: 2, ndensity: 2, num_ms_combs: 1, mus: [0, 1], ns: [2, 5], ls: [0, 0], ms_combs: [0, 0], ctildes: [-0.20904750917193901, 0.2935717425003555]}
    - {mu0: 0, rank: 2, ndensity: 2, num_ms_combs: 2, mus: [0, 1], ns: [2, 5], ls: [1, 1], ms_combs: [0, 0, 1, -1], ctildes: [-0.019946633896621491, 0.04598078817587116, 0.039893267793242974, -0.091961576351742305]}
    - {mu0: 0, rank: 2, ndensity: 2, num_ms_combs: 1, mus: [0, 1], ns: [2, 6], ls: [0, 0], ms_combs: [0, 0], ctildes: [0.065008839055442233, -0.20365794267314882]}
    - {mu0: 0, rank: 2, ndensity: 2, num_ms_combs: 2, mus: [0, 1], ns: [2, 6], ls: [1, 1], ms_combs: [0, 0, 1, -1], ctildes: [0.016029968656207708, -0.03567005713863227, -0.03205993731241541, 0.071340114277264527]}
    - {mu0: 0, rank: 2, ndensity: 2, num_ms_combs: 1, mus: [0, 1], ns: [3, 1], ls: [0, 0], ms_combs: [0, 0], ctildes: [-0.032447411414391926, 0.032075825160601402]}
    - {mu0: 0, rank: 2, ndensity: 2, num_ms_combs: 2, mus: [0, 1], ns: [3, 1], ls: [1, 1], ms_combs: [0, 0, 1, -1], ctildes: [0.10076956877055444, -0.044712995339269694, -0.20153913754110883, 0.089425990678539374]}
    - {mu0: 0, rank: 2, ndensity: 2, num_ms_combs: 3, mus: [0, 1], ns: [3, 1], ls: [2, 2], ms_combs: [0, 0, 1, -1, 2, -2], ctildes: [-0.067764918905361154, 0.26416918652172899, 0.13552983781072231, -0.52833837304345799, -0.13552983781072234, 0.52833837304345821]}
    - {mu0: 0, rank: 2, ndensity: 2, num_ms_combs: 4, mus: [0, 1], ns: [3, 1], ls: [3, 3], ms_combs: [0, 0, 1, -1, 2, -2, 3, -3], ctildes: [-0.026873065741620721, 0.03040795809533119, 0.053746131483241442, -0.060815916190662379, -0.053746131483241436, 0.060815916190662365, 0.053746131483241436, -0.060815916190662365]}
    - {mu0: 0, rank: 2, ndensity: 2, num_ms_combs: 1, mus: [0, 1], ns: [3, 2], ls: [0, 0], ms_combs: [0, 0], ctildes: [0.38211385073876925, 0.55538994072703718]}
    - {mu0: 0, rank: 2, ndensity: 2, num_ms_combs: 2, mus: [0, 1], ns: [3, 2], ls: [1, 1], ms_combs: [0, 0, 1, -1], ctildes: [0.22469399650703245, -0.022740610921340384, -0.44938799301406485, 0.045481221842680761]}
    - {mu0: 0, rank: 2, ndensity: 2, num_ms_combs: 3, mus: [0, 1], ns: [3, 2], ls: [2, 2], ms_combs: [0, 0, 1, -1, 2, -2], ctildes: [0.052889409296929299, -0.041923394536729226, -0.10577881859385861, 0.083846789073458453, 0.10577881859385864, -0.08384678907345848]}
    - {mu0: 0, rank: 2, ndensity: 2, num_ms_combs: 1, mus: [0, 1], ns: [3, 3], ls: [0, 0], ms_combs: [0, 0], ctildes: [-0.27656209092088835, -0.078775204605298188]}
    - {mu0: 0, rank: 2, ndensity: 2, num_ms_combs: 2, mus: [0, 1], ns: [3, 3], ls: [1, 1], ms_combs: [0, 0, 1, -1], ctildes: [-0.076565995473527673, 0.24620621129637815, 0.15313199094705532, -0.49241242259275619]}
    - {mu0: 0, rank: 2, ndensity: 2, num_ms_combs: 3, mus: [0, 1], ns: [3, 3], ls: [2, 2], ms_combs: [0, 0, 1, -1, 2, -2], ctildes: [0.010068102363101511, -0.017802806373360409, -0.020136204726203026, 0.035605612746720819, 0.02013620472620303, -0.035605612746720833]}
    - {mu0: 0, rank: 2, ndensity: 2, num_ms_combs: 1, mus: [0, 1], ns: [3, 4], ls: [0, 0], ms_combs: [0, 0], ctildes: [-0.080307292489904106, 0.085710266235027199]}
    - {mu0: 0, rank: 2, ndensity: 2, num_ms_combs: 2, mus: [0, 1], ns: [3, 4], ls: [1, 1], ms_combs: [0, 0, 1, -1], ctildes: [0.10806781584421229, -0.030152017509798412, -0.21613563168842453, 0.060304035019596816]}
    - {mu0: 0, rank: 2, ndensity: 2, num_ms_combs: 1, mus: [0, 1], ns: [3, 5], ls: [0, 0], ms_combs: [0, 0], ctildes: [0.1626650421497908, -0.22152638906838723]}
    - {mu0: 0, rank: 2, ndensity: 2, num_ms_combs: 2, mus: [0, 1], ns: [3, 5], ls: [1, 1], ms_combs: [0, 0, 1, -1], ctildes: [0.0051895978635229708, -0.064167068890476603, -0.010379195727045938, 0.12833413778095318]}
    - {mu0: 0, rank: 2, ndensity: 2, num_ms_combs: 1, mus: [0, 1], ns: [3, 6], ls: [0, 0], ms_combs: [0, 0], ctildes: [-0.060034681732960865, 0.13696144831568949]}
    - {mu0: 0, rank: 2, ndensity: 2, num_ms_combs: 1, mus: [0, 1], ns: [4, 1], ls: [0, 0], ms_combs: [0, 0], ctildes: [-0.22335851442573562, -0.092500073968925095]}
    - {mu0: 0, rank: 2, ndensity: 2, num_ms_combs: 2, mus: [0, 1], ns: [4, 1], ls: [1, 1], ms_combs: [0, 0, 1, -1], ctildes: [0.051776215725627274, -0.026171831897045274, -0.10355243145125452, 0.052343663794090542]}
    - {mu0: 0, rank: 2, ndensity: 2, num_ms_combs: 3, mus: [0, 1], ns: [4, 1], ls: [2, 2], ms_combs: [0, 0, 1, -1, 2, -2], ctildes: [-0.13486601947170512, -0.0027679662826627523, 0.2697320389434103, 0.0055359325653255055, -0.26973203894341036, -0.0055359325653255064]}
    - {mu0: 0, rank: 2, ndensity: 2, num_ms_combs: 1, mus: [0, 1], ns: [4, 2], ls: [0, 0], ms_combs: [0, 0], ctildes: [0.056937039247906253, -0.12238210458127589]}
    - {mu0: 0, rank: 2, ndensity: 2, num_ms_combs: 2, mus: [0, 1], ns: [4, 2], ls: [1, 1], ms_combs: [0, 0, 1, -1], ctildes: [-0.12977335610125376, 0.10875390872193623, 0.25954671220250747, -0.21750781744387243]}
    - {mu0: 0, rank: 2, ndensity: 2, num_ms_combs: 3, mus: [0, 1], ns: [4, 2], ls: [2, 2], ms_combs: [0, 0, 1, -1, 2, -2], ctildes: [-0.061213642018837715, 0.054343043879865237, 0.12242728403767544, -0.10868608775973049, -0.12242728403767547, 0.10868608775973052]}
    - {mu0: 0, rank: 2, ndensity: 2, num_ms_combs: 1, mus: [0, 1], ns: [4, 3], ls: [0, 0], ms_combs: [0, 0], ctildes: [0.22345424843648118, -0.31531150926044399]}
    - {mu0: 0, rank: 2, ndensity: 2, num_ms_combs: 2, mus: [0, 1], ns: [4, 3], ls: [1, 1], ms_combs: [0, 0, 1, -1], ctildes: [0.12290956322175763, -0.28590153586526457, -0.24581912644351522, 0.57180307173052902]}
    - {mu0: 0, rank: 2, ndensity: 2, num_ms_combs: 1, mus: [0, 1], ns: [4, 4], ls: [0, 0], ms_combs: [0, 0], ctildes: [0.017891520833694607, 0.014151429000195569]}
    - {mu0: 0, rank: 2, ndensity: 2, num_ms_combs: 2, mus: [0, 1], ns: [4, 4], ls: [1, 1], ms_combs: [0, 0, 1, -1], ctildes: [-0.094398449641949544, 0.10997585587456456, 0.18879689928389906, -0.21995171174912906]}
    - {mu0: 0, rank: 2, ndensity: 2, num_ms_combs: 1, mus: [0, 1], ns: [4, 5], ls: [0, 0], ms_combs: [0, 0], ctildes: [0.023606159799617988, -0.059776096151818399]}
    - {mu0: 0, rank: 2, ndensity: 2, num_ms_combs: 1, mus: [0, 1], ns: [4, 6], ls: [0, 0], ms_combs: [0, 0], ctildes: [-0.024190811179772582, 0.0011169041886201164]}
    - {mu0: 0, rank: 2, ndensity: 2, num_ms_combs: 1, mus: [0, 1], ns: [5, 1], ls: [0, 0], ms_combs: [0, 0], ctildes: [0.13246139953022287, -0.076283210992595329]}
    - {mu0: 0, rank: 2, ndensity: 2, num_ms_combs: 2, mus: [0, 1], ns: [5, 1], ls: [1, 1], ms_combs: [0, 0, 1, -1], ctildes: [0.046256176133092318, -0.0057539223325938048, -0.092512352266184622, 0.011507844665187608]}
    - {mu0: 0, rank: 2, ndensity: 2, num_ms_combs: 3, mus: [0, 1], ns: [5, 1], ls: [2, 2], ms_combs: [0, 0, 1, -1, 2, -2], ctildes: [0.10387543512967413, -0.0065299399047150358, -0.2077508702593483, 0.013059879809430073, 0.20775087025934835, -0.013059879809430077]}
    - {mu0: 0, rank: 2, ndensity: 2, num_ms_combs: 1, mus: [0, 1], ns: [5, 2], ls: [0, 0], ms_combs: [0, 0], ctildes: [-0.12429181753215515, 0.095110326608046081]}
    - {mu0: 0, rank: 2, ndensity: 2, num_ms_combs: 2, mus: [0, 1], ns: [5, 2], ls: [1, 1], ms_combs: [0, 0, 1, -1], ctildes: [-0.065880791599812305, 0.005858280766279522, 0.13176158319962458, -0.011716561532559041]}
    - {mu0: 0, rank: 2, ndensity: 2, num_ms_combs: 1, mus: [0, 1], ns: [5, 3], ls: [0, 0], ms_combs: [0, 0], ctildes: [0.05113420036610325, -0.05044524920136418]}
    - {mu0: 0, rank: 2, ndensity: 2, num_ms_combs: 2, mus: [0, 1], ns: [5, 3], ls: [1, 1], ms_combs: [0, 0, 1, -1], ctildes: [-0.0056708354182807034, 0.043255073599949838, 0.011341670836561405, -0.086510147199899648]}
    - {mu0: 0, rank: 2, ndensity: 2, num_ms_combs: 1, mus: [0, 1], ns: [5, 4], ls: [0, 0], ms_combs: [0, 0], ctildes: [0.0051802115896644003, -0.017932850397432566]}
    - {mu0: 0, rank: 2, ndensity: 2, num_ms_combs: 1, mus: [0, 1], ns: [5, 5], ls: [0, 0], ms_combs: [0, 0], ctildes: [-0.0016738594987005205, 0.014756931291031936]}
    - {mu0: 0, rank: 2, ndensity: 2, num_ms_combs: 1, mus: [0, 1], ns: [6, 1], ls: [0, 0], ms_combs: [0, 0], ctildes: [-0.074256228437570848, 0.033547697514674256]}
    - {mu0: 0, rank: 2, ndensity: 2, num_ms_combs: 2, mus: [0, 1], ns: [6, 1], ls: [1, 1], ms_combs: [0, 0, 1, -1], ctildes: [-0.047187431934675103, 0.012494349308849833, 0.094374863869350178, -0.024988698617699659]}
    - {mu0: 0, rank: 2, ndensity: 2, num_ms_combs: 1, mus: [0, 1], ns: [6, 2], ls: [0, 0], ms_combs: [0, 0], ctildes: [0.088954467872726969, -0.085055965205018735]}
    - {mu0: 0, rank: 2, ndensity: 2, num_ms_combs: 2, mus: [0, 1], ns: [6, 2], ls: [1, 1], ms_combs: [0, 0, 1, -1], ctildes: [0.048469179587732052, 0.058824254796285252, -0.096938359175464089, -0.11764850959257048]}
    - {mu0: 0, rank: 2, ndensity: 2, num_ms_combs: 1, mus: [0, 1], ns: [6, 3], ls: [0, 0], ms_combs: [0, 0], ctildes: [-0.055761105491156808, 0.078807705649981866]}
    - {mu0: 0, rank: 2, ndensity: 2, num_ms_combs: 1, mus: [0, 1], ns: [6, 4], ls: [0, 0], ms_combs: [0, 0], ctildes: [0.0070129094798931767, -0.016507516829845446]}
    - {mu0: 0, rank: 2, ndensity: 2, num_ms_combs: 1, mus: [1, 1], ns: [1, 1], ls: [0, 0], ms_combs: [0, 0], ctildes: [0.11272705137120166, 0.0029340047256836226]}
    - {mu0: 0, rank: 2, ndensity: 2, num_ms_combs: 2, mus: [1, 1], ns: [1, 1], ls: [1, 1], ms_combs: [0, 0, 1, -1], ctildes: [0.12841339877250432, 0.11135942253301091, -0.25682679754500859, -0.22271884506602177]}
    - {mu0: 0, rank: 2, ndensity: 2, num_ms_combs: 3, mus: [1, 1], ns: [1, 1], ls: [2, 2], ms_combs: [0, 0, 1, -1, 2, -2], ctildes: [-0.041777317628539486, 0.2653812782149273, 0.083554635257078971, -0.53076255642985459, -0.083554635257078999, 0.53076255642985481]}
    - {mu0: 0, rank: 2, ndensity: 2, num_ms_combs: 4, mus: [1, 1], ns: [1, 1], ls: [3, 3], ms_combs: [0, 0, 1, -1, 2, -2, 3, -3], ctildes: [-0.011594742413310244, 0.029962076229073445, 0.023189484826620487, -0.05992415245814689, -0.023189484826620484, 0.059924152458146883, 0.023189484826620484, -0.059924152458146883]}
    - {mu0: 0, rank: 2, ndensity: 2, num_ms_combs: 1, mus: [1, 1], ns: [1, 2], ls: [0, 0], ms_combs: [0, 0], ctildes: [0.059914239368482024, -0.078021667553900095]}
    - {mu0: 0, rank: 2, ndensity: 2, num_ms_combs: 2, mus: [1, 1], ns: [1, 2], ls: [1, 1], ms_combs: [0, 0, 1, -1], ctildes: [-0.0087372549603031788, 0.1321637349385506, 0.017474509920606354, -0.26432746987710115]}
    - {mu0: 0, rank: 2, ndensity: 2, num_ms_combs: 3, mus: [1, 1], ns: [1, 2], ls: [2, 2], ms_combs: [0, 0, 1, -1, 2, -2], ctildes: [-0.21686881143351541, 0.077402718847298393, 0.43373762286703088, -0.15480543769459681, -0.43373762286703099, 0.15480543769459684]}
    - {mu0: 0, rank: 2, ndensity: 2, num_ms_combs: 4, mus: [1, 1], ns: [1, 2], ls: [3, 3], ms_combs: [0, 0, 1, -1, 2, -2, 3, -3], ctildes: [-0.018472043518116824, 0.0045751537538536273, 0.036944087036233648, -0.0091503075077072546, -0.036944087036233648, 0.0091503075077072546, 0.036944087036233648, -0.0091503075077072546]}
    - {mu0: 0, rank: 2, ndensity: 2, num_ms_combs: 1, mus: [1, 1], ns: [1, 3], ls: [0, 0], ms_combs: [0, 0], ctildes: [0.58604449585794782, -0.083047161842717196]}
    - {mu0: 0, rank: 2, ndensity: 2, num_ms_combs: 2, mus: [1, 1], ns: [1, 3], ls: [1, 1], ms_combs: [0, 0, 1, -1], ctildes: [0.063273500972708466, 0.18848359084240859, -0.1265470019454169, -0.37696718168481713]}
    - {mu0: 0, rank: 2, ndensity: 2, num_ms_combs: 3, mus: [1, 1], ns: [1, 3], ls: [2, 2], ms_combs: [0, 0, 1, -1, 2, -2], ctildes: [-0.12877677693523637, 0.3350147010405532, 0.25755355387047274, -0.67002940208110651, -0.2575535538704728, 0.67002940208110662]}
    - {mu0: 0, rank: 2, ndensity: 2, num_ms_combs: 4, mus: [1, 1], ns: [1, 3], ls: [3, 3], ms_combs: [0, 0, 1, -1, 2, -2, 3, -3], ctildes: [-0.014797307539189923, 0.019989484748223357, 0.029594615078379845, -0.039978969496446713, -0.029594615078379842, 0.039978969496446713, 0.029594615078379842, -0.039978969496446713]}
    - {mu0: 0, rank: 2, ndensity: 2, num_ms_combs: 1, mus: [1, 1], ns: [1, 4], ls: [0, 0], ms_combs: [0, 0], ctildes: [-0.050831679444342907, 0.050370853951166056]}
    - {mu0: 0, rank: 2, ndensity: 2, num_ms_combs: 2, mus: [1, 1], ns: [1, 4], ls: [1, 1], ms_combs: [0, 0, 1, -1], ctildes: [-0.058452747428928115, -0.04781413919769343, 0.1169054948578562, 0.095628278395386845]}
    - {mu0: 0, rank: 2, ndensity: 2, num_ms_combs: 3, mus: [1, 1], ns: [1, 4], ls: [2, 2], ms_combs: [0, 0, 1, -1, 2, -2], ctildes: [-0.029660648241525298, -0.059215710726020616, 0.059321296483050602, 0.11843142145204125, -0.059321296483050616, -0.11843142145204127]}
    - {mu0: 0, rank: 2, ndensity: 2, num_ms_combs: 1, mus: [1, 1], ns: [1, 5], ls: [0, 0], ms_combs: [0, 0], ctildes: [-0.051530368481286941, 0.063661083901845911]}
    - {mu0: 0, rank: 2, ndensity: 2, num_ms_combs: 2, mus: [1, 1], ns: [1, 5], ls: [1, 1], ms_combs: [0, 0, 1, -1], ctildes: [0.043647623717543382, -0.021928084088933271, -0.087295247435086751, 0.043856168177866528]}
    - {mu0: 0, rank: 2, ndensity: 2, num_ms_combs: 3, mus: [1, 1], ns: [1, 5], ls: [2, 2], ms_combs: [0, 0, 1, -1, 2, -2], ctildes: [0.034096971950768933, -0.025197509163577117, -0.068193943901537879, 0.050395018327154241, 0.068193943901537893, -0.050395018327154248]}
    - {mu0: 0, rank: 2, ndensity: 2, num_ms_combs: 1, mus: [1, 1], ns: [1, 6], ls: [0, 0], ms_combs: [0, 0], ctildes: [0.098324205741510323, -0.095510611906254053]}
    - {mu0: 0, rank: 2, ndensity: 2, num_ms_combs: 2, mus: [1, 1], ns: [1, 6], ls: [1, 1], ms_combs: [0, 0, 1, -1], ctildes: [0.00014477721250402809, -0.0048528545890419109, -0.00028955442500805612, 0.0097057091780838201]}
    - {mu0: 0, rank: 2, ndensity: 2, num_ms_combs: 1, mus: [1, 1], ns: [2, 2], ls: [0, 0], ms_combs: [0, 0], ctildes: [0.20298698049372371, 0.54814120926886456]}
    - {mu0: 0, rank: 2, ndensity: 2, num_ms_combs: 2, mus: [1, 1], ns: [2, 2], ls: [1, 1], ms_combs: [0, 0, 1, -1], ctildes: [0.05839811384925675, 0.26759405494382071, -0.11679622769851349, -0.53518810988764132]}
    - {mu0: 0, rank: 2, ndensity: 2, num_ms_combs: 3, mus: [1, 1], ns: [2, 2], ls: [2, 2], ms_combs: [0, 0, 1, -1, 2, -2], ctildes: [0.064129776046953954, -0.07804249226285806, -0.12825955209390791, 0.15608498452571615, 0.12825955209390794, -0.15608498452571617]}
    - {mu0: 0, rank: 2, ndensity: 2, num_ms_combs: 4, mus: [1, 1], ns: [2, 2], ls: [3, 3], ms_combs: [0, 0, 1, -1, 2, -2, 3, -3], ctildes: [0.010151009285281936, -0.01072359077158647, -0.020302018570563872, 0.02144718154317294, 0.020302018570563869, -0.021447181543172936, -0.020302018570563869, 0.021447181543172936]}
    - {mu0: 0, rank: 2, ndensity: 2, num_ms_combs: 1, mus: [1, 1], ns: [2, 3], ls: [0, 0], ms_combs: [0, 0], ctildes: [-0.074044201255916042, 0.14362001558164766]}
    - {mu0: 0, rank: 2, ndensity: 2, num_ms_combs: 2, mus: [1, 1], ns: [2, 3], ls: [1, 1], ms_combs: [0, 0, 1, -1], ctildes: [-0.16705117769228639, -0.032948369256744381, 0.33410235538457272, 0.065896738513488748]}
    - {mu0: 0, rank: 2, ndensity: 2, num_ms_combs: 3, mus: [1, 1], ns: [2, 3], ls: [2, 2], ms_combs: [0, 0, 1, -1, 2, -2], ctildes: [-0.12585557561236907, 0.14468512078057, 0.25171115122473814, -0.28937024156114, -0.25171115122473819, 0.28937024156114011]}
    - {mu0: 0, rank: 2, ndensity: 2, num_ms_combs: 1, mus: [1, 1], ns: [2, 4], ls: [0, 0], ms_combs: [0, 0], ctildes: [-0.15230394718679338, 0.11248148921152526]}
    - {mu0: 0, rank: 2, ndensity: 2, num_ms_combs: 2, mus: [1, 1], ns: [2, 4], ls: [1, 1], ms_combs: [0, 0, 1, -1], ctildes: [0.060235370112269808, 0.092769179980967259, -0.12047074022453959, -0.18553835996193449]}
    - {mu0: 0, rank: 2, ndensity: 2, num_ms_combs: 3, mus: [1, 1], ns: [2, 4], ls: [2, 2], ms_combs: [0, 0, 1, -1, 2, -2], ctildes: [0.058598216245638095, -0.049657607177168231, -0.1171964324912762, 0.099315214354336476, 0.11719643249127623, -0.099315214354336503]}
    - {mu0: 0, rank: 2, ndensity: 2, num_ms_combs: 1, mus: [1, 1], ns: [2, 5], ls: [0, 0], ms_combs: [0, 0], ctildes: [0.19957873022665587, -0.19075619650901471]}
    - {mu0: 0, rank: 2, ndensity: 2, num_ms_combs: 2, mus: [1, 1], ns: [2, 5], ls: [1, 1], ms_combs: [0, 0, 1, -1], ctildes: [-0.043465442032462158, 0.041478244237163141, 0.086930884064924302, -0.082956488474326268]}
    - {mu0: 0, rank: 2, ndensity: 2, num_ms_combs: 1, mus: [1, 1], ns: [2, 6], ls: [0, 0], ms_combs: [0, 0], ctildes: [-0.0094099336247887716, -0.041061806167723369]}
    - {mu0: 0, rank: 2, ndensity: 2, num_ms_combs: 2, mus: [1, 1], ns: [2, 6], ls: [1, 1], ms_combs: [0, 0, 1, -1], ctildes: [0.0081633387348706496, -0.0089877225104768761, -0.016326677469741296, 0.017975445020953749]}
    - {mu0: 0, rank: 2, ndensity: 2, num_ms_combs: 1, mus: [1, 1], ns: [3, 3], ls: [0, 0], ms_combs: [0, 0], ctildes: [0.058178571078562294, -0.1218498219396289]}
    - {mu0: 0, rank: 2, ndensity: 2, num_ms_combs: 2, mus: [1, 1], ns: [3, 3], ls: [1, 1], ms_combs: [0, 0, 1, -1], ctildes: [-0.02084040848795031, 0.1097168729246779, 0.041680816975900606, -0.21943374584935574]}
    - {mu0: 0, rank: 2, ndensity: 2, num_ms_combs: 3, mus: [1, 1], ns: [3, 3], ls: [2, 2], ms_combs: [0, 0, 1, -1, 2, -2], ctildes: [-0.020068539635469205, 0.040542807219999609, 0.040137079270938417, -0.081085614439999232, -0.040137079270938424, 0.081085614439999246]}
    - {mu0: 0, rank: 2, ndensity: 2, num_ms_combs: 1, mus: [1, 1], ns: [3, 4], ls: [0, 0], ms_combs: [0, 0], ctildes: [0.22997539645123086, -0.25865539560923839]}
    - {mu0: 0, rank: 2, ndensity: 2, num_ms_combs: 2, mus: [1, 1], ns: [3, 4], ls: [1, 1], ms_combs: [0, 0, 1, -1], ctildes: [0.027093670378033365, -0.10937140036225235, -0.054187340756066717, 0.21874280072450464]}
    - {mu0: 0, rank: 2, ndensity: 2, num_ms_combs: 1, mus: [1, 1], ns: [3, 5], ls: [0, 0], ms_combs: [0, 0], ctildes: [-0.18109011635819253, 0.22102510221753932]}
    - {mu0: 0, rank: 2, ndensity: 2, num_ms_combs: 2, mus: [1, 1], ns: [3, 5], ls: [1, 1], ms_combs: [0, 0, 1, -1], ctildes: [0.034727804747195827, -0.0068091049974540723, -0.06945560949439164, 0.013618209994908143]}
    - {mu0: 0, rank: 2, ndensity: 2, num_ms_combs: 1, mus: [1, 1], ns: [3, 6], ls: [0, 0], ms_combs: [0, 0], ctildes: [-0.092203126204034119, 0.13198989363222277]}
    - {mu0: 0, rank: 2, ndensity: 2, num_ms_combs: 1, mus: [1, 1], ns: [4, 4], ls: [0, 0], ms_combs: [0, 0], ctildes: [-0.015905939351458523, 0.0045317797833120304]}
    - {mu0: 0, rank: 2, ndensity: 2, num_ms_combs: 2, mus: [1, 1], ns: [4, 4], ls: [1, 1], ms_combs: [0, 0, 1, -1], ctildes: [0.015715478668322274, 0.010891387604902516, -0.031430957336644541, -0.021782775209805028]}
    - {mu0: 0, rank: 2, ndensity: 2, num_ms_combs: 1, mus: [1, 1], ns: [4, 5], ls: [0, 0], ms_combs: [0, 0], ctildes: [0.079548950294709764, -0.10472862329812366]}
    - {mu0: 0, rank: 2, ndensity: 2, num_ms_combs: 1, mus: [1, 1], ns: [4, 6], ls: [0, 0], ms_combs: [0, 0], ctildes: [-0.00071471118383196173, 0.013317140594500104]}
    - {mu0: 0, rank: 2, ndensity: 2, num_ms_combs: 1, mus: [1, 1], ns: [5, 5], ls: [0, 0], ms_combs: [0, 0], ctildes: [-0.041576379628430513, 0.058418107092980176]}
    - {mu0: 0, rank: 3, ndensity: 2, num_ms_combs: 1, mus: [0, 0, 0], ns: [1, 1, 1], ls: [0, 0, 0], ms_combs: [0, 0, 0], ctildes: [0.17691980767495369, 0.37427492517838856]}
    - {mu0: 0, rank: 3, ndensity: 2, num_ms_combs: 2, mus: [0, 0, 0], ns: [1, 1, 1], ls: [0, 1, 1], ms_combs: [0, 0, 0, 0, 1, -1], ctildes: [-0.42360250973390612, -0.36243582345666392, 0.84720501946781201, 0.72487164691332773]}
    - {mu0: 0, rank: 3, ndensity: 2, num_ms_combs: 3, mus: [0, 0, 0], ns: [1, 1, 1], ls: [0, 2, 2], ms_combs: [0, 0, 0, 0, 1, -1, 0, 2, -2], ctildes: [-0.01961777550468348, 0.068381979912119834, 0.039235551009366959, -0.13676395982423967, -0.039235551009366973, 0.13676395982423972]}
    - {mu0: 0, rank: 3, ndensity: 2, num_ms_combs: 4, mus: [0, 0, 0], ns: [1, 1, 1], ls: [0, 3, 3], ms_combs: [0, 0, 0, 0, 1, -1, 0, 2, -2, 0, 3, -3], ctildes: [-0.084096674475963598, 0.15248255833893268, 0.1681933489519272, -0.30496511667786536, -0.16819334895192717, 0.3049651166778653, 0.16819334895192717, -0.3049651166778653]}
    - {mu0: 0, rank: 3, ndensity: 2, num_ms_combs: 4, mus: [0, 0, 0], ns: [1, 1, 1], ls: [1, 1, 2], ms_combs: [-1, 1, 0, 0, 0, 0, 0, 1, -1, 1, 1, -2], ctildes: [-0.069034612838790893, -0.012337502831482357, -0.069034612838790879, -0.012337502831482355, 0.23914291383526512, 0.042738363485304659, -0.16909957604562623, -0.03022058663727446]}
    - {mu0: 0, rank: 3, ndensity: 2, num_ms_combs: 8, mus: [0, 0, 0], ns: [1, 1, 1], ls: [1, 2, 3], ms_combs: [0, 0, 0, 0, 1, -1, 0, 2, -2, 1, -2, 1, 1, -1, 0, 1, 0, -1, 1, 1, -2, 1, 2, -3], ctildes: [0.00078450709003677994, 0.13343898428042947, -0.00147928075534382, -0.25161496175823145, 0.0011694741214351915, 0.19891909313304404, -0.00052300472669118659, -0.088959322853619627, 0.00090587075922780966, 0.15408206698939236, -0.0012810947134571811, -0.21790494885487846, 0.0016538861633780078, 0.28131407932370767, -0.0020255885964627269, -0.34453797590195762]}
    - {mu0: 0, rank: 3, ndensity: 2, num_ms_combs: 5, mus: [0, 0, 0], ns: [1, 1, 1], ls: [2, 2, 2], ms_combs: [-2, 0, 2, -2, 1, 1, -1, -1, 2, -1, 0, 1, 0, 0, 0], ctildes: [-0.35664556477629505, 0.0011660731801194156, 0.29119988424288268, -0.00095209476467902324, 0.14559994212144134, -0.00047604738233951162, -0.17832278238814747, 0.00058303659005970768, 0.059440927462715815, -0.00019434553001990254]}
    - {mu0: 0, rank: 3, ndensity: 2, num_ms_combs: 9, mus: [0, 0, 0], ns: [1, 1, 1], ls: [2, 3, 3], ms_combs: [0, -3, 3, 0, -1, 1, 0, 0, 0, 1, -3, 2, 1, -2, 1, 1, -1, 0, 2, -3, 1, 2, -2, 0, 2, -1, -1], ctildes: [0.021856800722404899, 0.034328941646326536, -0.013114080433442936, -0.020597364987795918, 0.008742720288961961, 0.013731576658530614, -0.043713601444809798, -0.068657883292653071, 0.033860410079699373, 0.053182167715659569, -0.012364073604684427, -0.01941938194325982, 0.027646909058885238, 0.043423058106160914, -0.039098633748771094, -0.061409477693447748, 0.021415203671834703, 0.03363535617731165]}
    - {mu0: 0, rank: 3, ndensity: 2, num_ms_combs: 1, mus: [0, 0, 0], ns: [1, 1, 2], ls: [0, 0, 0], ms_combs: [0, 0, 0], ctildes: [-0.42042773912500603, -0.6159757482615642]}
    - {mu0: 0, rank: 3, ndensity: 2, num_ms_combs: 2, mus: [0, 0, 0], ns: [1, 1, 2], ls: [0, 1, 1], ms_combs: [0, 0, 0, 0, 1, -1], ctildes: [0.065415332439026197, 0.009739061876491744, -0.13083066487805237, -0.019478123752983485]}
    - {mu0: 0, rank: 3, ndensity: 2, num_ms_combs: 3, mus: [0, 0, 0], ns: [1, 1, 2], ls: [0, 2, 2], ms_combs: [0, 0, 0, 0, 1, -1, 0, 2, -2], ctildes: [-0.31058054792094691, -0.082678382300622535, 0.62116109584189383, 0.1653567646012451, -0.62116109584189405, -0.16535676460124513]}
    - {mu0: 0, rank: 3, ndensity: 2, num_ms_combs: 4, mus: [0, 0, 0], ns: [1, 1, 2], ls: [0, 3, 3], ms_combs: [0, 0, 0, 0, 1, -1, 0, 2, -2, 0, 3, -3], ctildes: [-0.050204568386551907, -0.12874339660647, 0.10040913677310381, 0.25748679321293999, -0.1004091367731038, -0.25748679321293994, 0.1004091367731038, 0.25748679321293994]}
    - {mu0: 0, rank: 3, ndensity: 2, num_ms_combs: 2, mus: [0, 0, 0], ns: [1, 1, 2], ls: [1, 1, 0], ms_combs: [0, 0, 0, 1, -1, 0], ctildes: [0.047812109198674187, -0.044901464011729404, -0.095624218397348359, 0.089802928023458795]}
    - {mu0: 0, rank: 3, ndensity: 2, num_ms_combs: 4, mus: [0, 0, 0], ns: [1, 1, 2], ls: [1, 1, 2], ms_combs: [-1, 1, 0, 0, 0, 0, 0, 1, -1, 1, 1, -2], ctildes: [0.16002974845327847, -0.22100171057823903, 0.16002974845327844, -0.22100171057823897, -0.55435931008709061, 0.76557238256228444, 0.3919912273764779, -0.54134142319893319]}
    - {mu0: 0, rank: 3, ndensity: 2, num_ms_combs: 5, mus: [0, 0, 0], ns: [1, 1, 2], ls: [1, 2, 1], ms_combs: [0, 0, 0, 0, 1, -1, 1, -2, 1, 1, -1, 0, 1, 0, -1], ctildes: [0.088517432284418454, -0.064149447372728402, -0.1533166900721504, 0.11111010212703144, 0.21682254243818752, -0.15713341334470751, -0.1533166900721504, 0.11111010212703144, 0.08851743228441844, -0.064149447372728402]}
    - {mu0: 0, rank: 3, ndensity: 2, num_ms_combs: 8, mus: [0, 0, 0], ns: [1, 1, 2], ls: [1, 2, 3], ms_combs: [0, 0, 0, 0, 1, -1, 0, 2, -2, 1, -2, 1, 1, -1, 0, 1, 0, -1, 1, 1, -2, 1, 2, -3], ctildes: [0.0064297002543138443, -0.11248019538676549, -0.012123959068859168, 0.21209469041911919, 0.0095848312290622902, -0.1676755753381772, -0.0042864668362092287, 0.07498679692451031, 0.0074243783452734051, -0.12988094217010149, -0.010499656548074767, 0.18367938991075319, 0.013554998317197073, -0.23712907272196182, -0.016601414670708737, 0.29042261567406591]}
    - {mu0: 0, rank: 3, ndensity: 2, num_ms_combs: 8, mus: [0, 0, 0], ns: [1, 1, 2], ls: [1, 3, 2], ms_combs: [0, 0, 0, 0, 1, -1, 0, 2, -2, 1, -3, 2, 1, -2, 1, 1, -1, 0, 1, 0, -1, 1, 1, -2], ctildes: [-0.015891087337275615, -0.041338693737177794, 0.029964521644307383, 0.077948988445206105, -0.023689034348356282, -0.06162408619824962, 0.041030611073597366, 0.10673604826537234, -0.033501353654967536, -0.087149618470413248, 0.02595003695621885, 0.067505804192848157, -0.018349447103783865, -0.047733811914214205, 0.010594058224850416, 0.027559129158118541]}
    - {mu0: 0, rank: 3, ndensity: 2, num_ms_combs: 3, mus: [0, 0, 0], ns: [1, 1, 2], ls: [2, 2, 0], ms_combs: [0, 0, 0, 1, -1, 0, 2, -2, 0], ctildes: [0.0088493590920383312, -0.1192112097703474, -0.017698718184076666, 0.23842241954069482, 0.017698718184076669, -0.23842241954069487]}
    - {mu0: 0, rank: 3, ndensity: 2, num_ms_combs: 8, mus: [0, 0, 0], ns: [1, 1, 2], ls: [2, 2, 2], ms_combs: [-2, 1, 1, -2, 2, 0, -1, 1, 0, -1, 2, -1, 0, 0, 0, 0, 1, -1, 0, 2, -2, 1, 1, -2], ctildes: [-0.059008954794338431, -0.24600683453904501, 0.048180609833696063, 0.20086373928598303, 0.024090304916848031, 0.10043186964299151, -0.059008954794338431, -0.24600683453904501, -0.024090304916848031, -0.10043186964299151, 0.048180609833696063, 0.20086373928598303, 0.096361219667392181, 0.40172747857196628, -0.059008954794338431, -0.24600683453904501]}
    - {mu0: 0, rank: 3, ndensity: 2, num_ms_combs: 8, mus: [0, 0, 0], ns: [1, 1, 2], ls: [2, 3, 1], ms_combs: [0, 0, 0, 0, 1, -1, 1, -2, 1, 1, -1, 0, 1, 0, -1, 2, -3, 1, 2, -2, 0, 2, -1, -1], ctildes: [-0.045912068751068742, 0.04210492026729562, 0.074974094317132603, -0.068757046876962755, -0.09679113956241292, 0.088764965829626494, 0.086572627072489833, -0.079393799046196353, -0.053014690504964261, 0.048618574101061691, 0.11854445177521276, -0.1087144366590847, -0.068441671143355712, 0.062766309269921078, 0.030608045834045815, -0.02806994684486374]}
    - {mu0: 0, rank: 3, ndensity: 2, num_ms_combs: 14, mus: [0, 0, 0], ns: [1, 1, 2], ls: [2, 3, 3], ms_combs: [0, 0, 0, 0, 1, -1, 0, 3, -3, 1, -3, 2, 1, -2, 1, 1, -1, 0, 1, 0, -1, 1, 1, -2, 1, 2, -3, 2, -3, 1, 2, -2, 0, 2, -1, -1, 2, 0, -2, 2, 1, -3], ctildes: [-0.012049220164201097, -0.0053586415474226688, 0.018073830246301638, 0.0080379623211340023, -0.030123050410502738, -0.013396603868556671, 0.030123050410502738, 0.013396603868556671, -0.023333214515368721, -0.010376964735731568, 0.0085200852861162767, 0.0037891317761305416, 0.0085200852861162836, 0.0037891317761305447, -0.023333214515368725, -0.01037696473573157, 0.030123050410502738, 0.013396603868556671, -0.019051489873851746, -0.0084727562271324098, 0.026942875363014832, 0.011982286767091751, -0.029514441200746824, -0.013125937505663605, 0.026942875363014828, 0.011982286767091749, -0.019051489873851742, -0.0084727562271324081]}
    - {mu0: 0, rank: 3, ndensity: 2, num_ms_combs: 4, mus: [0, 0, 0], ns: [1, 1, 2], ls: [3, 3, 0], ms_combs: [0, 0, 0, 1, -1, 0, 2, -2, 0, 3, -3, 0], ctildes: [0.070723836481998884, -0.090842580012986979, -0.14144767296399777, 0.18168516002597396, 0.14144767296399774, -0.18168516002597393, -0.14144767296399774, 0.18168516002597393]}
    - {mu0: 0, rank: 3, ndensity: 2, num_ms_combs: 12, mus: [0, 0, 0], ns: [1, 1, 2], ls: [3, 3, 2], ms_combs: [-3, 1, 2, -3, 2, 1, -3, 3, 0, -2, 1, 1, -2, 3, -1, -1, 1, 0, -1, 2, -1, -1, 3, -2, 0, 0, 0, 0, 1, -1, 0, 2, -2, 1, 1, -2], ctildes: [-0.0089781111890061896, 0.026460046676749258, 0.014195640221751018, -0.041837007246448364, -0.014195640221751016, 0.041837007246448357, -0.010995895633518774, 0.032406806464130716, 0.014195640221751018, -0.041837007246448364, 0.0085173841330506081, -0.025102204347869011, -0.010995895633518774, 0.032406806464130716, -0.0089781111890061896, 0.026460046676749258, -0.0056782560887004068, 0.016734802898579343, 0.0080302667712677227, -0.023666585222811502, 0.025393933215972386, -0.074840313742567915, -0.013908830046167782, 0.040991728047568322]}
    - {mu0: 0, rank: 3, ndensity: 2, num_ms_combs: 1, mus: [0, 0, 0], ns: [1, 1, 3], ls: [0, 0, 0], ms_combs: [0, 0, 0], ctildes: [0.22334890666931437, -0.12796544397962822]}
    - {mu0: 0, rank: 3, ndensity: 2, num_ms_combs: 2, mus: [0, 0, 0], ns: [1, 1, 3], ls: [0, 1, 1], ms_combs: [0, 0, 0, 0, 1, -1], ctildes: [0.083999947255362375, 0.186699569279622, -0.1679998945107247, -0.37339913855924395]}
    - {mu0: 0, rank: 3, ndensity: 2, num_ms_combs: 3, mus: [0, 0, 0], ns: [1, 1, 3], ls: [0, 2, 2], ms_combs: [0, 0, 0, 0, 1, -1, 0, 2, -2], ctildes: [0.22126215526669757, -0.24122304374256842, -0.44252431053339519, 0.4824460874851369, 0.4425243105333953, -0.48244608748513701]}
    - {mu0: 0, rank: 3, ndensity: 2, num_ms_combs: 4, mus: [0, 0, 0], ns: [1, 1, 3], ls: [0, 3, 3], ms_combs: [0, 0, 0, 0, 1, -1, 0, 2, -2, 0, 3, -3], ctildes: [0.053009270318860012, -0.042313478357978558, -0.10601854063772002, 0.084626956715957116, 0.10601854063772001, -0.084626956715957102, -0.10601854063772001, 0.084626956715957102]}
    - {mu0: 0, rank: 3, ndensity: 2, num_ms_combs: 2, mus: [0, 0, 0], ns: [1, 1, 3], ls: [1, 1, 0], ms_combs: [0, 0, 0, 1, -1, 0], ctildes: [-0.13339623454460392, -0.13332818179880293, 0.26679246908920778, 0.26665636359760581]}
    - {mu0: 0, rank: 3, ndensity: 2, num_ms_combs: 4, mus: [0, 0, 0], ns: [1, 1, 3], ls: [1, 1, 2], ms_combs: [-1, 1, 0, 0, 0, 0, 0, 1, -1, 1, 1, -2], ctildes: [-0.07443300870520804, 0.29738913180986554, -0.074433008705208026, 0.29738913180986548, 0.25784350567527375, -1.0301861718269698, -0.18232289134789814, 0.72845162798346041]}
    - {mu0: 0, rank: 3, ndensity: 2, num_ms_combs: 5, mus: [0, 0, 0], ns: [1, 1, 3], ls: [1, 2, 1], ms_combs: [0, 0, 0, 0, 1, -1, 1, -2, 1, 1, -1, 0, 1, 0, -1], ctildes: [0.23807808833259034, -0.11332737613835731, -0.41236334516091766, 0.1962887733601037, 0.58316983535210742, -0.27759424542743733, -0.41236334516091766, 0.1962887733601037, 0.23807808833259031, -0.11332737613835729]}
    - {mu0: 0, rank: 3, ndensity: 2, num_ms_combs: 8, mus: [0, 0, 0], ns: [1, 1, 3], ls: [1, 2, 3], ms_combs: [0, 0, 0, 0, 1, -1, 0, 2, -2, 1, -2, 1, 1, -1, 0, 1, 0, -1, 1, 1, -2, 1, 2, -3], ctildes: [0.087314204745447072, 0.013461387314675466, -0.16464124338510999, -0.025383035345028244, 0.13016033147476952, 0.020067051404711791, -0.058209469830298038, -0.0089742582097836424, 0.10082175922772391, 0.015543871179587386, -0.14258349928216191, -0.021982353433952762, 0.18407450605459669, 0.028379096253381478, -0.22544430724430733, -0.03475715259105723]}
    - {mu0: 0, rank: 3, ndensity: 2, num_ms_combs: 8, mus: [0, 0, 0], ns: [1, 1, 3], ls: [1, 3, 2], ms_combs: [0, 0, 0, 0, 1, -1, 0, 2, -2, 1, -3, 2, 1, -2, 1, 1, -1, 0, 1, 0, -1, 1, 1, -2], ctildes: [0.039683113149669193, -0.0074597046451621773, -0.074827195751264411, 0.014066153973981241, 0.059156092374317445, -0.011120271119102392, -0.10246135756955561, 0.019260874572226156, 0.083659348132755329, -0.015726438233900433, -0.064802252414545986, 0.012181646675011192, 0.045822112118487794, -0.0086137249699189729, -0.026455408766446146, 0.0049731364301081205]}
    - {mu0: 0, rank: 3, ndensity: 2, num_ms_combs: 3, mus: [0, 0, 0], ns: [1, 1, 3], ls: [2, 2, 0], ms_combs: [0, 0, 0, 1, -1, 0, 2, -2, 0], ctildes: [0.055619040620534153, -0.10235292327650641, -0.11123808124106832, 0.20470584655301285, 0.11123808124106835, -0.20470584655301291]}
    - {mu0: 0, rank: 3, ndensity: 2, num_ms_combs: 8, mus: [0, 0, 0], ns: [1, 1, 3], ls: [2, 2, 2], ms_combs: [-2, 1, 1, -2, 2, 0, -1, 1, 0, -1, 2, -1, 0, 0, 0, 0, 1, -1, 0, 2, -2, 1, 1, -2], ctildes: [0.21812763046813505, -0.12192046813076345, -0.17810046448309871, 0.099547645373876115, -0.089050232241549357, 0.049773822686938057, 0.21812763046813505, -0.12192046813076345, 0.089050232241549357, -0.049773822686938057, -0.17810046448309871, 0.099547645373876115, -0.35620092896619759, 0.19909529074775234, 0.21812763046813505, -0.12192046813076345]}
    - {mu0: 0, rank: 3, ndensity: 2, num_ms_combs: 8, mus: [0, 0, 0], ns: [1, 1, 3], ls: [2, 3, 1], ms_combs: [0, 0, 0, 0, 1, -1, 1, -2, 1, 1, -1, 0, 1, 0, -1, 2, -3, 1, 2, -2, 0, 2, -1, -1], ctildes: [0.040945405160901734, -0.070933313682146101, -0.06686356663715344, 0.11583361619069231, 0.086320493351241714, -0.14954055547917774, -0.077207396393878053, 0.13375313897780805, 0.04727968138344979, -0.081906735497798394, -0.10572058152792504, 0.18314902838817232, 0.061037806204031313, -0.10574114084172971, -0.027296936773934476, 0.047288875788097387]}
    - {mu0: 0, rank: 3, ndensity: 2, num_ms_combs: 14, mus: [0, 0, 0], ns: [1, 1, 3], ls: [2, 3, 3], ms_combs: [0, 0, 0, 0, 1, -1, 0, 3, -3, 1, -3, 2, 1, -2, 1, 1, -1, 0, 1, 0, -1, 1, 1, -2, 1, 2, -3, 2, -3, 1, 2, -2, 0, 2, -1, -1, 2, 0, -2, 2, 1, -3], ctildes: [0.020220998061603344, 0.0036124383295887555, -0.03033149709240501, -0.005418657494383132, 0.050552495154008358, 0.0090310958239718884, -0.050552495154008358, -0.0090310958239718884, 0.039157794368141104, 0.0069954567448492948, -0.014298404851719751, -0.0025543796394704122, -0.014298404851719763, -0.002554379639470414, 0.039157794368141111, 0.0069954567448492957, -0.050552495154008358, -0.0090310958239718884, 0.031972205218258179, 0.0057117665141972491, -0.045215526238636561, -0.0080776576694862479, 0.04953112734073592, 0.0088486306347644542, -0.045215526238636554, -0.0080776576694862462, 0.031972205218258172, 0.0057117665141972473]}
    - {mu0: 0, rank: 3, ndensity: 2, num_ms_combs: 4, mus: [0, 0, 0], ns: [1, 1, 3], ls: [3, 3, 0], ms_combs: [0, 0, 0, 1, -1, 0, 2, -2, 0, 3, -3, 0], ctildes: [-0.08396698342888384, 0.1125903789185887, 0.16793396685776768, -0.22518075783717739, -0.16793396685776765, 0.22518075783717734, 0.16793396685776765, -0.22518075783717734]}
    - {mu0: 0, rank: 3, ndensity: 2, num_ms_combs: 12, mus: [0, 0, 0], ns: [1, 1, 3], ls: [3, 3, 2], ms_combs: [-3, 1, 2, -3, 2, 1, -3, 3, 0, -2, 1, 1, -2, 3, -1, -1, 1, 0, -1, 2, -1, -1, 3, -2, 0, 0, 0, 0, 1, -1, 0, 2, -2, 1, 1, -2], ctildes: [0.0040029181592482936, -0.0091248440809471847, -0.006329169335236604, 0.014427645294849474, 0.0063291693352366032, -0.014427645294849472, 0.0049025534861396082, -0.011175605990387966, -0.006329169335236604, 0.014427645294849474, -0.0037975016011419609, 0.0086565871769096817, 0.0049025534861396082, -0.011175605990387966, 0.0040029181592482936, -0.0091248440809471847, 0.0025316677340946414, -0.0057710581179397889, -0.0035803188449790059, 0.0081615086596338021, -0.011321962299756967, 0.025808956507630747, 0.0062012941467999572, -0.014136147664899113]}
    - {mu0: 0, rank: 3, ndensity: 2, num_ms_combs: 1, mus: [0, 0, 0], ns: [1, 1, 4], ls: [0, 0, 0], ms_combs: [0, 0, 0], ctildes: [0.064970345782929914, 0.16911547604545246]}
    - {mu0: 0, rank: 3, ndensity: 2, num_ms_combs: 2, mus: [0, 0, 0], ns: [1, 1, 4], ls: [0, 1, 1], ms_combs: [0, 0, 0, 0, 1, -1], ctildes: [-0.039936177201462926, -0.23306984547489923, 0.079872354402925838, 0.46613969094979835]}
    - {mu0: 0, rank: 3, ndensity: 2, num_ms_combs: 3, mus: [0, 0, 0], ns: [1, 1, 4], ls: [0, 2, 2], ms_combs: [0, 0, 0, 0, 1, -1, 0, 2, -2], ctildes: [-0.055224416960270736, 0.062272506856987757, 0.11044883392054149, -0.12454501371397553, -0.11044883392054151, 0.12454501371397556]}
    - {mu0: 0, rank: 3, ndensity: 2, num_ms_combs: 4, mus: [0, 0, 0], ns: [1, 1, 4], ls: [0, 3, 3], ms_combs: [0, 0, 0, 0, 1, -1, 0, 2, -2, 0, 3, -3], ctildes: [-0.037027168730105128, -0.020736578490481963, 0.074054337460210257, 0.041473156980963925, -0.074054337460210243, -0.041473156980963918, 0.074054337460210243, 0.041473156980963918]}
    - {mu0: 0, rank: 3, ndensity: 2, num_ms_combs: 2, mus: [0, 0, 0], ns: [1, 1, 4], ls: [1, 1, 0], ms_combs: [0, 0, 0, 1, -1, 0], ctildes: [0.010550687833011049, -0.040060196050003591, -0.02110137566602209, 0.080120392100007168]}
    - {mu0: 0, rank: 3, ndensity: 2, num_ms_combs: 4, mus: [0, 0, 0], ns: [1, 1, 4], ls: [1, 1, 2], ms_combs: [-1, 1, 0, 0, 0, 0, 0, 1, -1, 1, 1, -2], ctildes: [-0.017296424518104363, 0.02534824245227843, -0.017296424518104363, 0.025348242452278427, 0.059916572109273591, -0.087808887619841111, -0.042367414443920122, 0.062090259884437143]}
    - {mu0: 0, rank: 3, ndensity: 2, num_ms_combs: 5, mus: [0, 0, 0], ns: [1, 1, 4], ls: [1, 2, 1], ms_combs: [0, 0, 0, 0, 1, -1, 1, -2, 1, 1, -1, 0, 1, 0, -1], ctildes: [-0.0052552094343645125, -0.0067567014290773608, 0.0091022897447346381, 0.011702950166735232, -0.012872581605653259, -0.016550470845573435, 0.0091022897447346381, 0.011702950166735232, -0.0052552094343645116, -0.00675670142907736]}
    - {mu0: 0, rank: 3, ndensity: 2, num_ms_combs: 8, mus: [0, 0, 0], ns: [1, 1, 4], ls: [1, 2, 3], ms_combs: [0, 0, 0, 0, 1, -1, 0, 2, -2, 1, -2, 1, 1, -1, 0, 1, 0, -1, 1, 1, -2, 1, 2, -3], ctildes: [-0.037698154137513672, -0.014487263606345316, 0.071084321143604329, 0.02731744623169027, -0.056197090185163667, -0.021596337487831248, 0.025132102758342448, 0.009658175737563543, -0.043530078878491044, -0.016728451085889072, 0.061560827921132648, 0.023657602403159256, -0.079474687105762401, -0.030541833372877445, 0.097336215438233759, 0.037405953786328133]}
    - {mu0: 0, rank: 3, ndensity: 2, num_ms_combs: 8, mus: [0, 0, 0], ns: [1, 1, 4], ls: [1, 3, 2], ms_combs: [0, 0, 0, 0, 1, -1, 0, 2, -2, 1, -3, 2, 1, -2, 1, 1, -1, 0, 1, 0, -1, 1, 1, -2], ctildes: [0.015573203871086546, -0.052255781128714783, -0.029365114832122379, 0.098534445846171353, 0.02321516165547494, -0.077898319214104686, -0.040209839493207396, 0.13492384670304819, 0.032831196465856485, -0.11016485951865546, -0.025430935429665191, 0.08533333325060645, 0.017982386894233485, -0.060339778602755315, -0.010382135914057702, 0.034837187419143205]}
    - {mu0: 0, rank: 3, ndensity: 2, num_ms_combs: 3, mus: [0, 0, 0], ns: [1, 1, 4], ls: [2, 2, 0], ms_combs: [0, 0, 0, 1, -1, 0, 2, -2, 0], ctildes: [0.040034962318194076, 0.26014745015777035, -0.080069924636388165, -0.52029490031554071, 0.080069924636388179, 0.52029490031554082]}
    - {mu0: 0, rank: 3, ndensity: 2, num_ms_combs: 8, mus: [0, 0, 0], ns: [1, 1, 4], ls: [2, 2, 2], ms_combs: [-2, 1, 1, -2, 2, 0, -1, 1, 0, -1, 2, -1, 0, 0, 0, 0, 1, -1, 0, 2, -2, 1, 1, -2], ctildes: [-0.11493085141937481, 0.076143904360242307, 0.093840647227032004, -0.062171237568625602, 0.046920323613516002, -0.031085618784312801, -0.11493085141937481, 0.076143904360242307, -0.046920323613516002, 0.031085618784312801, 0.093840647227032004, -0.062171237568625602, 0.18768129445406409, -0.12434247513725127, -0.11493085141937481, 0.076143904360242307]}
    - {mu0: 0, rank: 3, ndensity: 2, num_ms_combs: 8, mus: [0, 0, 0], ns: [1, 1, 4], ls: [2, 3, 1], ms_combs: [0, 0, 0, 0, 1, -1, 1, -2, 1, 1, -1, 0, 1, 0, -1, 2, -3, 1, 2, -2, 0, 2, -1, -1], ctildes: [0.020950317110138984, 0.009877965314382604, -0.034211724579560218, -0.016130649811432127, 0.044167146513890566, 0.02082457936106015, -0.039504296790900874, -0.018626070021667857, 0.024191342446293517, 0.011406091866609161, -0.054093486176888368, -0.025504796771345553, 0.031230888805631806, 0.014725201281563054, -0.013966878073425983, -0.0065853102095884009]}
