-0.2006867315
0.5751377027
-0.2283063613
-0.0772261681
-0.6176315318
-0.0252448377
-0.4954285772
-0.6457815570
0.0058170502
-0.0171505339
-0.6682704599
-0.0631219951
-0.0481407237
0.1784633016
0.1670299476
0.3540833877
-0.0227485378
0.2053069039
0.4732424312
-0.2221966154
-0.4012068121
0.0829804195
0.4886135748
-0.0861079251
0.5505883638
-0.3112466613
0.0645971192
0.4379426719
0.2278394693
0.3726702526
0.4393720955
-0.5637850056
-0.6239063934
0.1127992412
0.3335303962
-0.7742419434
-0.1317899977
-0.0234755591
-0.0480465923
0.4754402166
0.1575540738
0.0129269006
-0.2557699719
-0.5764673078
-0.1065137952
-0.6774360406
-0.1980561283
0.0830877682
-0.5359665247
0.3631668534
-0.1855958361
-0.5647660740
0.1555384340
-0.1194796467
-0.0529658428
0.8969678517
-0.7855819220
0.1395975844
0.1602832210
-0.2154145322
-0.4435313848
-0.0410745343
-0.6441119089
0.2047221800
-0.0237651076
-0.0589717549
0.4591766798
-0.2968001394
-0.0575165787
-0.4028162716
0.6709134444
-0.0632379084
-0.5870795832
-0.1238094135
-0.3935727407
0.2576332847
-0.2021308992
0.1623363753
0.0026321745
-0.5493727648
0.1236152791
0.1132027767
-0.0143485436
-0.2521606699
-0.5587534076
-0.5506310685
0.1976327729
-0.6774205176
-0.2504566463
-0.2801165277
0.5998219680
0.4805992125
0.4896882918
0.0125747010
-0.2873787130
0.3836245726
0.3673124232
-0.5795777097
-0.0127038573
0.1928388028
0.4715887329
0.0330136086
0.2265845016
-0.1790612852
-0.0878863166
-0.5044166429
-0.6753878017
0.1245595150
-0.4737912648
0.4310797640
-0.6613015415
-0.4371235727
-0.1607989193
-0.5793454680
0.2804810283
0.5773706020
0.7587768770
0.1790915705
-0.1950708667
-0.0487416709
0.2067343866
-0.5029332372
0.1341302303
0.0735257059
0.2504304989
-0.2741159844
0.0229390913
0.1730123737
-0.1020187587
0.0683900891
0.0055124900
0.1103067571
-0.6827000188
-0.1805681977
0.2321981119
-0.8559860434
-0.1982503978
-0.2865965034
0.0046661149
0.1594664154
0.4328204991
0.0487340577
-0.2278858875
-0.0637371418
-0.2930606244
0.1434202045
0.2621634532
-0.1450739401
-0.4081233131
-0.1664528520
0.4217228654
-0.3714415984
-0.2653863734
-0.1132407820
-0.0469697356
0.2074237496
-0.4925059697
-0.3102674632
-0.6246044931
0.0987450496
-0.0776936230
-0.0421605422
-0.3992867032
0.0558884926
0.4137125342
0.1331876062
0.0553577486
-0.0428404913
-0.2134840420
0.1438065040
0.0405474693
0.0830469302
-0.1754662408
0.2309512105
-0.0405862614
0.1222346042
-0.1532978546
0.4271364246
-0.2607867255
-0.1595724952
0.3523858055
-0.4010699693
-0.3647560908
-0.4016449911
-0.1516542055
-0.3895356275
-0.3949725872
-0.1069938074
-0.3484442119
-0.1244177437
0.2144291026
0.4097106432
0.4527106163
0.2667115804
0.2044392936
0.0444850988
0.3181494170
-0.0901937970
0.1105422766
-0.1048005338
-0.1497447202
0.2978033413
0.6466535333
0.2531947669
-0.1547538025
0.3123169990
-0.0860238547
-0.2493686315
0.0407523124
0.0334845472
0.0717345649
-0.4494532998
0.4499511210
-0.0755981957
0.3261350484
0.0125685555
0.2217093833
0.4677835405
-0.0787861825
-0.1401734225
0.0924323726
-0.1003810802
0.0217417343
0.0959224477
0.1452855284
-0.0539460373
0.1835987547
0.6143040418
0.1649817970
-0.2510499718
-0.1651835272
0.1785167219
-0.3603184020
0.1607126145
0.2031522129
-0.2101982103
-0.1554409298
-0.1499171944
-0.5641466783
-0.0182752943
0.0464009303
0.1736447190
0.3851284896
-0.1574738625
0.0379150806
0.1967121974
-0.0599607407
0.1503829132
0.1076493826
-0.5115397290
0.0738600082
-0.0569598166
-0.1430234988
0.4154664295
-0.1822800364
-0.4076469695
0.2199886730
0.3948845703
-0.0602007493
0.2282313833
-0.0159402034
0.0114637247
-0.5547240296
-0.1212238909
0.2655666411
0.0528218908
-0.0382001487
-0.2294967156
-0.0564349279
0.4505075075
0.0567091184
-0.0904154762
0.1783015596
-0.1269073425
-0.2155012142
0.1567780572
0.0619519038
0.2752646989
0.5154346096
-0.4288573794
-0.0023868042
0.2055542259
-0.1033121505
-0.0458044317
-0.0505122008
-0.0390765635
0.0222243296
-0.3268197060
-0.1918647010
0.0126070393
0.2961060894
-0.0140170606
0.3216957096
0.0291711526
0.2448806149
0.1244529286
0.3236970499
-0.0639762126
-0.0093388769
-0.3757495878
0.2854267749
0.3958147995
-0.0133371549
0.4695940282
-0.0141994895
0.0735954410
-0.0811879646
0.0252697847
-0.0545199644
0.0804098217
0.2591242910
-0.1337629223
-0.0355882168
-0.1513856495
-0.2208412030
-0.1910624539
0.0955601674
-0.2467399985
-0.0506492117
0.4196437070
-0.1575834819
0.2452863478
0.0713295347
0.3916666893
0.3261843038
-0.1737048558
0.2043243754
0.1713959532
0.4926887164
0.2824068663
-0.2019876177
0.3882731804
-0.3167609767
-0.0661352472
0.1843735202
-0.0988997714
-0.1099908064
0.1326639542
-0.4291039958
0.1282898007
-0.2958752157
0.0681090574
0.2124377599
-0.0756789046
-0.0014718164
-0.2021625344
0.0579974959
0.0419102367
0.3541628754
-0.1451798971
-0.3183006335
0.2948782172
-0.2197980173
0.7714328465
0.4214856956
-0.1180851030
-0.1152086536
-0.2669170598
0.1212110884
-0.0323846545
0.4032722973
0.2260213556
-0.1645366392
-0.0062021956
0.3748715852
-0.0336575249
0.0407527004
0.0580270284
-0.0763391832
-0.0384725776
-0.1968418020
0.2662937684
-0.1400813988
-0.1330712819
0.1885297345
-0.1148273320
0.2244900285
0.0814692464
0.2602872395
0.0145363231
-0.0110176092
-0.0325104767
-0.0865001157
0.2043116248
-0.3725402901
0.2996550203
0.1164719259
-0.0353046359
-0.1095005029
0.0952130046
-0.0838635913
0.2762296550
0.0216101908
0.1279467107
0.0062896179
-0.1267043525
0.0109110925
-0.0818037084
0.0769550684
-0.2772249802
-0.3430344678
-0.0322566699
-0.1573678328
-0.4576538384
0.1868743617
-0.0090207266
-0.0374254884
-0.1679360543
-0.0900024353
-0.0542989921
0.4213755757
-0.1088586323
0.2089934310
0.0221859245
0.2041857614
0.1923649601
0.0976066634
-0.2112386772
-0.0497166938
0.1193701637
-0.1026225664
0.1424295699
0.0325126573
0.1261233186
0.2225279354
-0.4601298610
0.2090321142
-0.0031873718
-0.1458898700
0.1419537688
0.0482527515
-0.2492914040
-0.0861736515
0.1428933865
0.1980824274
-0.1049041800
-0.0310660892
0.0637194107
-0.1909484832
-0.1175231961
-0.1218019192
0.0402370035
0.2968327236
-0.3029429710
0.2740018581
-0.0963915195
0.0732245752
-0.0808402963
0.0810448145
0.0004444873
-0.0060860763
-0.0155166013
0.2848622128
0.0376715941
-0.3327856983
0.1237439942
0.0984076755
0.0461514861
-0.1298324221
-0.1119106378
0.3001039602
0.1633380278
0.1337039577
0.0618898951
0.2525806437
0.4735120139
-0.3663691297
-0.2536200073
0.1046499243
-0.1887965665
0.0183155620
-0.1577374561
-0.0260106250
-0.3792955450
-0.1485559910
-0.2853359362
0.1166074638
0.0161206550
-0.0749878715
-0.2472587753
-0.0430735879
-0.0047995597
-0.0789683201
0.1354284236
-0.1662539174
0.4382094407
0.1771748124
0.1885263395
0.1245191634
0.1572436624
0.1524247176
-0.0988225898
-0.4909416722
0.1043273278
0.1492400740
0.0054912149
-0.0225555085
0.0550653965
-0.0515435954
-0.2699734380
0.1390228293
0.1572390699
0.0228394275
0.1989784341
0.1531358471
-0.2438940830
0.5632759866
0.1880625764
0.7749328810
-0.3739014435
0.2211000397
0.1048180806
0.1816818227
-0.0484209784
-0.0458927757
0.2647655435
-0.8262506047
0.1004425318
0.1841092145
0.1201902176
-0.0632764121
0.2598107793
0.1042195314
0.3770758204
0.4485567869
0.1302719422
-0.3094350255
-0.1632225722
-0.4412125860
-0.2433131730
-0.0302817720
0.2193787651
-0.1548282463
0.2682690552
-0.0947535037
-0.0942603043
-0.2378092870
0.2585421805
-0.2378260107
0.2951043443
0.4023751947
-0.0417189413
0.1657704273
-0.0762557483
-0.0208748592
0.1993353926
-0.2536467061
-0.1042164766
-0.0833809113
0.2704192545
0.3998627857
0.0305049856
-0.4929169573
0.4017806346
-0.0821377787
0.0441517253
0.0726503592
-0.3118015624
0.6390760171
-0.3697853556
-0.0458483184
0.0430080175
0.1979163511
0.1301861995
-0.3293578066
0.8224794610
0.8005013852
0.1258989316
0.2568008946
0.1811833876
0.0024402144
-0.0622405662
-0.4692178932
-0.0477961092
0.1025142978
0.6367934293
0.2397972752
-0.2796966144
-0.1440202583
0.1769675142
0.1488087757
0.1089329861
-0.1942383257
-0.1429830045
-0.0325176393
0.2528861831
0.0739096684
-0.1251975273
-0.0793326370
-0.4235259925
-0.3158888952
-0.2382609962
-0.4032622638
-0.1086069394
-0.0470893992
0.1989149520
-0.2237725898
0.1923626319
0.4303920236
0.3466576180
0.0105680002
-0.0317540345
-0.1132979295
0.0681561154
0.2214508646
-0.0874340005
-0.2889472655
0.1574098422
0.1693776762
-0.1898212512
0.1587988244
-0.0664470381
0.2980723296
0.0491222486
0.1583529402
0.3404445101
-0.0655456392
-0.2609897567
0.1884999221
-0.0408721618
0.3475960220
-0.3237848955
-0.3274986870
-0.0250986019
-0.1307026169
0.1809941306
-0.0429134155
0.0810670433
0.5150526085
-0.3124834603
0.1786809960
-0.1810039689
-0.0357127795
-0.1574768565
-0.7148814585
-0.0110441723
-0.1395199155
-0.1573524790
-0.0071357542
0.1803254184
0.1965208206
0.5169324604
0.1024819221
-0.2455592136
0.2398385741
-0.3644849142
0.1278372180
-0.1896938942
-0.1654041967
0.1224968044
0.1513254338
-0.2240858246
0.2255936127
0.2222661954
-0.0625902756
0.1465894161
0.3793421778
-0.1950740384
0.8810842215
-0.3489269786
-0.2526358067
0.1313381964
0.1711820166
0.0316635300
0.1050184124
0.4346647964
-0.2858596381
0.2639427844
0.2569962529
0.2535128312
-0.3107319210
0.1249943319
0.0012749767
0.3428719401
0.3787311923
-0.0372237008
-0.1457115018
-0.3495332672
-0.0955530817
-0.0144045222
0.0113865576
0.1300277414
0.0685575272
-0.1813160643
0.2168426624
-0.1028127349
-0.0028616925
-0.0442713540
-0.0400821915
0.2647382359
0.3471025511
0.2294475073
0.1577926703
-0.0469096794
0.0822366191
-0.0377654525
0.2911622095
0.0318370566
-0.3916089725
0.3606383144
0.4913513340
-0.0056616201
-0.3130964277
-0.1549109156
0.0244421506
0.2174307852
-0.2043046317
-0.0483897055
0.2694867627
0.4168399956
0.2645885875
0.0117327343
0.1624880836
-0.0714113860
0.0068440629
0.9322850260
0.2233487314
-0.0203873325
0.0668578396
0.4482451871
0.1732106829
-0.5211759227
-0.4325278577
0.2129438540
-0.1839649012
0.3349721753
0.3518520242
-0.0707206418
-0.1226632378
0.3897024690
-0.1503918318
-0.1324534773
0.1502809204
-0.1409291513
-0.1789297697
0.1391471618
-0.3967706521
-0.1204923727
-0.2952658040
-0.1986124774
-0.4951872698
-0.4253958706
-0.3678593702
-0.1102977631
-0.0426883634
-0.1340142600
-0.2731599796
-0.3154046481
0.2648138167
-0.1090578494
0.3914534204
0.1623074506
-0.3858989222
0.1415142636
0.3077247559
-0.5610762536
-0.2419069577
-0.1607667001
0.0903751049
-0.2462459410
0.3625340286
-0.3065694101
-0.2153495455
-0.0712067972
-0.0016133013
0.1843973243
0.3205345455
-0.1111203900
-0.1516836069
-0.3579141897
-0.0206929748
-0.1217578541
0.0612456448
0.1650972971
-0.0089399178
-0.1076261273
-0.4734673227
0.0191616681
0.1491166785
-0.3066380907
0.0706441413
-0.0318921768
0.2593895417
-0.1481516185
-0.6181801782
0.0898554292
0.2766237840
-0.2784462925
-0.1237817386
-0.2427824032
0.3160435975
0.0361708655
0.1088992362
0.0021827844
0.2220890385
-0.1212244749
0.1257074213
-0.2607752865
-0.2833545223
-0.0403429209
-0.1257700505
-0.3991981023
0.8359686738
-0.0720458372
0.4009226806
0.1333021443
0.3230221986
-0.2818983188
0.3765392337
-0.1005455130
-0.2558118615
0.7112891222
0.3518889404
0.0614423620
0.1619787987
0.5024465466
0.4721842422
-0.0240342384
-0.3136668055
-0.2290073651
-0.5231852327
0.2512812883
0.0077579483
-0.1613864821
0.2263770384
-0.0419092974
-0.0481753658
0.0018581292
-0.1089378584
-0.1359689967
0.4729669061
0.0290703865
0.2333020430
0.1111039313
0.6252340972
-0.0106600353
0.1319068444
-0.3059898453
0.3866984806
0.0325814469
0.0347404445
0.0201568401
0.3415888324
0.0657637167
-0.2943742605
-0.3103410380
0.1156162458
0.0314285756
0.1868161959
-0.3236631417
-0.0843618998
0.2983962793
-0.0775534456
-0.2396228603
0.5157856222
0.2787080982
0.6976647881
-0.1106857174
0.1038023066
0.5066917655
-0.2145956571
-0.4873811795
0.0690875725
-0.1038492805
0.5231766252
0.2837944858
-0.3913997801
0.4759455765
-0.4600872720
0.0653618289
-0.0241284159
-0.2010286696
-0.1784615378
0.4704812493
0.0222448664
0.2411126474
0.4499725004
-0.2337451242
-0.3068699558
0.3992126534
0.2544690344
0.0548685154
-0.1597113417
-0.4879270361
0.2114695818
-0.0133147788
-0.1286387220
0.2630570584
0.0852219181
-0.3159821375
-0.3013334799
0.2840735865
-0.3267714103
-0.1615104774
0.2005710412
-0.1708074235
-0.3797398770
-0.2523458187
-0.0098431368
0.1772482775
0.1259298737
0.1664147106
0.1686694838
0.0649972903
0.1215459905
-0.4314162588
-0.2076654552
0.1653743299
0.0022540361
-0.4223557561
0.0251438970
0.0202047960
0.0374637407
0.4102947431
-0.0608383213
-0.1390196566
-0.1494104584
-0.3380012287
-0.0314457128
-0.3615519883
0.1874209901
-0.0367093225
0.2373515197
0.1286308614
-0.1636148130
0.0181165822
0.0823276451
-0.1645778787
-0.1170724303
-0.0103892348
0.0486545949
-0.3143607508
0.0131839417
-0.0373168446
-0.0587384074
-0.0918780992
0.3188228846
0.2301840155
0.1763031945
-0.3088627580
0.0056760215
-0.5393719545
0.1495792789
-0.3434631051
0.2019682441
0.0031665421
0.1964575074
0.0513955907
-0.3686347678
-0.0759567031
-0.1348291661
-0.1050047739
0.4165153225
-0.4602579676
-0.0990075193
-0.1228929733
0.4069238630
-0.0404116025
-0.7251024463
0.2980450868
-0.0878560460
0.0040727680
0.3383212938
-0.8935249377
0.2291048954
0.3644075495
0.4861425407
-0.1462723651
-0.5056503207
0.0511465020
-0.3722594429
0.4683158159
-0.2213817151
-0.5335835369
-0.6001207202
0.2423008725
0.3041264534
0.4794071098
-0.3030003987
0.2866942500
0.0348202730
0.2279960336
-0.1361937881
-0.1904181294
0.1855673886
0.0122733508
-0.0400254066
0.0390456028
0.0420954777
0.4908114132
0.6908627499
0.1097354911
0.1554880519
0.2732045499
-0.3040898213
0.1382961768
-0.5489281019
-0.0331295788
-0.2096507158
-0.5769454249
-0.4251345471
-0.1076067140
0.2143443792
-0.2793470785
-0.2455356225
0.1079709975
0.0958186611
-0.3314665008
-0.5841825208
0.2012863420
-0.3467435373
-0.1056044103
-0.2817212729
-0.0030294701
0.4234881633
0.2233905397
-0.6412245405
0.0828562489
-0.1390101372
-0.1737975062
0.3931335792
0.3030895372
0.3210889322
0.2352673748
-0.0168619787
0.2432714025
-0.1791848347
0.0280396434
-0.1586096727
-0.0748025813
0.0361991140
-0.0422422312
-0.4624997073
-0.0599562977
0.0674239044
0.2849041745
0.2404313496
0.3220283049
0.1522250269
-0.0299465205
0.0256114064
0.4316310451
0.2135798741
0.1415516205
0.2906798448
0.0948571090
-0.5923670381
-0.5596452614
0.5822731247
-0.2328571512
-0.0949425238
-0.6137410584
-0.0359990452
0.4327990206
-0.1458361497
0.1239937068
-0.1460200793
-0.1513405060
-0.2445483615
0.4051052856
-0.1847863677
0.4295664442
-0.2805789984
0.1954670850
-0.1010662545
-0.0176046288
-0.2361709269
-0.1716173172
0.4311263977
-0.0428153864
-0.0758712526
0.1571271863
0.0010383091
-0.1506403949
0.3385879554
0.0182952723
0.1452970378
0.0559528950
-0.0251704877
0.2416624736
-0.1711087798
-0.1040741142
0.0527051526
0.0998887341
0.3676198248
-0.2588102688
0.4344108505
0.3498691905
-0.0098340704
-0.3698960820
-0.6631911266
-0.3860988505
-0.4013397607
0.4567510355
-0.2776912142
-0.4237830001
-0.1410104570
-0.1677722477
-0.1112577227
0.0360721816
0.1972184207
0.2704365208
-0.7426299278
-0.2347419873
0.1364472522
-0.3986522259
0.4866223570
0.2923459723
-0.2829095649
-0.0674865447
0.0737646384
-0.6709674357
-0.2753813978
0.0261324022
0.0147537166
0.1172934815
-0.1529591426
0.1190586772
-0.2237886747
-0.1840944712
-0.2042360043
-0.1015920491
-0.2888248902
0.1742164445
-0.3468120927
-0.0079631139
-0.2611457728
0.3946662797
-0.0344811507
-0.1704669459
-0.0258703188
0.0836091313
0.0315761565
-0.0522284620
-0.1643140709
-0.2488336123
0.1694493025
-0.0132507932
-0.1094019219
-0.0732668613
-0.1684239204
-0.1723031015
0.5368901952
0.2576464592
0.0409317786
0.0653241263
0.0158178054
0.1273615515
0.0851500766
-0.0179186564
-0.5308214061
-0.1765548746
-0.1225304342
0.1104173510
0.0794546365
0.0343674992
-0.1789054192
0.0233846417
0.4053075259
-0.0590142375
0.3569554303
0.2961842915
0.3179540268
-0.1158538646
-0.2861476938
0.1492339115
0.1039729660
-0.2587446703
0.3671547714
-0.3246350893
0.2010508152
-0.2333541565
0.0285208167
0.1571510784
-0.2256856379
0.0741264403
-0.4876542763
0.2405845646
0.4308489751
0.0173079433
-0.4064312233
-0.4351436074
0.2425637907
0.0032688401
0.5242803509
0.4813932646
0.3997495446
-0.3066326930
0.3993190298
0.3995348268
-0.0166857453
-0.2879477125
0.4523135311
0.0450942223
-0.3782311399
-0.0022222950
-0.5041238833
0.4620577407
-0.1192430209
0.1125081300
-0.4188017912
-0.3941364974
-0.4245335546
0.0100291435
0.1934300221
0.3070253294
0.3298651366
0.0447809704
-0.4673215904
0.2770302710
-0.2863324199
0.3970787310
0.0619209120
-0.0557242438
-0.1142270364
-0.1464563890
-0.2459088368
-0.2446631496
0.0406077574
-0.0318315326
-0.3998231462
0.3629095017
0.0213206075
0.1123399109
0.2603859812
-0.1998281552
0.0210579566
-0.1504839288
-0.5225323619
0.0392494455
0.0020262415
-0.0596881776
0.0818393045
0.0332542877
-0.0345742400
-0.3635110720
-0.0190112335
0.1906405979
0.1032940237
0.1040936702
-0.1181424817
0.0594307959
-0.3354705047
0.0546126136
0.0672573570
0.0395044522
-0.1781420991
0.0420822131
-0.0371269628
-0.5555758924
-0.2557145241
-0.0471773970
-0.0548787577
0.0757651970
-0.2688066064
0.0960932372
0.1154637190
-0.5476257800
0.3706229525
0.0706837060
-0.2439265945
-0.0710560872
0.4315892395
0.0320349570
0.2145546483
-0.0366953192
0.0206119609
0.4309135246
-0.1671953080
-0.1011671403
0.2226860242
0.0281718449
-0.0127876943
-0.1413229074
-0.2060846922
-0.2551051365
-0.0204931279
-0.1426259005
0.1417805423
0.1403837442
0.2263648792
-0.1002562626
-0.3300129513
-0.0671792383
-0.1136385133
-0.0793979470
0.1085141520
-0.0281392372
-0.0644202229
-0.1581952285
-0.1811228311
0.1244821728
-0.2371684930
-0.4519175367
0.4639995558
-0.0460308973
0.0859310464
0.1479799696
0.4190116869
-0.0679866601
-0.1445052763
0.0262346962
0.2408660311
0.0152729308
-0.0080084999
0.1064965624
0.0270856331
0.0432310828
0.0820976162
-0.5123673599
0.3138301821
0.1804950938
-0.0999812391
0.1637945010
0.1104765100
-0.3531516435
0.4607954312
-0.3956343533
-0.2741506616
-0.2633748786
-0.0779381881
0.2363552685
-0.0474244371
0.0934479842
0.2757237240
-0.3708153109
-0.5497697781
-0.0872150684
0.5380054541
0.2430226582
-0.0724580801
-0.2409067144
0.4492111712
0.0697435444
-0.0311338192
0.0647240257
-0.2611334577
-0.4286460059
-0.0442375382
0.6668662879
-0.1558964976
-0.5155515856
0.3867848974
0.4611026587
-0.1213692410
0.3864081953
-0.1005338030
0.5072445921
-0.3464522213
0.4888849928
-0.6821990612
0.4094244530
-0.1533367676
-0.1136475029
0.2481762913
-0.1359815325
0.5312309896
-0.1748366310
-0.1644626253
-0.2276141270
-0.1514039378
-0.2699072355
-0.1821054114
0.0222717085
0.2096124570
0.2796166674
-0.1473089482
-0.1565479362
0.1465380353
0.1601001853
0.2239977809
0.1747584254
0.1243476712
0.0399654997
-0.1158774284
-0.1442165298
0.1068430571
-0.1039471796
-0.2240114519
0.3206234355
0.2329002151
-0.2462370020
-0.3493971722
-0.3472277042
0.0539329797
-0.1379673126
-0.2347492062
-0.0040144855
-0.4288859421
0.0939288364
0.5481532044
-0.0340802489
-0.3010065995
0.0075958040
0.2270039188
-0.1529969993
-0.2248434106
0.4033306247
-0.0074990492
-0.0247929372
-0.0871222541
0.1057144458
0.1040345775
0.0039644662
-0.2146488810
0.1586086922
-0.0922383824
0.0705274471
0.3090762001
0.0754060548
-0.1809015526
0.2554115042
0.2370759481
0.0977768129
-0.0290782073
0.1534496125
0.0963270048
0.1337974131
-0.2417820958
-0.0091080925
-0.0224808265
0.3353459943
-0.2359373247
-0.0248472075
-0.1123716482
0.3085814454
-0.2895030425
-0.1246797682
-0.1102301168
-0.1162376067
-0.0547864521
-0.0203530177
-0.1048239456
0.1080290990
-0.2062790587
0.1645194948
-0.1106923086
0.3356627741
0.0081399170
-0.0476639178
-0.2758784163
0.0244031228
-0.0393496715
0.0690891683
-0.1194023007
-0.3290865848
0.1517086355
-0.2842310398
0.2768773093
-0.1147778811
0.4795456307
0.1122862405
0.2450104947
0.3134572265
-0.1377880575
0.0358508856
-0.5011928292
0.0735899042
-0.3226168042
-0.1170387467
-0.2463643506
0.2737730355
-0.1326190754
-0.0996351692
0.3595742597
-0.0989577853
-0.0266664944
0.0242209370
0.2388993611
-0.2197719397
-0.0163215145
-0.0089217630
-0.1415634322
0.3053623558
0.0633322538
-0.2113047400
-0.2698692249
-0.1473318027
0.4401458771
0.3247989237
0.0454349012
-0.3201145740
0.0524001126
0.1534776227
-0.2122248915
-0.3252466752
-0.3658502875
0.0519550752
0.0089165679
-0.2606911107
0.5556707189
0.2346478896
0.1123741043
0.5818453571
0.0407700142
0.1006994878
-0.2849191105
-0.1914987214
-0.1125175820
0.4164939917
-0.7591464480
-0.2451063465
-0.2074756681
-0.2024221124
0.0640544982
-0.0696123113
-0.3829354757
-0.1568697356
0.0358706761
-0.0780028975
-0.0172439916
0.3129163927
-0.3654974154
-0.3520307175
0.1742638627
0.0585897751
0.1300974628
-0.1495214460
0.3902818624
-0.1262226748
0.6125971418
-0.6315241765
-0.3496067119
0.2027803460
-0.6515673889
-0.3211846047
0.4155143183
-0.1458963002
0.0774294839
0.1447523414
0.1570073550
0.0698992061
-0.0566998072
0.0668426992
-0.0214149957
0.3531297396
0.4381040635
-0.0095713243
-0.4397614890
-0.6490527372
-0.3178684314
-0.1109788041
0.2072829998
-0.1243252767
-0.2193175623
-0.0151029797
-0.5944308756
0.3939698070
-0.3837572895
0.1195855180
0.1069267086
0.0128879729
0.0338174878
-0.1024566792
-0.0145583396
0.0372246127
0.3651013906
0.1595711101
-0.2510515818
-0.1455710661
-0.0323162012
0.2404991813
-0.1426114934
-0.1264677156
0.0560430930
0.0637646024
-0.2584323541
0.1712184755
0.1075787316
-0.2426200760
0.1249628445
-0.2471526939
-0.0641323039
0.0885609419
-0.0103836343
0.2514158779
-0.0455571800
-0.0249148200
0.2838078387
-0.0098580022
-0.1363562748
-0.0440168044
0.2812573944
-0.0903822372
0.0952699562
-0.2148980848
-0.1477542802
0.2718276797
0.1672425261
-0.0856245941
0.0782164544
-0.0222588276
0.1098660314
-0.1848450037
-0.0639191573
0.0793277202
0.1797481871
0.0944258937
-0.3713898000
0.3912911205
0.7115533562
-0.1089026428
0.2684991768
-0.1980635711
0.1649616679
0.0809862766
0.1065952473
-0.1861904951
-0.1230994869
0.1241341951
0.1311700312
-0.2525662491
0.0638548269
-0.0351032329
-0.1471900963
0.1259617456
0.0761194117
0.3474505520
0.1907304560
-0.1651692537
-0.3088874963
-0.0057120005
0.1712653827
0.2008710322
-0.4823770737
-0.2374129281
0.1116272189
0.0109615398
-0.1384303049
-0.2212869004
0.0352353771
-0.3427164478
-0.0971810114
0.0895377803
0.0735798791
-0.0409990078
0.3145880112
-0.1055083187
0.0482884559
-0.5546195213
-0.2057676934
-0.3431201573
-0.0475132236
-0.2859286041
-0.1353601370
0.1236557713
0.6749641044
-0.0068281887
0.0300942704
-0.4752535886
-0.2083394006
0.1238736086
0.2702491233
-0.1513440404
0.2494313549
0.2641984318
0.1727938798
0.0162262034
-0.0448928105
0.0586563803
0.3258559199
0.3095715783
0.4522171025
0.2339210706
-0.0731876548
0.0306932667
-0.4041136771
0.4035439845
-0.0777716670
-0.1447889319
-0.4014732944
0.1391903897
-0.0143663043
-0.1777730322
0.3123741471
-0.2275562793
0.6137085460
0.1466446986
0.2415466570
0.0658235558
0.0386128793
0.2336369241
0.1146546912
0.1421577025
-0.2405893883
-0.1137882406
-0.0832692943
-0.3231665335
0.6272577663
0.1543748048
0.1649741670
-0.0618254576
0.0197400500
-0.4594871345
-0.3582407905
0.0387917230
0.3842466306
0.4585381187
0.2734039136
0.5709106676
-1.4255202016
1.0794967196
-0.8456790751
1.2858624826
0.4773174304
-0.2319990935
1.4179346944
1.2750926923
-0.0330773152
-0.4394179834
-0.7436297545
-1.2474878623
0.8817938848
-0.0341098023
-0.2117084508
1.1151222859
0.0952670824
-0.3966375570
-0.2232121116
-1.2934954924
0.8383253453
0.8266429582
0.3873554180
-1.0554954363
-0.4251992731
-0.5858004411
0.2846767240
-0.5311400781
0.3971139035
-0.0236246625
-0.4711570400
0.6621751916
0.6711511760
-0.3983487319
-0.1995534652
-0.2967085459
-0.4902766299
0.4038003500
0.4794328094
0.3239259034
0.4142774304
0.1645290056
0.1704207008
0.2689708199
-0.0828497957
0.4197173225
-0.1349016765
0.0148229535
-0.1422311796
-0.5430952058
-0.3484477233
0.4144441276
-0.2274228080
0.3943237241
0.5536648394
0.4604117833
0.2925187663
-0.0751298894
0.4875908185
-0.3502109819
-0.0575659872
-0.6330755360
-0.2125004980
0.4707491223
-0.1325651781
0.5526290951
-0.0503294533
0.3781938382
0.5042461429
0.3302436340
-0.1919408868
-0.0431290055
0.0153698903
-0.5581109750
0.0789664318
-0.4542008073
0.4864658628
-0.2497983637
0.0731745547
0.2658741286
0.1553334061
0.1646555211
-0.3541282064
-0.2034334337
-0.0026219689
-0.5417754319
0.3366638083
0.0651968725
-0.1640846209
-0.4423351405
-0.7364249880
0.0896396621
-0.7508125268
-0.2114729788
0.1327337278
0.1982835306
0.5034496963
-0.3512475630
-0.3853930363
-0.2700056474
0.6546777551
-0.9617285369
-0.3303574271
0.2559226106
-0.6288494189
-0.2635006779
0.2398097414
-0.1227461569
0.3944357512
-0.2583469878
0.6107944368
-0.1326220415
0.1450790231
0.0122834880
-0.4818849364
-0.4888732872
0.1718281354
-0.2678815250
-0.0228906849
0.2051515784
0.4246165421
0.1124446921
0.6002904223
-0.3729304714
-0.8746296602
-0.3873741590
0.4553041720
-0.3032856755
0.1468130042
0.5298834562
-0.8305946336
0.2498046924
0.0605601270
0.3668850936
-0.4299324768
-0.0436912169
0.8178360834
-0.3480629482
-0.5434410105
-0.1228394010
0.6532466402
-0.0211796660
0.2045909203
0.1837581185
0.8817839225
-0.0757156457
0.3537142319
-0.5139230380
-0.1801671357
-0.3653751680
-0.6493936112
-0.4313989571
-0.3252696642
0.4892765373
-0.3757968714
-0.5590991547
-0.8481682720
0.5247704519
0.2200652448
0.1335456489
0.0285424230
0.7911716803
0.3014323934
0.3241223806
-0.0112874767
0.0799179538
0.1552778356
-0.4422810913
0.0250593789
-0.1810009939
-0.1958586079
-0.1713059928
0.7873177605
0.4426416825
0.5091874150
0.1012527224
0.3649490835
0.2409419712
0.0949729074
0.3212659855
0.3781924055
-0.0166565210
0.5344959154
-0.4260065342
0.7088423985
-0.7810065765
0.0891153885
0.0450129689
-0.1040011444
0.1305061890
-0.6658485125
0.1607074951
0.3208079035
0.1518766376
-0.4231267394
-0.1986519521
-0.2736054340
0.0948829323
0.2472912258
0.1559311308
0.1027919832
-0.6074967111
0.3781018819
-0.4587698118
0.5288780113
-0.9845838653
0.4233980356
-0.2978366297
-0.3368806429
0.5473670336
0.1983733808
-0.4667191042
-0.3160513725
0.2244437651
0.5664556752
0.0025222204
0.2411698307
-0.8891064963
-0.2182451244
-0.0531040582
0.4434755532
0.5408236637
-0.4705595094
-0.5193274985
-0.3827953758
-0.0437465227
0.6103964548
-0.3186968279
-0.1987867954
-0.0014967034
0.8205090477
-0.2620634357
-0.1861953614
-0.3107864552
0.4260311068
0.2376520953
0.3200981911
-0.0552622369
0.3851209841
0.3289426080
-0.1108482004
-0.9654718969
0.3218952497
-0.5453732729
0.2299611613
-0.5545646915
0.8589780786
0.2853929857
-0.6371038353
0.1994928869
0.3637810891
0.2635221808
-0.3497998132
-0.1862539817
0.7258938916
0.3082973383
-0.0799257324
0.5156963820
-0.4808115572
0.4416683602
0.0348368193
-0.0919324186
0.0322614657
-0.3881525424
-0.2208554441
-0.5932681539
0.0065014983
-0.1018833451
-0.4822218432
0.6853817388
-0.1140454966
0.4229316343
-0.3190565878
0.0359211766
0.0180615379
0.5794707465
0.4338090610
0.0396495226
-0.0588613324
-0.2794022456
-0.2268475050
-0.1072966169
0.3630939839
0.4558397943
-0.7644667505
0.7211706245
-1.0628496108
0.8411289777
0.1745615991
0.2285474587
0.3610334927
-0.0031669582
0.1200188000
-0.4927414614
0.1756376072
-0.5689217843
-0.1507529854
-0.4241157962
0.0227170343
-0.3451866100
0.6797548239
-0.3429369381
-0.2979465500
0.0414161046
0.6396109115
0.1825848196
-0.0446477871
0.1755376813
0.2786833314
-0.8052060302
0.2336870757
0.2047606792
-0.1136185792
0.1610125847
-0.5026380799
-0.1248764041
-0.4688865519
-0.4275853656
0.6576450960
-0.2417440806
0.6768376704
-0.1482657533
-0.7979648319
-0.1298293798
-0.3700174615
-0.5507905487
0.7639584933
0.1863730317
0.0285171333
0.2354618214
-0.8983798544
0.1374116229
-0.5397082086
0.0395771000
-0.1579568683
0.7492928645
0.6778356495
-0.1225547431
0.3200199216
-0.8177917478
0.2653585293
-0.0951352579
0.2187110476
-0.4342992406
0.1522260457
0.5350880780
0.1059778107
-0.0383334807
-0.1130305109
0.3124068443
-0.8574782807
-0.0078709442
-0.7485735946
-0.5198846656
-0.1744279616
0.0774034389
-0.0180096688
0.5168075943
-0.2770017414
-0.2300307353
0.0505621013
-0.3039883811
0.2360112966
0.2713440105
-0.4279208340
0.3097762942
0.1916517277
0.2218655728
-0.4855356069
-0.1130226289
-0.2222416210
-0.7136504615
0.2109651954
0.2139298666
0.5472083933
-0.2933987817
-0.0187364428
0.1536872773
0.3089699818
-0.0690543188
-0.3084350236
-0.2125271138
-0.3738866499
-0.4135126644
0.1814124893
-0.5320077517
-0.2387931352
0.1297632634
-0.0298382875
0.2762806646
0.2743749674
-0.1866020812
-0.1811284057
-0.1072878716
0.3332966334
0.2975075502
-0.3602592293
0.0632389272
0.4331912594
-0.0372535416
-0.0826297878
-0.8984177731
-0.2494426527
-0.4075852059
0.5625572660
-0.6058016472
-0.3502000096
-0.3433511796
-0.4405297576
0.4745526738
-0.2148639723
-0.1743068401
-0.3559466607
-0.4475693400
-0.3356985976
-0.3714010618
-0.3252613306
0.1133403368
0.1996683839
-0.7147428644
0.1485908992
-0.2587663725
0.5605785165
0.1432404652
0.3783926473
-0.0055114185
-0.4179374854
-0.4915136763
0.4542279415
-0.0464523590
0.1009166689
-0.7573616817
-0.2425721159
0.0590129488
-0.0421532841
-0.3249346371
-0.3238268588
0.2393892293
-0.2843372456
0.0447940839
-0.0692145398
-0.0600498396
0.3361728546
0.8974491189
0.1279056979
0.2407665087
0.5182080638
-0.8536351988
0.4972334800
0.4475432711
0.2817608085
0.4162079572
0.3039928868
0.2766654831
-0.1641624393
-0.4372749709
-0.4101546839
-0.2298734318
-0.1143979690
0.6244587553
-0.0756599943
-0.6943833319
-0.3259127946
-0.4133340448
0.0947011137
-0.3055943086
0.5591695696
0.1926945062
0.6240394554
-0.2693808658
0.4199147623
0.2405598386
0.1300758197
0.3550996518
0.3443186638
-0.3003318512
-0.1701100737
-0.4779290740
-0.5808083934
-0.2049125355
0.1431375427
-0.3138115905
-0.0699904319
-0.1123604507
0.1611558983
0.2694633658
-0.1765627910
0.2953915241
0.5124988037
-0.0090285625
-0.1182547347
-0.5389064344
0.4301905735
-0.3761106996
-0.4170922617
-0.3736557047
0.5509906060
0.2501921938
-0.2277777569
-0.5195172696
0.2206119069
0.6917721806
-0.1812971436
-0.3918561941
-0.2185164726
0.2812401204
-0.4639902772
0.1055795293
0.3429068820
0.5900926845
0.3758304985
0.1325211580
0.3561240647
0.3553407897
-0.0091531540
0.1366408747
0.4527811791
0.4187222769
-0.3709956385
-0.3608165722
0.0099189758
-0.3163278468
-0.4062804130
0.2701712407
0.1281979567
-0.0230029987
-1.4860823070
1.2635904468
0.8788490828
0.7323913595
-0.4595445086
0.9254128618
0.9025378250
1.3555978476
-0.9366159075
-0.9282996823
-0.5959661726
0.5487860456
-0.4261604869
0.7643391728
-0.2222812742
-0.2962898481
-0.5961835599
-1.2218106089
-0.6254209972
1.7000430073
-0.1111382815
1.2839074395
-0.5910068243
1.8900922897
-0.3694132535
-0.9322967066
1.3149558401
-0.1751232002
-0.1986618599
2.1181840245
-0.4510238215
0.4450028791
1.5208745442
1.4822308957
0.3011627985
-1.6741881385
0.9507483051
1.6306162305
-0.5165586629
1.3881442248
0.0276231728
0.4580442312
-0.9078817435
0.7921188682
-1.2087668398
-1.0979660764
-0.3474879100
2.1001963471
-1.5637038848
1.6409811985
1.3291125585
-0.9450521250
0.4981822476
-0.1244279813
2.0014275525
1.9251339276
-0.4614708265
0.4175063932
1.6828953119
-0.8882102386
-0.2281426661
-1.6622916067
0.5545886024
-0.0283364951
0.0357282101
1.6139692702
0.8003472677
-1.2709566965
-1.1358605508
1.4192768667
-1.3815140311
-1.1659694982
0.7175916999
1.0438272809
1.5160231254
-1.2336116825
1.3793738508
0.9521522844
-0.5322523372
-0.8387162251
0.8031091119
-1.8111890617
1.1451375701
1.1590989700
1.9784289581
0.9672202033
1.3790765816
-1.2084591379
1.1069499885
-1.1110990306
-0.5675788212
1.9386134581
1.6312049841
0.5103361682
1.0881644552
-1.6485151164
0.9476278041
0.4709797372
0.4670341125
1.3704831936
-0.4968850271
-0.3614234561
-1.3716473194
-2.1890022060
1.7156249361
1.6952381255
1.2238131201
0.1028199715
-0.7007364933
1.0550558414
0.2403281013
1.1343590667
0.2519005111
0.4168232928
1.9262266028
-0.1570034607
-0.8058528515
1.0022243728
1.1232174779
0.5040826355
-1.9440497396
1.3929298471
-0.2433184715
-1.1723123573
-0.4505307931
-0.8474223729
0.7944106651
-0.9201723057
0.2918711470
-0.8039003592
2.3328662947
1.2580201474
1.0076604757
-1.1752879264
-0.7517532208
0.2646104671
-0.1012354267
-1.3991753541
-1.4834338849
1.2486931031
-0.8057740078
0.0814891254
-0.3825708555
1.3510951686
1.3771650700
-1.2028795697
-2.0674487926
0.8460459555
0.1949935975
1.1287025922
1.1344625528
1.3192129900
1.4273854538
2.1291646916
-1.7118470685
-1.0989248336
1.7351315939
-1.4173666416
1.1167031834
-0.5645885508
0.3325779637
0.8580350815
-1.1634133190
1.9144829981
0.8623146972
1.1814986740
-1.0880826038
-0.0513463142
1.6429327346
-1.3389155849
1.9293693949
-1.3316391631
-1.0518991250
-1.0272456322
-1.7876326744
2.0147364433
0.9642185986
0.4423863285
-0.2751569616
0.4063748801
0.2208693905
0.0646104718
0.2878340469
1.0888476449
0.3619132640
0.9198674498
0.4597668985
-0.7456535201
-1.5433298741
0.0843707998
-1.1694667282
-0.8282411074
-0.9074770755
0.2074922515
0.5187491346
0.1189469455
0.2169616017
-1.0188722007
1.1269309220
-1.9970998238
-1.3475889563
-1.2265539654
1.0808632383
-1.8000033899
0.7897376996
1.3797746454
-2.1870212181
-0.3111974015
1.2203465646
-0.8616891590
0.9252372750
1.4602239352
-1.4359861717
-0.6579545876
0.0491697140
0.7858843021
1.4267996741
1.1996342375
1.1249627287
-1.7700216025
-1.1086393550
-1.2633104024
-0.6640103787
-0.7637355636
-1.6449393269
0.3225098718
1.2421154018
0.4176371915
-0.0102648096
-1.9039395278
-0.7877177424
-1.3117254850
-0.6469717517
-0.5203974474
-0.2778532017
-1.3705990419
-1.9905700748
1.5942578740
-1.5797153680
1.7613023679
-1.0740804253
-1.9513397860
0.2901703586
-0.1019182175
-0.7822334220
-0.8969228639
-0.8438674641
2.0109224002
-2.0467006592
1.1707868715
-0.6316714144
0.8959113624
-0.8450932243
1.3653439074
1.4369551079
0.1062289368
0.4918700887
-0.3157408070
-1.8116160912
-0.2561398607
-1.9729031572
-0.9065834532
-0.6975582189
-0.1317440076
-1.1520253031
-1.8389758205
-0.2575464655
1.6852776947
-0.2629860897
-1.0147662058
1.5117306385
1.0365866065
1.8333755931
-1.3114902005
1.4553296074
-1.8161579729
0.5429094674
-1.2309748715
-1.3322940853
-0.7262223976
-1.5390716966
0.2703162667
0.4359193104
-2.0875024267
-0.2541773297
-1.1154699456
-0.6999267615
1.6424083923
-1.1203187695
1.6959322940
1.8446104503
1.9636274120
-1.0703525577
-0.7278897893
1.6268287345
-1.4196633542
-0.4025560594
1.8228147863
-0.1060594743
0.4220914528
1.1668004006
-1.7459862170
1.4664436091
-0.7397413860
0.5841728688
-0.0576120388
0.2588149997
0.9151675719
-0.2451523796
0.4757952346
-1.9572455204
-0.7387338095
-1.9513597469
-1.3152247911
0.7863141258
1.9262639164
0.2019662006
-0.6639496147
-0.1854908014
0.7004598269
-1.5829534222
-1.0953975324
0.2205121070
-0.3052903977
-0.2181793920
-0.1420761063
1.1318410264
-0.3757451608
1.5555335478
-0.3896684730
-0.6234479450
0.1254351037
-1.1562107499
-0.4203188391
0.0834493493
-0.0057666422
-0.0515155028
0.0236758230
0.0077396269
0.0189371187
0.0364509121
0.0192671334
-0.0110313764
0.0628830847
-0.0078701950
-0.0464166943
-0.0383851389
-0.0305000652
-0.0847510695
-0.1418844915
