0.3981495327
0.0725797720
0.7198548051
0.2660933989
-0.3092389464
0.4048748184
-0.2646355040
0.4056496463
-0.1007014512
0.0302506781
-0.0473301484
-0.0762213480
-0.4646008653
0.2253593758
-0.1729997801
-0.2654780904
-0.1868431215
0.5618982779
-0.2997973768
0.4923980934
-0.5007729378
-0.3737668298
0.2537676270
0.1409887886
0.6442734198
0.0882813872
0.4857048821
1.5972031510
-1.1884110151
-1.2326883868
-0.1110243513
0.7821073224
-0.5362752844
0.4551159892
-1.1672899468
-0.2884720122
-0.9527233332
0.3876731973
1.5786587789
1.2259114608
0.2239704481
0.2402863154
0.8661919401
-1.6662959749
0.3170315647
-0.5698397591
-0.5381457424
-0.1893165546
0.1349438972
0.9966515343
0.0374844935
0.0318675797
0.0022231027
-0.6473349755
0.1192066863
-0.6215462955
0.4395558674
-0.1687641588
-0.5244845466
-0.3548675724
0.5887520707
-0.0059209462
0.2880843556
0.0303884259
0.2357025504
0.4788570433
-0.2187037777
0.5822526357
-0.1653860521
-0.1163948177
-0.2467010150
0.0918805878
-0.2967774137
0.4926503964
0.0228908116
0.2821901696
0.7229750527
0.8169173182
0.1269799697
0.2300496834
0.1585759394
-1.1481616878
0.2711182086
-0.2854838288
0.4326956635
0.2902734279
-0.3828345950
-0.0129835967
-0.8304325229
-0.1839703718
0.3741660827
-0.1627225833
-0.1532745393
0.3114308801
-0.0718287573
0.6661181749
-0.2935574332
-0.3171893649
0.1425821346
-0.6279527773
-0.1602088731
0.0138476561
0.7147317859
0.3369210585
-0.1585448827
-0.0835236027
-0.4889118385
0.2466980526
0.3913341169
-0.3156942389
0.0499506993
-0.6391889457
0.2991181975
0.0337095376
-0.1575529133
-0.1947014272
0.1815783357
-0.0315629273
0.0375255631
0.1947075749
0.0420115942
0.0715257091
0.2108269616
0.3076655019
0.2229001959
-0.2535079546
0.1685010364
-0.0574300355
-0.4377031603
0.0637930756
-0.1989261623
-0.3891587728
-0.9155147572
-0.1774149894
0.0206976856
-0.3376895279
-1.2057190756
0.6683936397
0.4530381483
0.8199162120
0.2039071918
0.2072426130
0.2363542194
-1.1696223836
0.4680884635
0.1198861938
-0.0631675057
0.3342049309
0.6843029800
-0.7864204299
0.0548817969
-0.1858909953
0.0631173415
-0.2977306668
0.2124730019
-0.3720155518
0.4273864137
-0.4838225863
-0.1736727904
0.4300270060
0.1355522759
-0.1798229323
0.2856831543
-0.5409225595
-0.0506258642
0.0436599976
-0.2473008206
-0.3332860533
-0.3176414693
0.0169305434
-0.1478844267
-0.0002843217
-0.1783257175
0.5043301627
0.1823072572
-0.1354294761
0.2241338208
0.8940732940
-0.1410232475
-0.0713169089
-0.5489894601
0.2566261952
0.0971533190
-0.2221468635
0.1522347533
0.3425159786
-0.2471328919
-0.3306089932
-0.4540404359
-0.3947260462
0.2832657501
-0.1208978589
-0.3727769897
0.0323988522
0.0634047254
0.4719053038
0.6117334634
-0.6786661115
0.3732408585
-0.3703703446
-0.0486713292
-0.2462562906
0.2089309154
0.0229652363
0.1874884625
-0.2125511388
-0.0384962592
-0.1065776655
0.2197927750
0.3908028062
0.0028613008
-0.0831454806
0.3961747076
-0.3395674041
-0.2591556986
0.0141038807
-0.4302126128
-0.0538722415
-0.4650665915
0.0305681288
-0.3548849202
-0.2408507386
-0.2869286851
-0.1391101164
0.2330170707
-0.1518336475
-0.0673441354
-0.0760873803
-0.0290506649
0.5725582152
0.0060189555
-0.4474125051
-0.1305757604
0.2512081621
-0.0022976299
-0.1794140875
-0.2709137450
0.0458050815
-0.1167097124
0.0121959610
-0.5119484383
-0.3181784771
0.0331940016
-1.1783005868
0.3642868716
-0.6526477472
0.1922233642
0.3005674119
0.1926278988
0.4540255295
0.0977091113
-0.1304851988
0.1639652707
-0.0572762103
0.1910229471
-0.0065015184
-0.0261712582
-0.0614612017
0.0081521235
-0.1429191606
0.1507851356
0.0315426178
-0.0370615963
-0.2499314964
0.0716576451
0.1501002891
-0.0893652136
-0.0253232611
-0.1053115271
0.1360872868
-0.0494081672
-0.1161958625
-0.2012429683
-0.0125532830
0.0605491559
-0.2171509464
0.1226507701
0.6402238474
-0.0854408948
-0.2071105556
0.0944707551
-0.0268995347
-0.2504083541
-0.2555632582
0.0381840771
0.2341403239
-0.1596241100
-0.4775462184
-0.5989897821
-0.3828184687
0.7362054711
-0.3196991329
-0.6796922769
-0.1295201264
0.2741720718
0.6408887633
-0.0759144930
-0.3864694781
0.2944049868
-0.0401885673
0.0299935605
-0.0716449613
-0.0016038126
0.1136433064
0.0690886703
0.0353260658
0.0336627431
0.1301787877
0.0413245606
-0.0251606428
0.1342637034
0.1737180071
0.0437372720
-0.2188617986
-0.1435209934
-0.0788141152
-0.1430331584
-0.0935692146
-0.2540838908
0.1029164616
-0.0413160608
-0.0716713275
-0.2341973733
0.0457314717
0.0079915670
0.1230097005
-0.0416829666
-0.0535425503
0.0757834022
0.3178838045
-0.2631030076
0.1371397626
0.5052153928
0.0493337989
-0.0880127305
0.1774048652
0.4534014641
-0.2785671380
0.2183561777
0.0848320254
-0.3033025446
-0.0538462248
0.5143024145
-0.8717826400
0.0098927251
-0.5533954143
-0.3660808529
-0.6720758431
0.0017656398
-0.2214915783
0.1219980593
0.3005558749
0.0596477419
-0.0383569297
0.1217876518
-0.0355038744
0.0444445437
0.0566290637
0.0404477903
0.1451210050
-0.0368863138
0.0278145505
-0.0517687076
-0.0113226629
0.2258297251
0.0617639594
0.1648342198
0.1477613288
-0.3724546862
-0.0286661407
-0.1694037198
-0.0081503821
0.1410832562
0.0151528912
-0.1037467617
0.1520514318
0.4661754658
0.0664995355
-0.0889469704
-0.0326407572
0.2650691379
-0.2253856596
0.1129976586
0.0680649466
0.2361847215
0.0121546483
-0.1956960062
-0.5041993990
0.1357961068
-0.0320268432
0.1895459822
-0.1184132936
-0.0625845981
-0.4509280378
-0.0980739951
-0.1412442821
0.1876043254
0.2209877142
-0.0268922349
0.3126989744
0.0219234779
-0.0151648775
-0.0671987042
0.2507202986
0.0684608422
-0.1663521676
0.1557768786
-0.0731065248
-0.1165230147
-0.1036185016
-0.1381269386
-0.0691223863
-0.0090132060
-0.0156163436
-0.0430306766
0.2274269050
0.0168930912
0.0612070128
-0.1644496528
-0.1685329998
0.1804727061
0.0109246718
0.0115160023
-0.1051103801
-0.0679611257
0.0485942367
-0.2596575298
0.0470052478
0.2662368013
0.2747695975
-0.0515856559
0.1846472779
-0.0123063709
0.1564171619
-0.7444686651
-0.1488089018
0.1285964156
0.2632556833
0.3250165536
0.0753748642
-0.0321554367
0.0568907220
0.2952365229
-0.4706870022
-0.0471814281
-0.2120877930
-0.0523683759
-0.4277753470
-0.1121306840
0.0341211399
-0.1970721703
0.0712547551
0.1362527618
-0.1439062950
-0.0800073532
0.0069129872
-0.1286764506
0.0678806346
-0.1456569000
-0.0183433167
-0.0514948184
-0.0964243591
-0.0036933366
0.0161655345
0.2132326597
0.2007255210
0.1988298791
0.0278280953
0.0056794435
0.0074834189
0.0848515702
-0.4524174779
0.0360899178
-0.0411886442
-0.1170594240
-0.0941453604
0.3620948071
-0.1358622119
0.3149592163
-0.0012161503
-0.2205394546
0.1173597085
-0.2080285725
-0.2305413290
-0.1270409362
0.0598837947
-0.0929830764
-0.0692141576
0.0684234058
0.0412803891
0.7162266749
-0.0729638043
0.0829428491
-0.0582784879
0.1095531506
0.4172254855
-0.5063210208
-0.0151840927
-0.1578824785
0.1016043286
-0.0364019064
-0.0530497276
0.1691159059
-0.0533109659
-0.0318491408
0.0915841231
0.2670104987
-0.3517686000
-0.1169785979
0.1691222346
-0.0820444073
-0.0354505523
-0.3277946049
-0.0965725572
0.3315339739
-0.4109969959
0.4103455064
0.0337377593
-0.0031445092
-0.4719365124
0.1773378422
-0.0463528004
0.5332764158
-0.4441930438
-0.2756701320
0.2452182594
-0.2254836432
-0.2229601827
0.1457264090
0.1254733167
-0.0333270588
0.0324245869
-0.4202815266
-0.1062836826
-0.0128928879
-0.2078613497
-0.0241398131
-0.1770909907
-0.3701664087
-0.3964272909
-0.2269282137
0.3699483117
-0.2236765280
0.0582854448
-0.0741782340
0.3602369481
-0.2897432119
0.3113568326
0.0206789951
0.1985165804
0.5239592019
-0.2097103370
-0.1744353742
1.1518420614
-0.6189942313
-0.7099618942
0.4042173993
0.2045648142
-0.7337317358
0.3874179677
-1.5120690384
-0.5679950943
0.4437616713
1.3326158906
-0.8679356243
-0.8884224435
0.0704456726
-0.5319234852
0.1211734139
0.5607684194
-0.8118602222
-0.2732616234
-0.3383717059
0.2272579876
0.7744555975
-0.2087161016
-0.2747982656
-0.0687911833
0.1604170927
-0.1671640597
0.4316320857
0.2641773251
-0.5738885125
-0.2799714075
-0.1723163124
-0.1279988063
0.0593033068
-0.2005255431
0.0117477774
-0.1087196122
-0.0493968783
0.2893270379
0.1339609637
0.0741224234
0.0484950786
0.2106856331
-0.0063680623
0.1226715715
0.0196852968
-0.2461466021
-0.1971756577
0.2560746910
0.4780735298
-0.2577136288
-0.2654554074
-0.0184870856
0.2088194794
-0.2332011414
0.1608376379
-0.0587288530
0.1821422881
0.0728854002
-0.6051245844
-0.0187941326
-0.2066628693
0.4038175103
0.4295565862
1.0898300613
0.2916059617
-0.3039607887
0.3654594259
0.1805939849
0.1803286784
0.3149983588
-0.0656228094
0.0740006720
0.1370188546
0.7996283281
0.2694860196
-1.5915680459
0.0410971673
0.2912099058
-0.1424774567
0.7178055411
-0.2018012865
0.3641814354
0.1723798446
-0.4291956924
0.4439793626
-0.3756517859
-0.4715482477
-0.1565667394
-0.1577137914
0.2836455446
-0.8496154161
-0.1889048669
-0.2800036188
0.1971853402
0.1826851758
-0.0219019729
0.4479757444
0.2828808136
-0.2072412758
0.2381757976
-0.2958975705
-0.0669228975
0.1172405744
0.0508726835
-0.4149366717
0.1076675519
-0.1113878185
0.1357938531
-0.0496477689
-0.2471957438
0.2395757161
-0.5900139425
0.4046493713
-0.0470205445
-0.0303972616
0.1480292665
-0.2160910253
-0.2399203509
0.1115050848
-0.1092693538
-0.1384085978
0.3898718820
-0.3484942764
-0.1477333326
0.1470199875
-0.0642559811
0.3519428477
0.0881789507
-0.1603823530
-0.2314409843
0.4346150688
-0.3137766186
0.0907856603
-0.0462863089
-0.0813676479
-0.2942645896
-0.1710914267
0.1823551037
-1.4786951963
-0.1125566101
0.3679947744
0.1451234424
-0.2157122596
0.0461109767
-0.2946433001
-0.2623647631
0.1475778662
-0.8880358891
-1.5483991247
0.5463292793
0.9605147268
-0.1416465722
0.6701068940
-0.1967992461
-0.9313093201
0.0469769625
-1.3559614306
-0.8839142389
0.7051544207
0.9146798624
-0.4001017821
-0.1343343906
-0.1539462208
-0.0699910376
-0.1758552951
1.5560283462
-0.7763391187
-0.1808475671
-0.4860113964
-0.2769562608
0.4347438951
-0.2778722505
-0.2490531767
0.0092419936
-0.0286397250
-0.4113825614
0.0599182313
-0.0502319604
-0.1681741980
-0.0179560740
-0.1999945889
0.3403908316
-0.0328149583
-0.2052235042
0.3377357757
-0.0294627470
-0.2811344454
0.1375191867
0.0280204563
-0.1256436134
0.1761918554
0.5312417745
0.0163090197
0.3995250963
0.2473233712
-0.3099796871
-0.0989006894
0.1324163836
0.1673657939
-0.4340854603
-0.5179203344
0.0093187602
0.2469462765
0.2774424084
0.0339499549
0.0977856411
0.2440674912
-0.1328842847
-0.3455765551
0.0375202486
0.0419266148
0.0645826678
-0.2082253710
0.7011630931
0.4060546217
0.0316636147
-0.2527352346
0.3121243388
0.2784737472
0.0886699332
-0.1860592762
-0.1578467569
0.7689214916
0.5679979646
-0.2712000086
-1.1963330177
0.5321965980
0.2727385238
-0.2123249841
1.0194665161
-0.2910544168
0.7638035657
0.4993189090
-0.0929319871
0.0595569144
-0.1246396368
0.1644148421
0.0981220482
-0.0434384626
-0.2278415549
-1.1245891631
0.2338777462
-0.0894880146
0.1036339623
0.3482371347
-0.3767545494
0.0606080600
0.2414882946
-0.1081676954
0.2861542634
-0.0580824118
-0.0531578711
-0.2417531795
0.5959551456
0.4033873299
0.2901682819
-0.0773822349
0.3250022795
0.1613478877
-0.2133057831
-0.0540436515
-0.1614906978
-0.1142297805
0.1446947801
-0.4842405022
0.1784037489
0.0464420158
0.0660852836
0.0097414544
0.1625318363
-0.0095509956
-0.8403031702
-0.4074102340
-0.4041893717
-0.0094830674
0.2346451183
0.3106264318
-0.2105212045
0.4044304024
0.4291307692
0.0798774076
0.4817965581
0.3612431748
0.2412482083
0.5426514664
0.1141007833
0.1201059942
0.0407860283
-0.3828394426
-0.5781860731
0.1913374913
-0.3983366056
-0.3077571887
-0.5026014370
0.2520975526
-0.3673773573
-1.7376558809
-1.4656958049
-1.6409118644
-0.1018010800
1.7750549612
0.3922281167
-0.7256992875
0.3489054588
1.1258579521
-0.3374883900
1.3442850774
0.1061267586
0.3795735293
-0.5770980564
1.0514139391
0.3188758541
-0.3571305274
-0.1571807631
-0.9710733606
0.3432693637
0.0911665809
-0.1543198022
-0.2127796806
0.4546814300
-1.2295482592
-0.1789747312
-0.0429353144
-0.0965728644
-0.0554934905
0.2751739941
0.1503125195
-0.3882558371
0.0211131698
0.0149989594
-0.0196819896
-0.0751456285
-0.1671294407
-0.0963026597
0.2076584218
0.4217436282
-0.1968560611
-0.2880667191
0.1151795111
0.4919603595
0.3234298449
0.4135875846
-0.1043112091
0.0126384151
0.0238435288
-0.1149685222
-0.4035187226
0.2338515921
0.0516794887
-0.1720664385
-0.1714483084
-0.2155414792
0.0526837517
0.1331880600
-0.3238094312
-0.2277232724
-0.0475091523
0.3774349197
-0.2117491850
0.0657936216
0.4760735623
0.1465632508
-0.2510395328
0.2469224655
-0.1026928662
0.3061580947
-0.3373762193
0.2118232802
-0.0162046168
-0.1207922453
-0.2352955564
-0.5421523249
0.3475838112
0.2707973429
-0.4116065256
-0.6010220924
1.1201996924
0.6559964936
-0.0607306015
1.2041719397
-0.2621057356
1.1073826074
0.7581468132
-0.2397126190
-0.5279067704
-0.1936844331
0.1576672367
0.2944038972
0.2467928003
-0.1297538737
-0.3236097111
0.5161626555
0.0887183315
-0.1848726858
-0.4207538124
-0.2393032751
-0.2078549695
-0.1702580976
-0.1179785642
0.2102761081
0.1723988582
0.6207791028
-0.2389518131
-0.1125710872
0.4365756001
0.2294109673
-0.2344297840
0.0050803521
0.2277040864
-0.2119477500
-0.7260946629
0.2098804999
-0.2497839831
-0.6682861641
-0.5993277990
-0.0307040101
-0.0629198307
0.2720523169
-0.1192107234
-0.1181424044
-0.3991863924
0.1372464883
-0.5207612868
0.1262914290
-0.5983743535
0.4392784566
-0.6380043034
-0.0330995193
0.2019491491
-0.4381822752
-0.1055904370
0.0726301840
-0.4963010698
0.3305686214
-0.6018564294
0.0649696131
-0.2524343763
-0.1424133969
0.5448226601
0.3312502418
0.1836533726
-0.1668010399
0.4398149267
-0.2090501611
0.0376275316
0.0360037140
0.1024958893
-0.6512994235
0.5460917593
-0.4521340648
-0.2025055800
-1.1683778942
-0.7455521235
0.7257539274
-0.6198256707
-0.2314106262
1.3499929902
-1.4203745967
0.1510778733
-0.6151507311
1.4647529345
0.2056263956
0.1566586090
-0.7465774523
0.4913013556
0.1045676455
-0.2115426396
-0.4631773508
-0.2225091378
0.1673460920
-0.4526979559
0.4728354507
0.3120501960
-0.0983022416
0.2561996491
-0.0010491310
-0.4847267533
-0.3287647074
-0.2603496312
-0.1070000374
-0.6805996072
-0.1473828608
-0.2302512242
0.1004370149
-0.0338668450
-0.0689244581
-0.1389639986
-0.2898347525
-0.2230111227
0.2437472650
0.3416141059
-0.2763284752
-0.3258911282
-0.1267597780
-0.0583786340
-0.2302856575
0.4289883134
0.2016257786
0.1178693737
-0.0416479477
0.3159526983
-0.0760904752
-0.1975331046
0.0696732923
-0.3263011926
-0.2084016331
-0.0880979487
0.1709560481
0.4666373306
0.4557060555
0.2570492366
-0.1888821139
-0.2716577712
-0.6002582111
-0.0665120482
0.2899940111
-0.2628481377
-0.0515690773
-0.0166759915
-0.4165589158
-0.4133232824
0.3282059972
1.0132834491
0.0557444360
-0.8455173563
0.5208221981
0.3929068430
0.5349509549
-1.1544896166
-0.4212056322
0.2408654175
-0.5322074949
-0.4485479230
0.0558248404
-0.6581995814
-0.1282197501
-0.0931495122
0.3551691893
0.3960235151
0.7621638548
1.0521955761
0.0707263188
-0.0339629856
-0.1730723603
-1.1106398523
-0.9215547039
0.1450483877
-0.1897511107
-0.2971683861
-0.6308687566
0.2570912722
-0.3628755064
-0.1628823609
0.0116218810
-0.0669544080
0.0589747512
0.0181919060
-0.1724649821
0.0041642710
-0.0577336358
-0.1062873178
-0.4725958498
0.1702908436
-0.3957137569
0.0860258700
-0.2036803246
-0.0910657869
0.0706866916
-0.1289467783
-0.1553246765
-0.1762590251
0.0641245077
-0.1566726425
0.3136180349
0.1539604903
-0.0947109936
0.2865763369
-0.2139915445
0.1498619941
0.2582343862
0.3227453992
0.2215768146
-0.1295841156
-0.0340233016
-0.4231680799
-0.2659948094
0.1219461007
0.1448997762
-0.3536573997
-0.2288421798
0.3789723424
-0.3383888530
0.1359789608
0.6495804448
-0.3564980329
0.2372585294
-0.4010189450
0.5769419696
0.2339989564
0.0984068399
-0.6225820235
0.1904472076
0.5835809621
0.3019146501
0.9237413309
-0.2398611655
1.3971552396
-0.5504969394
-0.4279487941
-0.8909278931
-0.4221567197
-0.4472261497
1.2602336917
0.3133636570
0.5332663677
0.5104152622
0.7670618841
-0.2460836223
-0.0169014502
-0.1040707690
1.5508063978
-0.2862853774
-0.0323219622
-0.3623620941
0.3664293793
0.0754000302
0.0851098195
0.4722802936
-0.0834270220
-0.1682573007
0.0328528474
0.1817794109
0.2711991264
-0.4791960827
0.1810826277
-0.3883793541
0.2944402421
-0.0637444587
0.3192620795
0.1232886174
-0.1957264260
-0.4592545256
0.1058541805
-0.0392789037
0.1551483320
0.4004512752
0.1530686610
-0.2920643457
-0.5086974233
0.3546192452
0.0944196187
0.0441617283
-0.3501510002
-0.0911247330
0.4686624794
-0.1372171699
-0.2817775471
-0.3867235218
0.4776925276
0.0106200385
0.0664484415
0.1928785432
0.2600165132
-0.2107640724
0.1641790301
-0.4523749016
0.1152386871
-0.2787705204
-0.1549363486
-0.1699001859
-0.2153783659
0.1228910157
-0.1666640635
-0.0587063121
-1.3350040612
0.6554148074
-0.5473038199
-0.6994171044
-1.1054827105
-0.6994120440
0.0054792501
-0.9275291265
-0.7747222764
0.1166982145
-0.8920916125
-0.0980727375
-0.5283557725
-0.2486871299
-0.0083843922
0.6487040560
-0.4471383788
-0.4882820281
-0.0893579656
-0.0970887135
0.1405771362
-0.9142769784
-0.4085476316
0.3839029008
0.4710780604
-0.1279631606
-0.4874452264
-0.0390273260
0.3022589980
-0.0774191122
-0.0021397614
0.0130506055
0.2498343747
-0.1997244657
-0.2319744786
0.0805224529
0.0388859995
0.0392362902
0.1414298290
0.2580842855
-0.2068065344
0.0373127931
-0.2239210018
0.0611014046
-0.0715986343
0.0756985999
-0.2770086950
-0.1126177725
-0.0362798814
-0.4032422392
-0.4816169844
0.0227681123
-0.2961185479
-0.0297184159
0.1672986220
0.0148069973
0.0967160729
0.0175006861
0.2575237466
0.2265913385
0.4662761369
-0.1887851731
-0.3569110910
-0.1529687584
0.1269764241
0.2781312303
-0.3510519191
0.3409341796
-0.0498737454
0.2815572425
0.2445464949
-0.0439359649
-0.6197685037
-0.2554837170
-0.5221046965
-0.1782203795
-0.0687782603
0.3913592156
-0.3305116236
0.1980183118
-0.2520673684
-0.0553210950
-0.8688124419
0.7232518324
-0.4127519462
0.1532897838
-0.5475731848
-0.5281644260
-0.0010103419
-0.5372586902
-0.4255655902
-1.0283739026
0.3338456994
0.4330261344
0.1641741502
0.6096857969
-0.9633180223
0.1567101292
-0.0751625897
0.3060528242
-0.3435257800
0.3742610168
0.1729850185
0.0960926754
0.1710899790
0.1373353898
-0.1117631809
0.1713902513
0.4518243320
0.1712824326
0.2821968489
0.1558916514
-0.6726441209
0.0260207958
-0.3197363091
-0.1773700501
0.0338025195
-0.2809808531
-0.2959370823
-0.0289966554
0.0703078230
0.0462078446
-0.1367647698
0.1769756772
-0.1068206635
0.2923684835
-0.1663347311
0.1467238446
-0.0111013211
-0.3648135433
-0.0798169860
-0.0464636884
-0.2354247738
0.2393733020
0.6588280512
0.1276535326
-0.3039823643
0.5615957923
0.3543447415
0.2538222885
-0.0355156876
-0.1873162288
0.4396343726
-0.1441551055
0.1624936176
0.4365388851
-0.3599811170
-0.3091757261
-1.6769760638
0.3873987049
0.4416545935
-0.7167647562
-0.4487719536
-0.8172431326
0.1012874239
-0.7470547685
1.3333863691
-0.6747390612
-0.5429019941
-0.6851351147
0.0761897060
0.1424037372
0.7244550107
-0.5014596858
0.2078874683
0.2563022109
-0.5971973236
-0.3978896581
0.4757805131
0.3165716091
0.2001131973
-0.4303094115
-0.0110295967
0.1652437153
0.2222381411
0.1365387207
-0.0707400865
0.0355815009
-0.0452322555
0.1169578471
-0.1497152561
-0.0249221060
-0.0087977159
-0.1054584227
0.1685743722
0.0777114800
-0.0076742934
-0.1638142557
0.1745459739
-0.0402391705
0.2479664475
-0.0320595311
0.0854101375
-0.2637546320
0.2262490744
0.0137840323
0.2467855967
0.0301957901
0.0602912452
-0.1559021554
0.1019755984
0.0520243691
0.2544306308
0.2044081571
-0.1984581158
-0.0062747605
-0.2757931050
-0.0980123581
-0.0382088328
0.0589626928
0.1413839711
-0.0206989099
0.1674670484
-0.0380508070
0.0467504480
0.1069111300
0.2289794359
0.0168890029
0.1924527624
-0.2596723432
0.2996679289
-0.1638228378
0.3555981105
0.4268980376
-0.3698980778
-0.2627056084
0.4101640040
0.0028150085
0.2461887155
-0.5704339643
-0.2553505423
0.0208152341
-0.0200110685
-0.1045390161
0.2971424007
-0.3027148259
0.4647709707
0.2841938205
-0.0249761597
-0.4108083361
-0.6354077001
0.3137026035
-0.2462554286
-0.0160975579
0.2084225070
-0.1921941000
-0.7351581990
0.0752460098
-0.1968974900
-0.3576480358
0.2200787176
-0.2715712252
-0.1039171983
-0.0163237720
-0.0970042903
-0.1947235423
0.3266788551
0.1691223295
-0.0884181390
-0.1263278190
-0.1797224874
0.2082217540
-0.1154999975
-0.1090072440
0.1062390675
-0.4046657889
0.3966000960
-0.0871903527
-0.1329843312
-0.5335382607
0.3073890396
0.1260814448
-0.0545954893
0.0696339273
-0.1993731923
-0.0373398676
0.3473801949
-0.5395565977
0.7340010248
-0.0962498057
-0.0658205889
0.0944569939
0.1738337343
-0.0416481245
-0.5293994802
0.1862362794
0.0920210575
-0.4879572223
-0.3325209641
-0.1047388336
0.1672867141
0.2472392679
0.3534561736
0.1870745510
0.0150481678
-0.1079864964
0.2969797804
0.9492061331
-0.1793337904
-0.1317846824
0.9192284024
-0.1212148054
-0.4723143577
-0.5895202775
1.1627942190
-0.9781571869
0.7253685584
-0.1854905815
0.0687088417
-0.2509947030
0.4163091298
0.6697676114
-0.5197153707
-0.1252143604
0.1745411207
0.3223579443
1.1783045319
0.6858039374
0.7292876140
0.5558093658
-0.4300262038
1.1163295528
0.0682782586
-0.0679866201
-0.3235851204
0.1889121079
0.0926335027
0.1377976802
-0.1370336337
-0.1042010530
0.1666814274
0.0306919882
-0.1872244626
0.0129819135
0.4325143556
0.0469420975
0.2269062723
-0.0636004876
0.0083878367
-0.0757703025
0.0317621840
0.1289547454
0.3045425539
0.0185740870
0.2399632250
0.1238830540
0.1856128778
0.0948734032
-0.1473224747
0.2753874671
0.2745153658
-0.0605153590
0.0972620481
-0.0259972361
-0.0758972083
0.0417232401
-0.3229325420
-0.0415589258
0.0789646458
-0.0660380654
0.0536225822
0.2103648960
-0.1071582151
0.0650152612
0.0015055507
-0.3152251110
-0.1433348941
-0.1744176906
-0.6460375591
-0.4190701114
-0.3722824098
0.2652792160
0.1430515211
-0.4810699940
0.4457019849
0.2390921277
0.1447907712
-0.1407004292
-0.1575875630
0.5069697711
-0.0768519524
0.1368864977
0.3855160067
0.0482707078
-0.1666297982
0.1013286268
0.1433866770
0.4424533957
0.1170437967
-0.1164548216
0.2858301625
0.0324056391
-0.1047224283
-0.6949730902
-0.0907032606
-0.4578739766
0.3915160499
-0.0927812209
-0.0173732568
0.1041440540
0.0095693231
0.0557463626
-0.1047348390
0.3910248407
0.0749358207
-0.0699677860
0.0261843024
-0.1196354651
0.2711479282
-0.0968606973
-0.3000551020
-0.2334029429
0.2395814421
-0.2670402082
-0.0470501746
0.1612320513
-0.1671983619
0.3864552241
-0.1037666738
-0.1286815032
-0.1567776112
0.0528103498
-0.0228205265
-0.3491231764
0.3425331523
-0.0235775109
-0.3413979589
0.0741191986
-0.3954968087
0.4359834589
0.1262446280
0.0487753669
0.1563731329
0.2651427390
0.0964344869
-0.2656803126
0.0320789015
0.1523280960
-0.0508374384
0.1673597144
0.0315554662
0.0880480559
-0.2977647552
-0.0892436875
-0.1198413995
0.1022408566
0.1069614917
-0.8058239337
0.4036831326
0.2030862744
0.7075650755
0.1077210705
-0.1003261737
0.2735355619
-0.8989576561
0.5981269703
-0.9326955629
-0.2586018833
0.5037911182
-0.1511277714
-0.1736640480
-0.5760903212
-0.7986811030
-0.4318532250
0.0474740679
0.3114874721
-0.0810804164
-0.0792853889
0.3377296553
-0.2411533421
0.0225759309
-0.0573706066
0.0712788999
1.2929900874
-0.3264020975
-0.0811954838
-0.3101059175
0.2171628366
-0.8960207428
-1.0738625009
-0.2824687599
-1.3059815207
-0.1943222008
-0.9995028546
-0.0091980003
-0.3742414147
1.1010836133
0.4164075871
-0.6095751966
-1.4520482717
1.4094545944
0.4043363886
-0.0068190738
1.3455457387
-1.2832132011
-0.5593081896
-1.4141469959
-0.3113230616
-0.0009749626
-0.4673127308
-0.4496685284
0.5637550692
0.6395472423
0.4124129885
0.1262025383
0.3299237536
0.4313415822
-0.0057277965
0.1324701465
0.2749282112
-0.6029944915
-0.0487793038
0.4245139059
-0.2771982553
0.5752726419
-0.4167806281
-0.3794990844
0.3270149774
0.1633638191
0.1564595931
-0.3650344341
0.3094932854
0.0661337035
-0.2305194724
-0.3973405875
0.1632277191
0.9680019977
0.1428870618
0.5477471990
-0.5108248253
0.4393985875
0.9106798119
-0.0082857622
-0.1642191399
0.1925374932
0.1940213074
-0.3709373809
0.0433207597
-0.0386702411
0.0949586396
-0.9484260423
0.1056142655
0.3713588238
0.0171738652
0.3490581374
0.0137705318
-0.4332954985
0.3755963517
-0.2518167308
-0.3269828008
0.0942060297
-0.3152394514
1.4295795019
0.3000574318
0.3636965445
-0.1146916806
-0.3360688368
0.7599368842
0.1276062835
-0.4237453586
0.0284550279
-0.1598179554
0.0486538502
-0.3811617267
-0.6644075625
0.0054494421
0.0035660230
-0.3121387937
-0.3217817756
0.1103697095
-0.7394939335
-0.2775184476
-0.6952772491
0.7005405027
0.1973345222
0.3118660589
-0.0094503662
-0.1035371273
0.1208399597
0.3518562241
-0.4956646287
0.2107969547
0.1517414631
0.7063538489
0.2800860637
0.2526078360
-0.2888486107
0.8173470411
0.7879206402
-0.7394153134
-0.2824063281
0.3284171462
0.0281926902
-0.2461930561
0.5209095492
-0.7689015177
-0.0980195773
0.0435327180
-0.2927092437
0.0756000883
-0.3107126929
-0.6131805284
0.2803425853
0.2142334176
-0.7384301377
0.4294577614
-0.2750833083
-0.5523764135
0.2911200837
-0.3437888629
0.4731616436
-0.0661539218
0.8220145479
0.3554965671
-0.3048595647
-0.5873101207
-0.1313682818
0.0172988748
-0.1711119658
1.3266886820
0.1550871376
-0.5272459997
0.2097707149
-0.5213383220
-0.2040176354
0.9972365924
-0.7732930388
-0.4329708846
0.3053675691
0.4836309331
-0.7151909237
-0.3540791206
0.0472247501
0.5106262812
-1.0915474868
0.1109052897
0.5342403297
-0.1185419032
-0.0554497638
-0.3969538958
-0.1562621504
0.0704352730
0.1607355171
-0.3342959746
-0.2587834927
0.4175975513
-0.4659622959
0.3685838845
-0.6808402220
0.3340100768
-0.4385199873
-0.6364607795
-0.3523590188
0.5339176322
0.4071996951
-0.0795913524
0.4654939462
0.0186979769
0.5431530609
0.3352919606
0.3626510972
-0.0333025030
0.8464598454
-0.0949240864
0.1239154059
-0.3158699194
-0.6178402199
0.2307027074
-0.1173557079
0.2664553207
0.0311969060
-0.1432439675
-0.4355469563
-0.4102427436
-0.8108888667
0.1467792114
0.3862342457
0.4997017581
-0.5943106471
-0.3771683835
-0.0760722635
-0.5996536354
0.3603832838
0.1043752016
-0.6446053159
-0.0122540158
-0.0130688182
-0.3270435100
0.8226348534
-0.5434970351
0.3963048683
0.3294500429
0.0749125520
0.3223882787
0.1826161766
0.4925836551
0.0719518869
0.3433838496
0.3528974114
0.3852965819
-0.6197416273
0.1836124609
0.4651284328
-0.2393662615
-0.4067773058
0.0575842810
0.1357220005
-0.7423380833
0.3144531492
-0.4245249489
-0.2723180246
-0.1165122192
0.4216585595
1.0913824540
0.6071783331
-0.2810017224
-0.0846669086
-0.2640579907
-0.7579811141
-0.0285514177
-0.3029803748
0.2427691823
-0.3682946497
-0.8032634847
0.3956157770
0.0266922907
0.5798117260
0.0501393771
0.3741037083
-0.3831952436
-0.5325539474
0.4382290907
0.2741815998
-0.0917228841
-0.6397510449
0.3261245429
-0.0410137179
0.1996839872
0.2276681753
-0.3117921117
0.1557458087
-0.6301468332
0.1648359440
0.3995686198
0.0525026469
-0.1649069772
-0.0707858164
-0.1315989684
-0.4432055933
-0.3008683811
0.6643915968
0.6558539114
0.0917915695
-1.3146043729
-0.2248152718
-0.0507463480
-0.5668714226
0.4086881347
-0.5150691191
0.3072790153
-0.2651084826
-0.5055892938
-0.0849615143
0.3655287730
0.2504262622
-0.2415688186
0.3058907235
-0.3411261545
0.4461536627
-0.2343384658
0.3274088308
-0.0332330549
0.4882266102
-0.7285001610
-0.1076195933
0.5318958128
0.0271027443
-0.0665608633
0.3850391955
0.5341628218
-0.3454250133
-0.2270870999
0.6007451621
-0.1993197544
0.1798065419
0.0627574001
-0.3777405874
0.0430179618
0.0804234676
-0.0582717556
0.2400018407
-0.7773871299
0.6698136610
-0.0360473296
0.0734759216
-0.8385638459
0.7821316529
-0.0268273917
0.1164495798
-0.2763591007
0.2783700929
-0.1903906170
-0.0115043877
-0.3753584969
-0.2439026152
-0.3774918257
-0.3449630932
0.0855666628
-0.0633933189
0.3158984382
0.4276723892
0.4972241611
0.1680287693
-0.1529642119
-0.2544477900
-0.1166977795
0.0883561428
0.1832951973
-0.0744303928
0.7304021392
0.2862767913
0.4992173323
0.3100791163
0.3311836542
-0.4956678976
-0.0462659641
0.3511504376
-0.2947059319
0.5419411637
0.1867165094
-0.9925481488
-0.1026228555
-0.0076044418
-0.0041995413
-0.3404682920
0.2262137664
-0.4922995378
-0.4387756244
0.1936759221
0.3334469126
0.2752595910
-0.2662216523
0.1281082639
0.2781191741
-0.5477720305
-0.6565111125
-0.0535621227
-0.2510034453
0.7964768573
-0.5103918276
0.5570638576
-0.4505922592
-0.4153389024
0.0788792805
0.0810402987
0.4987047535
-0.1984385757
0.6663280326
-0.1945824978
0.2753025230
0.6164088303
-0.5393438808
0.5371590788
-0.2665187791
0.2494890731
0.7174542029
-0.0807134348
-0.2184841515
-0.5855731013
0.2757114286
-0.7286484315
-0.2544997432
0.2806736985
0.4509554685
-0.8393336892
0.1266672039
0.1378308583
0.1681158173
-0.8332001167
0.8285723422
0.2683714639
0.3207682454
1.3409204364
-0.0438332903
-0.4106594852
0.2359237717
0.6142310596
-0.3353826969
0.9716264806
0.8055271489
0.3773974309
-0.3763427244
-0.6195522978
0.3934815615
0.0971733117
-0.3312135064
0.4055857506
-0.6362554163
-0.3091354155
-0.0198549039
-0.8257576858
0.5020658501
-0.2979510128
0.9559575673
0.1933563260
-0.3284994999
0.7052678659
-0.3518170462
0.8680872558
-0.6560359573
0.0609867539
0.1305353533
0.2515940824
0.1187222562
0.6398981599
0.2605246169
-0.0158940912
0.7315181574
-0.1426602877
0.5802453188
0.1116218142
-0.5038214260
0.0945258116
0.0997913157
-0.6244045068
-0.0122531067
0.3510801115
0.0412469769
0.7833759692
0.0276272991
-0.4042086054
1.5422077505
-0.1156153495
0.8233190085
0.0031971746
-0.5420959200
0.2831530534
-0.1095066729
-0.3035638318
-0.0660523513
-0.3994489208
0.1120830710
-0.2325583607
-0.0194289262
0.4312767098
0.2638434888
-0.6796930172
-0.5521673491
0.4482776688
0.3706262449
0.0538714536
-0.1925368349
-0.3471383190
0.2740679066
0.0436087235
-0.3480988576
-0.1165838303
-0.5814868088
0.6286981666
-0.7271121871
-0.7219478898
0.5279500924
-0.8681973521
-0.8078491504
-0.3739474546
0.3807600674
-0.1206789837
0.3679081148
-0.6139541965
0.0514644436
0.1007096926
0.4620741244
0.4517978841
0.2663618130
0.1222012741
0.4084969421
-0.1013263415
0.5900878861
0.5703943738
0.0679951652
-0.1861694305
0.2720325950
-0.1011904328
0.1744614333
0.1305542008
0.6310773874
0.7925586786
0.4030393115
-1.4460497796
0.2275376574
-0.6493778492
-0.0483633635
0.7169317478
1.0334322170
0.1007932713
0.8500627780
0.6629421349
-1.4808600518
-0.4454939077
0.3600282437
-1.9224325384
0.1961003386
-0.1466885173
-1.1514794455
-0.8805982768
1.5285822201
-1.2488337742
-0.5276628574
-1.3552133125
-0.3459184132
1.1350869537
0.5834630300
1.1578539925
-1.5686424677
-1.1985999760
1.8811231437
-1.2101285801
0.1539642778
0.8168937432
-0.1296697656
-1.3251551335
-0.4997678082
0.3341307849
-0.0348461041
0.2191862801
-0.8339207944
0.8841529601
1.6050963172
1.0109460645
-2.0134712529
0.9049588317
-1.6289206458
-2.0029303822
1.6294545459
-1.0636011787
1.0219086289
0.1404256783
-1.3584472643
0.9556229905
0.8373371368
-1.7976395244
-1.5843204573
0.3888546917
0.4338014629
1.7860730894
-1.2397651861
-1.2692124738
1.6175459960
0.8999381580
1.2936100257
0.6887285904
0.3001668066
-0.5177981315
-0.0911604030
-0.8097218796
0.7368606235
-0.2979506319
0.5013113747
-0.9372807570
2.1384018770
1.4672546108
1.7533159154
-0.4471541309
1.1813863111
-0.7551288586
0.4827688351
1.6077722240
0.1976523594
-0.1175294271
-0.1564822045
1.7629401411
1.0944659760
-0.3457128917
2.6288720171
1.7178146452
0.5163846521
2.0849454016
-1.8259961255
-0.6921849028
-0.3635744259
-0.0713845712
0.4956090669
-0.9641003728
0.6209070919
0.4866938409
-0.4111921678
1.7183067740
1.0390654480
1.3439255678
0.7295772724
-1.2687565884
1.1546217365
-1.2672820659
-1.1658073905
1.1615707801
-2.0786107784
1.3974532370
0.8618697646
1.5246839855
-0.4670316410
1.7136380585
0.1392602405
0.6980309686
-0.5359829815
0.5928256513
-0.4817657897
0.0822529522
-0.9327166296
-0.4621880685
-0.1572225763
1.3191816666
0.4558015718
1.7599266350
1.2350910814
-0.8696156621
0.8976306071
-1.0431165464
1.4805426306
-1.5808986430
2.3328102545
1.8320873209
-0.7333958453
1.6584131421
-1.4178654069
-1.9015547527
-1.5863736735
-0.5228811613
-0.3474494662
1.3292661427
1.8460988450
-1.5794736947
1.2707027305
-0.5753094121
-0.4862434185
1.0088546741
-0.7541629390
0.7556623671
-0.1469627405
-1.3929706650
-1.1204234769
-1.1578280511
1.2743795277
-0.3151296525
0.3781701407
-0.1618687965
0.3343924185
0.1429619803
-1.5903768398
-0.2070911521
1.3767499691
-0.1044708262
0.9110813559
-0.9966173777
0.1854151564
-1.6416780303
-2.0111708816
1.8058610940
-0.3756334792
-0.7800416494
1.9337972737
-0.9295980707
0.4255835007
2.1207802244
-1.3573590249
1.4800342627
-0.4987497946
0.7383310231
-0.0669846409
1.4270935621
0.3119319984
-1.1566745389
1.2276710322
1.3114780639
1.7532475318
1.7056578813
-0.6824763535
0.8232078925
1.0115013127
-2.2993153273
-0.9670045409
1.3363399094
0.2504945793
0.7128513143
1.3187017494
0.5531557124
1.3992948378
-0.9859927709
-0.9368398284
-1.6838393683
1.7565493343
-0.2736014208
-1.5786786607
1.4235151451
1.6104468166
-1.9729649199
0.4551727541
-0.7665558405
0.4104183111
-0.3184734877
-2.0006600414
0.7248695766
0.0532411962
1.6606234283
-1.7894491004
-0.2689711069
1.3374152935
-1.4820152632
0.3552035536
1.0633661721
1.4934139441
2.3276253941
1.9742613413
-0.6783657520
-1.5071033963
1.4672264978
1.6121090088
-1.2161165338
-1.7722294356
-0.4493750828
1.0534217189
-0.2295394077
-0.9316560521
-0.2118723935
-1.6784293564
-2.0205134203
-1.9765438612
0.1438466983
0.7294196706
0.7659819873
-0.9844411327
-0.4558994668
2.1948212996
2.2577419791
1.0711838391
-1.9348964886
-0.2152279686
-0.2014133548
-0.4642763273
1.2819947294
-0.2488340768
-1.5084227444
-1.8715006401
-0.2393307835
0.8251504494
-1.4133834106
-0.2291863021
-1.0001920243
1.1078877358
0.2992714923
1.5793844828
-0.3577183471
-1.7117157085
0.6100727699
2.0630257702
-0.1632442230
-1.3368388940
-0.4555255523
1.3258905801
0.7831492931
-1.1145397343
1.9339203565
0.3958947140
-0.0961398378
0.5554219484
-0.2635242769
-0.4725619320
-1.2811354466
0.8236747276
-0.7577389748
-1.2857903562
-0.9280622915
-1.1182456044
2.0056123264
0.5260684191
-0.3428134086
1.8272050091
1.9982989790
1.7970323359
0.7545161305
1.2922685421
0.1335650468
-2.6022185513
-2.0347140766
-0.9545806221
-0.2881439951
0.5581022694
0.5092938463
-0.5395668940
-1.2692211170
0.4955230660
-1.0606988485
1.9368184370
0.3476932753
-0.6221190947
0.4591198010
1.5951187129
-0.7217973268
1.4552771949
-0.0225278563
-1.5105793316
-1.0507605229
-1.6307296164
-1.5710748353
0.2476623172
1.7153613577
-0.8564684659
1.5389558813
2.1515813261
-0.1661156844
1.4378663038
1.6015260130
-2.2384569993
0.7814119739
1.2324832919
1.1979072477
-1.2354206695
-1.2986445119
1.5064532624
0.3719743356
-1.1258382247
-0.3719523994
-0.1893878294
-1.4724363998
-0.5521032113
0.8806767435
-1.0250343723
-0.4059604035
1.0906411338
1.1232412963
-0.8820171626
-1.0976331174
1.1528687448
0.0449848109
0.0858182443
-0.1143936021
-0.1316286551
0.0860275870
0.2145234413
-0.0012956815
0.1043117113
0.1224498407
0.2419835435
-0.0720421542
-0.0721392438
-0.0461080264
0.2635488639
0.2904023846
0.0291706981
